{"learner":{"attributes":{"scikit_learn":"{\"_estimator_type\": \"classifier\"}"},"feature_names":[],"feature_types":[],"gradient_booster":{"model":{"gbtree_model_param":{"num_parallel_tree":"1","num_trees":"400"},"iteration_indptr":[0,1,2,3,4,5,6,7,8,9,10,11,12,13,14,15,16,17,18,19,20,21,22,23,24,25,26,27,28,29,30,31,32,33,34,35,36,37,38,39,40,41,42,43,44,45,46,47,48,49,50,51,52,53,54,55,56,57,58,59,60,61,62,63,64,65,66,67,68,69,70,71,72,73,74,75,76,77,78,79,80,81,82,83,84,85,86,87,88,89,90,91,92,93,94,95,96,97,98,99,100,101,102,103,104,105,106,107,108,109,110,111,112,113,114,115,116,117,118,119,120,121,122,123,124,125,126,127,128,129,130,131,132,133,134,135,136,137,138,139,140,141,142,143,144,145,146,147,148,149,150,151,152,153,154,155,156,157,158,159,160,161,162,163,164,165,166,167,168,169,170,171,172,173,174,175,176,177,178,179,180,181,182,183,184,185,186,187,188,189,190,191,192,193,194,195,196,197,198,199,200,201,202,203,204,205,206,207,208,209,210,211,212,213,214,215,216,217,218,219,220,221,222,223,224,225,226,227,228,229,230,231,232,233,234,235,236,237,238,239,240,241,242,243,244,245,246,247,248,249,250,251,252,253,254,255,256,257,258,259,260,261,262,263,264,265,266,267,268,269,270,271,272,273,274,275,276,277,278,279,280,281,282,283,284,285,286,287,288,289,290,291,292,293,294,295,296,297,298,299,300,301,302,303,304,305,306,307,308,309,310,311,312,313,314,315,316,317,318,319,320,321,322,323,324,325,326,327,328,329,330,331,332,333,334,335,336,337,338,339,340,341,342,343,344,345,346,347,348,349,350,351,352,353,354,355,356,357,358,359,360,361,362,363,364,365,366,367,368,369,370,371,372,373,374,375,376,377,378,379,380,381,382,383,384,385,386,387,388,389,390,391,392,393,394,395,396,397,398,399,400],"tree_info":[0,0,0,0,0,0,0,0,0,0,0,0,0,0,0,0,0,0,0,0,0,0,0,0,0,0,0,0,0,0,0,0,0,0,0,0,0,0,0,0,0,0,0,0,0,0,0,0,0,0,0,0,0,0,0,0,0,0,0,0,0,0,0,0,0,0,0,0,0,0,0,0,0,0,0,0,0,0,0,0,0,0,0,0,0,0,0,0,0,0,0,0,0,0,0,0,0,0,0,0,0,0,0,0,0,0,0,0,0,0,0,0,0,0,0,0,0,0,0,0,0,0,0,0,0,0,0,0,0,0,0,0,0,0,0,0,0,0,0,0,0,0,0,0,0,0,0,0,0,0,0,0,0,0,0,0,0,0,0,0,0,0,0,0,0,0,0,0,0,0,0,0,0,0,0,0,0,0,0,0,0,0,0,0,0,0,0,0,0,0,0,0,0,0,0,0,0,0,0,0,0,0,0,0,0,0,0,0,0,0,0,0,0,0,0,0,0,0,0,0,0,0,0,0,0,0,0,0,0,0,0,0,0,0,0,0,0,0,0,0,0,0,0,0,0,0,0,0,0,0,0,0,0,0,0,0,0,0,0,0,0,0,0,0,0,0,0,0,0,0,0,0,0,0,0,0,0,0,0,0,0,0,0,0,0,0,0,0,0,0,0,0,0,0,0,0,0,0,0,0,0,0,0,0,0,0,0,0,0,0,0,0,0,0,0,0,0,0,0,0,0,0,0,0,0,0,0,0,0,0,0,0,0,0,0,0,0,0,0,0,0,0,0,0,0,0,0,0,0,0,0,0,0,0,0,0,0,0,0,0,0,0,0,0,0,0,0,0,0,0,0,0,0,0,0,0,0,0,0,0,0,0,0,0,0,0,0,0,0,0,0,0,0,0,0,0,0,0,0,0],"trees":[{"base_weights":[5.4016444E-3,9.682637E-1,-9.812229E-1,1.1556373E0,-1.7862235E-1,1.1543353E0,-1.4847175E0,1.351072E0,-1.7856823E-1,1.2966893E0,-2.741709E0,6.4719E-1,-2.00965E0,1.3763855E0,-1.6893722E-1,-1.4120498E0,1.362885E0,-2.8936384E0,9.704076E-3,-1.8811605E0,1.0775833E0,-2.706017E0,5.806903E-1,1.3807412E0,-1.3012199E-1,-1.7530011E0,3.2908136E-1,1.3698605E0,-6.518267E-2,-7.567059E-3,-3.0555127E0,6.283565E-2,-2.37969E0,-1.7026232E-1,1.2733427E0,-2.9674273E0,6.852525E-2,-1.8000019E0,1.2020261E0,-9.014492E-2,1.3824186E0,9.704076E-3,-1.9441756E0,3.7812617E-2,-1.52581725E-2,-1.52581725E-2,6.866738E-2,-1.52581725E-2,-3.188475E0,-2.4477339E0,1.9637229E-2,-1.8593863E0,1.3614601E0,-3.1061282E0,6.67618E-2,-2.2129784E0,6.3172184E-2,-1.14661254E-1,1.2578659E0,6.9171265E-2,-1.493374E-2,-2.187484E0,-1.493374E-2,-4.022042E-2,-1.6397075E-1,-2.5188813E0,1.9637229E-2,-2.1598358E0,3.4666326E-2,1.36872E0,1.7150953E-2,-3.3432488E0,-2.0384972E0,2.345634E-2,-2.2735286E0,-1.6421564E0,1.3005883E0,-1.3769963E-1,-3.53417E-2,1.9637229E-2,-1.2966745E-1,-2.6738185E-2,-1.21285014E-1,6.855807E-2,1.5122779E-2,-9.8409E-2,-1.7347576E-1,-1.0281563E-1,4.043387E-2,-1.2041896E-1,-3.9138597E-2,-1.0162294E-1,-7.567059E-3,-4.7813408E-2,6.6185705E-2],"categories":[],"categories_nodes":[],"categories_segments":[],"categories_sizes":[],"default_left":[0,1,0,1,0,1,0,1,0,0,1,0,1,1,0,0,1,0,0,0,0,1,0,0,0,0,0,0,0,0,0,0,1,0,0,1,0,1,0,0,1,0,1,0,0,0,0,0,0,1,0,1,1,1,0,0,0,0,0,0,0,0,0,0,0,0,0,0,0,1,0,0,1,0,1,1,0,0,0,0,0,0,0,0,0,0,0,0,0,0,0,0,0,0,0],"id":0,"left_children":[1,3,5,7,-1,9,11,13,-1,15,17,19,21,23,-1,25,27,29,-1,31,33,35,37,39,-1,41,43,45,-1,-1,47,-1,49,-1,51,53,-1,55,57,-1,59,-1,61,-1,-1,-1,-1,-1,63,65,-1,67,69,71,-1,73,-1,-1,75,-1,-1,77,-1,-1,-1,79,-1,81,-1,83,-1,85,87,-1,89,91,93,-1,-1,-1,-1,-1,-1,-1,-1,-1,-1,-1,-1,-1,-1,-1,-1,-1,-1],"loss_changes":[6.0978965E3,2.768063E3,3.4106152E3,2.887705E3,0E0,3.393333E2,2.872857E3,3.6352686E2,0E0,1.06776E2,1.0223694E1,5.545292E2,3.7160254E3,5.527881E1,0E0,9.14937E0,1.241272E1,8.708389E0,0E0,1.19095856E2,3.856407E2,1.733707E3,6.487484E2,1.8403809E1,0E0,4.931179E0,1.0995626E0,3.7503662E0,0E0,0E0,6.1417847E0,0E0,1.3108551E1,0E0,1.1765857E2,9.1459863E2,0E0,1.17759705E2,7.065756E1,0E0,5.453125E0,0E0,3.8430824E0,0E0,0E0,0E0,0E0,0E0,1.3626862E0,1.3718475E1,0E0,1.0572666E1,2.5339966E0,3.6741504E2,0E0,1.4130188E1,0E0,0E0,4.45614E1,0E0,0E0,6.127697E0,0E0,0E0,0E0,1.4371002E1,0E0,3.3817635E0,0E0,6.343384E-1,0E0,2.0291602E2,1.5419922E1,0E0,1.396286E1,2.8422403E0,1.890741E1,0E0,0E0,0E0,0E0,0E0,0E0,0E0,0E0,0E0,0E0,0E0,0E0,0E0,0E0,0E0,0E0,0E0,0E0],"parents":[2147483647,0,0,1,1,2,2,3,3,5,5,6,6,7,7,9,9,10,10,11,11,12,12,13,13,15,15,16,16,17,17,19,19,20,20,21,21,22,22,23,23,25,25,26,26,27,27,30,30,32,32,34,34,35,35,37,37,38,38,40,40,42,42,48,48,49,49,51,51,52,52,53,53,55,55,58,58,61,61,65,65,67,67,69,69,71,71,72,72,74,74,75,75,76,76],"right_children":[2,4,6,8,-1,10,12,14,-1,16,18,20,22,24,-1,26,28,30,-1,32,34,36,38,40,-1,42,44,46,-1,-1,48,-1,50,-1,52,54,-1,56,58,-1,60,-1,62,-1,-1,-1,-1,-1,64,66,-1,68,70,72,-1,74,-1,-1,76,-1,-1,78,-1,-1,-1,80,-1,82,-1,84,-1,86,88,-1,90,92,94,-1,-1,-1,-1,-1,-1,-1,-1,-1,-1,-1,-1,-1,-1,-1,-1,-1,-1],"split_conditions":[9.201768E-2,1.00628056E-1,8.819043E-2,1.114807E-1,-1.7862235E-1,9.504692E-2,1.4048773E-1,1.0657457E-1,-1.7856823E-1,4.357221E-2,1.060164E-1,2.9685274E-1,6.634602E-2,1.2734549E-1,-1.6893722E-1,9.15813E-2,7.5982615E-2,1.3356946E-1,9.704076E-3,1.0943107E-1,2.555813E-1,1.0773247E-1,5.937155E-1,2.91338E-1,-1.3012199E-1,1.9443025E-1,1.320709E-1,6.6601895E-2,-6.518267E-2,-7.567059E-3,3.6126977E-1,6.283565E-2,1.2151015E-1,-1.7026232E-1,6.184061E-2,8.922406E-2,6.852525E-2,8.841251E-2,1.4933877E-1,-9.014492E-2,9.2027225E-2,9.704076E-3,9.3678385E-2,3.7812617E-2,-1.52581725E-2,-1.52581725E-2,6.866738E-2,-1.52581725E-2,1.11814395E-1,1.4266048E-1,1.9637229E-2,1.11481875E-1,5.4471053E-2,5.8181457E-2,6.67618E-2,3.4093988E-1,6.3172184E-2,-1.14661254E-1,4.6212757E-1,6.9171265E-2,-1.493374E-2,7.117828E-2,-1.493374E-2,-4.022042E-2,-1.6397075E-1,1.5781686E-1,1.9637229E-2,5.7931796E-2,3.4666326E-2,7.480697E-2,1.7150953E-2,1.03116855E-1,1.7230824E-1,2.345634E-2,9.186104E-2,6.994701E-2,2.7677965E-1,-1.3769963E-1,-3.53417E-2,1.9637229E-2,-1.2966745E-1,-2.6738185E-2,-1.21285014E-1,6.855807E-2,1.5122779E-2,-9.8409E-2,-1.7347576E-1,-1.0281563E-1,4.043387E-2,-1.2041896E-1,-3.9138597E-2,-1.0162294E-1,-7.567059E-3,-4.7813408E-2,6.6185705E-2],"split_indices":[9747,6514,8394,3706,0,8098,4233,3383,0,8394,1454,8098,3968,8098,0,8098,8625,8803,0,1110,3108,7736,8098,9415,0,5082,3968,3968,0,0,8584,0,1476,0,4233,9625,0,2624,5082,0,8072,0,9540,0,0,0,0,0,9540,4814,0,2016,8625,4814,0,9441,0,0,4286,0,0,8625,0,0,0,7766,0,3968,0,3968,0,8625,692,0,1447,3383,5985,0,0,0,0,0,0,0,0,0,0,0,0,0,0,0,0,0,0],"split_type":[0,0,0,0,0,0,0,0,0,0,0,0,0,0,0,0,0,0,0,0,0,0,0,0,0,0,0,0,0,0,0,0,0,0,0,0,0,0,0,0,0,0,0,0,0,0,0,0,0,0,0,0,0,0,0,0,0,0,0,0,0,0,0,0,0,0,0,0,0,0,0,0,0,0,0,0,0,0,0,0,0,0,0,0,0,0,0,0,0,0,0,0,0,0,0],"sum_hessian":[6.416951E3,3.2475935E3,3.1693574E3,3.1196074E3,1.27985954E2,6.044227E2,2.5649348E3,2.996436E3,1.2317144E2,5.837604E2,2.066231E1,5.067281E2,2.0582068E3,2.9811902E3,1.52459755E1,1.3440532E1,5.703199E2,1.9659285E1,1.0030247E0,7.32208E1,4.335073E2,1.6220916E3,4.3611514E2,2.9785823E3,2.6078644E0,1.1233877E1,2.2066543E0,5.6931683E2,1.0030247E0,1.2036297E0,1.8455654E1,9.829642E0,6.3391163E1,1.7452631E1,4.1605466E2,1.5245975E3,9.7494E1,8.987102E1,3.4624414E2,1.0030247E0,2.977579E3,1.0030247E0,1.0230852E1,1.2036297E0,1.0030247E0,1.0030247E0,5.683138E2,1.0030247E0,1.7452631E1,6.1986927E1,1.4042346E0,1.0832667E1,4.05222E2,1.4772548E3,4.7342766E1,7.943956E1,1.04314575E1,4.814519E0,3.4142963E2,2.9759744E3,1.6048396E0,8.626013E0,1.6048396E0,1.0030247E0,1.6449606E1,6.0582695E1,1.4042346E0,9.829642E0,1.0030247E0,4.020123E2,3.2096791E0,1.2070399E3,2.7021487E2,1.6048396E0,7.783472E1,4.4133086E0,3.370163E2,5.6169386E0,3.0090742E0,1.4042346E0,5.917846E1,1.8054445E0,8.024198E0,4.008087E2,1.2036297E0,1.0291034E2,1.1041296E3,2.6881064E2,1.4042346E0,7.0813545E1,7.021173E0,3.2096791E0,1.2036297E0,3.0090742E0,3.3400723E2],"tree_param":{"num_deleted":"0","num_feature":"10000","num_nodes":"95","size_leaf_vector":"1"}},{"base_weights":[5.190716E-3,9.457429E-1,-9.233736E-1,1.1279043E0,-1.5758686E-1,8.149736E-1,-1.4374068E0,1.3245975E0,-1.5757965E-1,1.0713503E0,-2.3270128E0,-2.0272527E0,6.6403794E-1,1.350609E0,-1.5081447E-1,-1.5182014E-1,1.1953117E0,-3.250979E-1,-2.465828E0,6.757769E-2,-2.346313E0,-1.4417006E0,1.2310884E0,1.3546537E0,-1.1780639E-1,-1.6878036E0,1.3384293E0,3.942826E-2,-9.39239E-1,1.2019041E-2,-2.5256445E0,-2.5343668E0,1.2773294E0,6.4926915E-2,-2.04937E0,-2.2889225E0,1.275671E0,-8.680911E-2,1.3563501E0,-1.7937834E0,3.6611315E-2,1.3493288E0,-9.007368E-2,1.2848389E-2,-7.76827E-2,1.2019041E-2,-2.587949E0,-2.6638463E0,1.2677971E0,6.549508E-2,-2.9270237E-2,-1.8229697E0,-1.5425704E-1,-1.3069935E-1,-3.928257E-2,1.2981509E0,-1.3604634E0,1.3570232E0,-7.132099E-3,3.60403E-2,-1.9051858E0,-1.4057616E-2,1.3524046E0,-2.6514988E0,-3.8100772E-3,6.6315554E-2,-2.7634785E0,6.676145E-2,-2.222727E-2,3.9550845E-2,-1.873719E0,-7.640871E-2,1.3097088E0,1.0814494E-2,-9.767013E-2,2.8186524E-3,6.788528E-2,-1.0099359E-1,3.4750134E-2,6.769867E-2,2.178972E-2,-1.74935E-2,-1.3579552E-1,-1.4814721E-1,-9.61841E-2,2.2284547E-2,-9.6138164E-2,-3.0957809E-2,6.6167705E-2],"categories":[],"categories_nodes":[],"categories_segments":[],"categories_sizes":[],"default_left":[0,1,0,1,0,1,1,1,0,0,0,0,0,1,0,0,0,0,0,0,1,0,0,0,0,1,1,0,0,0,0,1,1,0,0,0,1,0,1,0,0,0,0,0,0,0,1,0,0,0,0,0,0,0,0,0,0,0,0,0,1,0,1,0,0,0,1,0,0,0,0,0,0,0,0,0,0,0,0,0,0,0,0,0,0,0,0,0,0],"id":1,"left_children":[1,3,5,7,-1,9,11,13,-1,15,17,19,21,23,-1,-1,25,27,29,-1,31,33,35,37,-1,39,41,-1,43,-1,45,47,49,-1,51,53,55,-1,57,59,-1,61,-1,-1,-1,-1,63,65,67,-1,-1,69,-1,-1,-1,71,73,75,-1,-1,77,-1,79,81,-1,-1,83,-1,-1,-1,85,-1,87,-1,-1,-1,-1,-1,-1,-1,-1,-1,-1,-1,-1,-1,-1,-1,-1],"loss_changes":[5.6267334E3,2.3925203E3,2.8980886E3,2.5842498E3,0E0,5.989996E2,3.103208E3,3.3503955E2,0E0,3.5260223E2,1.4810669E1,2.1099268E3,6.575669E2,4.6887207E1,0E0,0E0,2.770562E2,4.0200815E0,9.087128E0,0E0,1.2202822E3,1.9745102E2,7.090759E1,1.762207E1,0E0,9.504654E0,2.4163696E1,0E0,3.0061285E0,0E0,9.469757E0,8.394092E2,6.15329E0,0E0,1.6919373E1,7.6898384E-1,2.7156311E1,0E0,3.1308594E0,1.0025871E1,0E0,3.5568848E0,0E0,0E0,0E0,0E0,7.8258667E0,6.566836E2,7.1294403E0,0E0,0E0,1.2271912E1,0E0,0E0,0E0,1.5895996E1,4.266021E0,2.5058594E0,0E0,0E0,1.03057785E1,0E0,3.1921387E-1,6.3175354E0,0E0,0E0,2.6280566E2,0E0,0E0,0E0,9.966675E0,0E0,1.1983032E1,0E0,0E0,0E0,0E0,0E0,0E0,0E0,0E0,0E0,0E0,0E0,0E0,0E0,0E0,0E0,0E0],"parents":[2147483647,0,0,1,1,2,2,3,3,5,5,6,6,7,7,9,9,10,10,11,11,12,12,13,13,16,16,17,17,18,18,20,20,21,21,22,22,23,23,25,25,26,26,28,28,30,30,31,31,32,32,34,34,35,35,36,36,38,38,39,39,41,41,46,46,47,47,48,48,51,51,55,55,56,56,57,57,60,60,62,62,63,63,66,66,70,70,72,72],"right_children":[2,4,6,8,-1,10,12,14,-1,16,18,20,22,24,-1,-1,26,28,30,-1,32,34,36,38,-1,40,42,-1,44,-1,46,48,50,-1,52,54,56,-1,58,60,-1,62,-1,-1,-1,-1,64,66,68,-1,-1,70,-1,-1,-1,72,74,76,-1,-1,78,-1,80,82,-1,-1,84,-1,-1,-1,86,-1,88,-1,-1,-1,-1,-1,-1,-1,-1,-1,-1,-1,-1,-1,-1,-1,-1],"split_conditions":[9.201768E-2,1.00628056E-1,1.4048773E-1,1.114807E-1,-1.5758686E-1,7.7073015E-2,6.634602E-2,1.0657457E-1,-1.5757965E-1,2.5563282E-1,1.05443545E-1,6.137083E-2,5.937155E-1,1.2734549E-1,-1.5081447E-1,-1.5182014E-1,6.309687E-2,1.4444171E-1,1.3169183E-1,6.757769E-2,8.189365E-2,1.2652402E-1,1.6058575E-1,2.6531008E-1,-1.1780639E-1,1.2346173E-1,5.5574205E-2,3.942826E-2,1.0418786E-1,1.2019041E-2,1.6908999E-1,1.3201904E-1,7.295038E-2,6.4926915E-2,1.5556875E-1,2.2187486E-1,4.7569595E-2,-8.680911E-2,9.2027225E-2,2.2261815E-1,3.6611315E-2,1.1646372E-1,-9.007368E-2,1.2848389E-2,-7.76827E-2,1.2019041E-2,1.21711865E-1,1.1986009E-1,1.4187887E-1,6.549508E-2,-2.9270237E-2,1.7771856E-1,-1.5425704E-1,-1.3069935E-1,-3.928257E-2,2.3155177E-1,7.733381E-2,1.0554782E-1,-7.132099E-3,3.60403E-2,7.515025E-2,-1.4057616E-2,8.961573E-2,9.2883445E-2,-3.8100772E-3,6.6315554E-2,5.367994E-2,6.676145E-2,-2.222727E-2,3.9550845E-2,1.8222706E-1,-7.640871E-2,2.7677965E-1,1.0814494E-2,-9.767013E-2,2.8186524E-3,6.788528E-2,-1.0099359E-1,3.4750134E-2,6.769867E-2,2.178972E-2,-1.74935E-2,-1.3579552E-1,-1.4814721E-1,-9.61841E-2,2.2284547E-2,-9.6138164E-2,-3.0957809E-2,6.6167705E-2],"split_indices":[9747,6514,4233,3706,0,8098,3968,3383,0,4267,5606,9814,8098,8098,0,0,4233,4379,4351,0,1733,2624,2699,1336,0,8367,8625,0,8098,0,7994,5449,1134,0,8098,2707,4286,0,8072,262,0,4814,0,0,0,0,6486,1161,8331,0,0,5414,0,0,0,262,3383,8331,0,0,1489,0,8072,8331,0,0,4814,0,0,0,4116,0,5985,0,0,0,0,0,0,0,0,0,0,0,0,0,0,0,0],"split_type":[0,0,0,0,0,0,0,0,0,0,0,0,0,0,0,0,0,0,0,0,0,0,0,0,0,0,0,0,0,0,0,0,0,0,0,0,0,0,0,0,0,0,0,0,0,0,0,0,0,0,0,0,0,0,0,0,0,0,0,0,0,0,0,0,0,0,0,0,0,0,0,0,0,0,0,0,0,0,0,0,0,0,0,0,0,0,0,0,0],"sum_hessian":[6.440604E3,3.199639E3,3.2409653E3,3.0641414E3,1.3549762E2,7.395123E2,2.501453E3,2.9301567E3,1.339846E2,6.843319E2,5.518042E1,1.9532411E3,5.482119E2,2.913388E3,1.676877E1,1.9358171E1,6.6497375E2,3.7948651E0,5.1385555E1,1.6825087E2,1.7849902E3,1.1597966E2,4.3223224E2,2.9108462E3,2.5417864E0,3.0937737E1,6.34036E2,1.2479184E0,2.5469468E0,1.0459578E0,5.0339596E1,1.6972118E3,8.777846E1,2.0844786E1,9.513487E1,4.7763376E0,4.274559E2,1.0357785E0,2.9098103E3,2.9887651E1,1.0500858E0,6.32411E2,1.6250054E0,1.0616955E0,1.4852512E0,1.0459578E0,4.929364E1,1.6416077E3,5.560413E1,8.656161E1,1.21685E0,8.033511E1,1.4799763E1,3.3196397E0,1.4566978E0,4.2434482E2,3.1110737E0,2.9085986E3,1.2115916E0,1.0358576E0,2.8851793E1,1.0205343E0,6.3139044E2,4.8022972E1,1.2706673E0,3.969167E1,1.6019159E3,5.3709297E1,1.8948321E0,1.252163E0,7.908295E1,1.1938275E0,4.23151E2,1.023798E0,2.0872757E0,1.5688847E0,2.9070298E3,2.7846746E1,1.0050478E0,6.298353E2,1.5551488E0,1.4824452E0,4.6540527E1,1.2924174E3,3.094986E2,1.47012E0,7.761283E1,2.6607475E0,4.2049026E2],"tree_param":{"num_deleted":"0","num_feature":"10000","num_nodes":"89","size_leaf_vector":"1"}},{"base_weights":[-6.184464E-3,9.103437E-1,-8.666915E-1,1.0952547E0,-1.4191915E-1,1.0841596E0,-1.2851602E0,1.2978984E0,-1.4190732E-1,-2.0687492E0,1.2798864E0,5.8819E-1,-1.6999106E0,-1.3745241E-1,1.3271625E0,-2.2587683E0,2.06142E-1,-1.1419815E0,1.322934E0,-1.6017044E0,1.0082539E0,-2.2120667E0,5.0373685E-1,1.3313142E0,-1.0963502E-1,1.355265E-2,-2.3557317E0,-2.4416275E-2,4.0672753E-2,1.5293936E-2,-1.3526955E0,-5.7519253E-2,6.650267E-2,-1.9523613E0,5.9828084E-2,-1.3793771E-1,1.2264923E0,-6.11653E-1,-2.4759028E0,-1.5563207E0,1.149346E0,-8.5079275E-2,1.3330731E0,-1.5550121E-2,-2.450826E0,-1.5482845E0,-4.179037E-3,2.4360728E-2,-2.012466E0,-1.561483E0,1.3114419E0,-1.7015347E0,4.7779113E-1,-2.5965297E0,1.2703065E0,6.1471384E-2,-1.9177853E0,-2.0904424E0,1.2264365E0,1.3341191E0,-2.0789137E-2,-8.732295E-3,-2.533399E0,-1.0345061E-2,-8.665245E-2,-1.5226463E0,-2.4087644E0,1.369973E-2,-1.7664596E0,-6.494331E-2,1.3217669E0,-1.8354598E0,-9.415905E-1,1.0218263E0,-1.616842E0,-1.7173319E0,-2.7547243E0,-1.1157139E-2,6.540956E-2,3.9381616E-2,-1.9650056E0,-2.545352E0,-1.227716E-2,-7.275015E-2,1.2566584E0,6.672384E-2,2.35762E-2,-4.3279152E-2,-1.3058397E-1,-8.0953985E-2,3.741144E-2,-8.765085E-3,-1.2362974E-1,-9.917841E-2,-3.329136E-3,6.6215456E-2,1.3172519E-2,1.9374155E-2,-9.425189E-2,-6.611693E-2,4.452187E-2,-9.73694E-2,5.59614E-2,-5.490024E-2,-1.1726444E-1,-8.7574825E-2,1.522095E-2,-1.4020127E-1,-7.129274E-2,-1.00715235E-1,2.4937155E-2,-1.3724114E-1,-3.8846817E-2,-7.426122E-2,6.421334E-2],"categories":[],"categories_nodes":[],"categories_segments":[],"categories_sizes":[],"default_left":[0,1,0,1,0,0,0,0,0,1,0,0,1,0,1,0,0,0,0,1,0,0,0,0,0,0,0,0,0,0,1,0,0,0,0,0,0,0,1,0,0,0,1,0,0,0,0,0,0,0,0,1,1,0,0,0,0,1,0,1,0,0,0,0,0,1,0,0,1,0,1,0,1,0,1,1,1,0,0,0,1,1,0,0,0,0,0,0,0,0,0,0,0,0,0,0,0,0,0,0,0,0,0,0,0,0,0,0,0,0,0,0,0,0,0],"id":2,"left_children":[1,3,5,7,-1,9,11,13,-1,15,17,19,21,-1,23,25,27,29,31,33,35,37,39,41,-1,-1,43,-1,-1,-1,45,-1,-1,47,-1,-1,49,51,53,55,57,-1,59,-1,61,63,-1,-1,65,67,69,71,73,75,77,-1,79,81,83,85,-1,-1,87,-1,-1,89,91,-1,93,-1,95,97,99,101,103,105,107,-1,-1,-1,109,111,-1,-1,113,-1,-1,-1,-1,-1,-1,-1,-1,-1,-1,-1,-1,-1,-1,-1,-1,-1,-1,-1,-1,-1,-1,-1,-1,-1,-1,-1,-1,-1,-1],"loss_changes":[5.0374644E3,2.1470703E3,2.6907485E3,2.3536824E3,0E0,3.6203815E2,2.1088535E3,3.357871E2,0E0,1.5345352E1,5.8742737E1,4.5465924E2,2.5082231E3,0E0,4.3617676E1,8.451828E0,1.9028918E0,3.502366E0,1.1035522E1,8.0492905E1,3.4360666E2,7.596592E2,5.6003436E2,1.7111816E1,0E0,0E0,5.2226257E0,0E0,0E0,0E0,2.1100826E0,0E0,0E0,1.1415009E1,0E0,0E0,9.485785E1,3.0531253E2,7.024795E2,1.0363631E2,8.252515E1,0E0,5.642578E0,0E0,5.058182E0,1.5647163E0,0E0,0E0,9.8515625E0,5.015232E0,1.1980652E1,1.1341675E1,1.486904E2,2.037959E2,3.0607452E0,0E0,1.2970947E1,5.930313E0,2.7221466E1,2.2802734E-1,0E0,0E0,1.4169006E0,0E0,0E0,8.627678E0,4.809952E0,0E0,3.915825E0,0E0,6.730957E-1,1.26467285E1,1.6030785E1,3.197966E1,7.625862E0,1.6508606E1,7.9140625E1,0E0,0E0,0E0,1.1713837E1,4.002762E-2,0E0,0E0,2.5403564E1,0E0,0E0,0E0,0E0,0E0,0E0,0E0,0E0,0E0,0E0,0E0,0E0,0E0,0E0,0E0,0E0,0E0,0E0,0E0,0E0,0E0,0E0,0E0,0E0,0E0,0E0,0E0,0E0,0E0,0E0],"parents":[2147483647,0,0,1,1,2,2,3,3,5,5,6,6,7,7,9,9,10,10,11,11,12,12,14,14,15,15,16,16,17,17,18,18,19,19,20,20,21,21,22,22,23,23,26,26,30,30,33,33,36,36,37,37,38,38,39,39,40,40,42,42,44,44,45,45,48,48,49,49,50,50,51,51,52,52,53,53,54,54,56,56,57,57,58,58,59,59,62,62,65,65,66,66,68,68,70,70,71,71,72,72,73,73,74,74,75,75,76,76,80,80,81,81,84,84],"right_children":[2,4,6,8,-1,10,12,14,-1,16,18,20,22,-1,24,26,28,30,32,34,36,38,40,42,-1,-1,44,-1,-1,-1,46,-1,-1,48,-1,-1,50,52,54,56,58,-1,60,-1,62,64,-1,-1,66,68,70,72,74,76,78,-1,80,82,84,86,-1,-1,88,-1,-1,90,92,-1,94,-1,96,98,100,102,104,106,108,-1,-1,-1,110,112,-1,-1,114,-1,-1,-1,-1,-1,-1,-1,-1,-1,-1,-1,-1,-1,-1,-1,-1,-1,-1,-1,-1,-1,-1,-1,-1,-1,-1,-1,-1,-1,-1],"split_conditions":[9.201768E-2,1.114807E-1,8.819043E-2,1.00628056E-1,-1.4191915E-1,7.1734804E-1,1.4048773E-1,2.3624478E-1,-1.4190732E-1,1.2778954E-1,4.2475592E-2,2.9685274E-1,6.634602E-2,-1.3745241E-1,1.3016275E-1,1.9872382E-1,1.3634142E-1,1.2665883E-1,1.8704244E-1,1.0632402E-1,2.555813E-1,7.151546E-2,5.937155E-1,2.2695974E-1,-1.0963502E-1,1.355265E-2,6.9620065E-2,-2.4416275E-2,4.0672753E-2,1.5293936E-2,5.262501E-2,-5.7519253E-2,6.650267E-2,1.4930265E-1,5.9828084E-2,-1.3793771E-1,6.184061E-2,6.1145276E-2,1.3279599E-1,1.1200059E-1,1.6471866E-1,-8.5079275E-2,9.2027225E-2,-1.5550121E-2,1.206985E-1,2.3957655E-1,-4.179037E-3,2.4360728E-2,1.0628308E-1,1.3000947E-1,1.4795633E-1,5.2490644E-2,5.8342278E-2,1.7161377E-1,1.1272537E-1,6.1471384E-2,1.8222706E-1,7.772412E-2,2.7677965E-1,1.2373167E-1,-2.0789137E-2,-8.732295E-3,1.10068135E-1,-1.0345061E-2,-8.665245E-2,1.1070675E-1,1.0206222E-1,1.369973E-2,6.904355E-2,-6.494331E-2,7.480697E-2,1.23514585E-1,8.8844E-2,1.6365342E-1,7.426714E-2,1.3847537E-1,6.259136E-2,-1.1157139E-2,6.540956E-2,3.9381616E-2,1.3314104E-1,8.766458E-2,-1.227716E-2,-7.275015E-2,1.6589253E-1,6.672384E-2,2.35762E-2,-4.3279152E-2,-1.3058397E-1,-8.0953985E-2,3.741144E-2,-8.765085E-3,-1.2362974E-1,-9.917841E-2,-3.329136E-3,6.6215456E-2,1.3172519E-2,1.9374155E-2,-9.425189E-2,-6.611693E-2,4.452187E-2,-9.73694E-2,5.59614E-2,-5.490024E-2,-1.1726444E-1,-8.7574825E-2,1.522095E-2,-1.4020127E-1,-7.129274E-2,-1.00715235E-1,2.4937155E-2,-1.3724114E-1,-3.8846817E-2,-7.426122E-2,6.421334E-2],"split_indices":[9747,3706,8394,6514,0,5526,4233,3728,0,5082,8394,8098,3968,0,8098,6887,5082,9443,5227,1110,3108,8625,8098,9415,0,0,4814,0,0,0,4233,0,0,1694,0,0,4233,8625,5449,2624,5526,0,8072,0,1690,2816,0,0,8098,4824,4286,3968,6942,4814,8098,0,4116,6942,5985,8098,0,0,3677,0,0,7018,5082,0,5685,0,3968,8029,6942,3482,4814,761,6942,0,0,0,6748,5082,0,0,5082,0,0,0,0,0,0,0,0,0,0,0,0,0,0,0,0,0,0,0,0,0,0,0,0,0,0,0,0,0,0],"split_type":[0,0,0,0,0,0,0,0,0,0,0,0,0,0,0,0,0,0,0,0,0,0,0,0,0,0,0,0,0,0,0,0,0,0,0,0,0,0,0,0,0,0,0,0,0,0,0,0,0,0,0,0,0,0,0,0,0,0,0,0,0,0,0,0,0,0,0,0,0,0,0,0,0,0,0,0,0,0,0,0,0,0,0,0,0,0,0,0,0,0,0,0,0,0,0,0,0,0,0,0,0,0,0,0,0,0,0,0,0,0,0,0,0,0,0],"sum_hessian":[6.385217E3,3.0919333E3,3.2932837E3,2.9472634E3,1.446699E2,5.81378E2,2.7119055E3,2.803501E3,1.4376268E2,3.3422028E1,5.4795593E2,4.9149527E2,2.2204104E3,1.9459837E1,2.784041E3,3.0852072E1,2.5699542E0,9.123769E0,5.3883215E2,7.865176E1,4.128435E2,1.8016743E3,4.1873605E2,2.781382E3,2.6588209E0,1.0725764E0,2.9779495E1,1.2903513E0,1.2796028E0,1.1017537E0,8.022015E0,1.0856329E0,5.377465E2,7.016191E1,8.489848E0,2.1970476E1,3.9087302E2,2.5544983E2,1.5462245E3,9.957956E1,3.191565E2,1.0520406E0,2.78033E3,1.5131904E0,2.8266306E1,6.7601976E0,1.2618172E0,1.5161712E0,6.864574E1,1.1043778E1,3.7982925E2,1.274184E2,1.2803143E2,1.498287E3,4.7937492E1,1.1161153E1,8.841841E1,6.8108025E0,3.123457E2,2.7789053E3,1.4248177E0,1.0985698E0,2.7167736E1,1.0750664E0,5.685131E0,3.2865982E1,3.577975E1,1.075593E0,9.968185E0,1.0047878E0,3.7882446E2,1.07124565E2,2.0293837E1,1.0204075E2,2.5990679E1,2.3028545E2,1.2680016E3,1.0649825E0,4.6872513E1,1.2477963E0,8.7170616E1,5.1590343E0,1.6517682E0,2.9557192E0,3.0938998E2,2.7772068E3,1.6985137E0,1.7585291E0,2.5409206E1,3.1802505E1,1.0634787E0,1.0982343E0,3.468152E1,8.691248E0,1.276937E0,3.7766592E2,1.1585493E0,2.1883721E0,1.04936195E2,1.7032255E1,3.261582E0,2.6377501E0,9.9403E1,1.6643587E1,9.347092E0,2.2659007E2,3.695362E0,1.221571E3,4.643043E1,8.563941E1,1.5311987E0,4.139929E0,1.0191054E0,2.557919E0,3.0683206E2],"tree_param":{"num_deleted":"0","num_feature":"10000","num_nodes":"115","size_leaf_vector":"1"}},{"base_weights":[6.6748523E-4,8.985441E-1,-8.21226E-1,1.0813359E0,-1.2973718E-1,1.069197E0,-1.2027712E0,1.2781341E0,-1.2971593E-1,1.2471862E0,-1.8518322E0,6.0076916E-1,-1.579743E0,-1.2561886E-1,1.305047E0,-1.2299652E0,1.2932281E0,-1.9851545E0,3.989216E-2,-1.3703349E0,1.0097665E0,6.550953E-2,-1.9027203E0,1.3088907E0,-1.0157269E-1,-1.7288186E-1,-1.6296622E0,1.3061297E0,-6.8146154E-2,1.8363228E-3,-2.1278543E0,5.9940767E-2,-1.7456615E0,-1.2578622E-1,1.204711E0,1.2866857E0,-2.132382E0,-8.306509E-2,1.3106794E0,-4.112696E-2,3.8771477E-2,-1.08952634E-1,-3.7741424E-3,1.401903E-2,6.539705E-2,-5.187182E-3,-2.2570217E0,-1.7933147E0,3.7138145E-2,-1.6137351E0,1.2919978E0,1.3532353E-2,1.300316E0,6.444751E-2,-2.2150767E0,1.311768E0,-8.216446E-3,-1.6291895E-3,-2.36791E0,3.689081E-2,-1.8419801E0,-6.7891027E-3,-1.7582264E0,-5.818167E-2,6.5259956E-2,1.9915951E-2,6.536871E-2,-2.2642436E0,6.3363634E-2,1.7211545E-2,6.5605976E-2,-5.581645E-3,-1.2336369E-1,-9.466081E-2,2.217554E-2,-9.618606E-2,-8.656614E-3,-7.520999E-2,-1.20261885E-1],"categories":[],"categories_nodes":[],"categories_segments":[],"categories_sizes":[],"default_left":[0,1,0,1,0,1,0,0,0,0,1,0,0,0,1,0,1,0,0,0,0,0,0,0,0,0,1,0,0,0,0,0,1,0,0,0,0,0,1,0,0,0,0,0,0,0,0,0,0,0,0,0,0,0,1,0,0,0,0,0,1,0,1,0,0,0,0,0,0,0,0,0,0,0,0,0,0,0,0],"id":3,"left_children":[1,3,5,7,-1,9,11,13,-1,15,17,19,21,-1,23,25,27,29,-1,31,33,-1,35,37,-1,39,41,43,-1,-1,45,-1,47,-1,49,51,53,-1,55,-1,-1,-1,-1,-1,-1,-1,57,59,-1,61,63,-1,65,-1,67,69,-1,-1,71,-1,73,-1,75,-1,-1,-1,-1,77,-1,-1,-1,-1,-1,-1,-1,-1,-1,-1,-1],"loss_changes":[4.666341E3,1.9324648E3,2.382485E3,2.0811052E3,0E0,2.9083112E2,1.8688618E3,2.8147998E2,0E0,6.1316467E1,1.2985367E1,3.8488257E2,2.1237905E3,0E0,3.7394043E1,3.9721928E0,1.9414734E1,9.026848E0,0E0,8.1325714E1,2.741827E2,0E0,1.5004126E3,1.655371E1,0E0,3.0288668E0,5.972229E0,5.855713E-1,0E0,0E0,7.3447113E0,0E0,9.881989E0,0E0,9.4225525E1,1.5587311E0,5.4258887E2,0E0,4.5585938E0,0E0,0E0,0E0,0E0,0E0,0E0,0E0,6.632309E0,1.010965E1,0E0,2.2588577E0,1.3313721E1,0E0,3.4429932E-1,0E0,3.2184863E2,4.6728516E-1,0E0,0E0,5.530075E0,0E0,9.034988E0,0E0,2.4397736E0,0E0,0E0,0E0,0E0,1.9328613E2,0E0,0E0,0E0,0E0,0E0,0E0,0E0,0E0,0E0,0E0,0E0],"parents":[2147483647,0,0,1,1,2,2,3,3,5,5,6,6,7,7,9,9,10,10,11,11,12,12,14,14,15,15,16,16,17,17,19,19,20,20,22,22,23,23,25,25,26,26,27,27,30,30,32,32,34,34,35,35,36,36,38,38,46,46,47,47,49,49,50,50,52,52,54,54,55,55,58,58,60,60,62,62,67,67],"right_children":[2,4,6,8,-1,10,12,14,-1,16,18,20,22,-1,24,26,28,30,-1,32,34,-1,36,38,-1,40,42,44,-1,-1,46,-1,48,-1,50,52,54,-1,56,-1,-1,-1,-1,-1,-1,-1,58,60,-1,62,64,-1,66,-1,68,70,-1,-1,72,-1,74,-1,76,-1,-1,-1,-1,78,-1,-1,-1,-1,-1,-1,-1,-1,-1,-1,-1],"split_conditions":[9.201768E-2,1.00628056E-1,8.819043E-2,1.114807E-1,-1.2973718E-1,5.4585833E-2,1.4048773E-1,2.3624478E-1,-1.2971593E-1,4.2475592E-2,1.3785873E-1,2.9685274E-1,1.8557541E-1,-1.2561886E-1,1.2734549E-1,7.445909E-2,1.0182662E-1,1.0786649E-1,3.989216E-2,1.0943107E-1,2.555813E-1,6.550953E-2,6.137083E-2,1.7596808E-1,-1.0157269E-1,7.24756E-2,5.1027674E-2,6.757307E-2,-6.8146154E-2,1.8363228E-3,2.2217548E-1,5.9940767E-2,1.2175865E-1,-1.2578622E-1,5.7610694E-2,1.2920009E-1,1.1986009E-1,-8.306509E-2,1.1374327E-1,-4.112696E-2,3.8771477E-2,-1.08952634E-1,-3.7741424E-3,1.401903E-2,6.539705E-2,-5.187182E-3,7.001723E-2,1.5781686E-1,3.7138145E-2,2.2113349E-1,1.4795633E-1,1.3532353E-2,1.01945646E-1,6.444751E-2,9.440916E-2,9.9882305E-2,-8.216446E-3,-1.6291895E-3,1.0318813E-1,3.689081E-2,1.220026E-1,-6.7891027E-3,8.592157E-2,-5.818167E-2,6.5259956E-2,1.9915951E-2,6.536871E-2,1.312047E-1,6.3363634E-2,1.7211545E-2,6.5605976E-2,-5.581645E-3,-1.2336369E-1,-9.466081E-2,2.217554E-2,-9.618606E-2,-8.656614E-3,-7.520999E-2,-1.20261885E-1],"split_indices":[9747,6514,8394,3706,0,5526,4233,3728,0,8394,5082,8098,3189,0,8098,6942,8098,5606,0,1110,3108,0,9814,5526,0,6942,4233,1134,0,0,4942,0,1476,0,4233,5738,1160,0,5738,0,0,0,0,0,0,0,4814,7766,0,4,4286,0,1104,0,7736,1369,0,0,7018,0,275,0,5082,0,0,0,0,8098,0,0,0,0,0,0,0,0,0,0,0],"split_type":[0,0,0,0,0,0,0,0,0,0,0,0,0,0,0,0,0,0,0,0,0,0,0,0,0,0,0,0,0,0,0,0,0,0,0,0,0,0,0,0,0,0,0,0,0,0,0,0,0,0,0,0,0,0,0,0,0,0,0,0,0,0,0,0,0,0,0,0,0,0,0,0,0,0,0,0,0,0,0],"sum_hessian":[6.3213076E3,3.0209648E3,3.300343E3,2.8714045E3,1.4956038E2,5.5394366E2,2.7463992E3,2.7260986E3,1.4530579E2,5.226686E2,3.1275103E1,4.7470096E2,2.2716982E3,1.8567986E1,2.7075308E3,9.068172E0,5.136004E2,3.0015615E1,1.2594873E0,8.1168846E1,3.935321E2,2.2805486E2,2.0436434E3,2.7050222E3,2.5084598E0,2.8810794E0,6.187093E0,5.116236E2,1.9768093E0,2.0277357E0,2.7987879E1,1.0066759E1,7.110209E1,1.9996618E1,3.735355E2,1.3696404E2,1.9066794E3,1.0696629E0,2.7039526E3,1.7884786E0,1.092601E0,4.2741528E0,1.9129401E0,1.1763788E0,5.104472E2,1.7870581E0,2.620082E1,7.004016E1,1.0619283E0,1.0695499E1,3.6284E2,2.089157E0,1.3487488E2,4.4653294E1,1.8620261E3,2.702069E3,1.8835225E0,1.3055278E0,2.4895292E1,1.0541077E0,6.898605E1,1.1252651E0,9.570234E0,1.4742122E0,3.6136578E2,1.4931468E0,1.3338173E2,1.8364473E3,2.5578802E1,1.3373034E0,2.700732E3,1.1396834E0,2.375561E1,6.764131E1,1.344742E0,8.472061E0,1.0981733E0,2.891922E2,1.5472551E3],"tree_param":{"num_deleted":"0","num_feature":"10000","num_nodes":"79","size_leaf_vector":"1"}},{"base_weights":[6.640264E-3,1.2506887E0,-4.3967995E-1,-1.1623565E-1,6.4618215E-2,8.590854E-1,-9.5159525E-1,9.290304E-1,-1.1921135E-1,-1.2998023E0,6.455359E-2,-2.322605E0,9.991425E-1,-1.516262E0,6.4501554E-2,-2.9340623E-2,-1.18754126E-1,-1.1657908E-1,1.070751E0,-1.7542993E0,1.2704262E0,1.143717E0,-1.168801E-1,-1.939927E0,6.4318635E-2,1.2792877E0,1.2652007E-2,-1.1644673E-1,1.2115221E0,1.2196828E0,-2.0723042E0,1.1840041E-2,1.2837794E0,6.3669756E-2,-7.542219E-2,-2.9938096E-2,6.303468E-2,-5.970482E-2,-1.1174452E-1,6.440584E-2,1.412337E-2],"categories":[],"categories_nodes":[],"categories_segments":[],"categories_sizes":[],"default_left":[0,0,0,0,0,1,1,0,0,1,0,0,0,1,0,0,0,0,1,1,1,0,0,0,0,0,0,0,1,0,0,0,1,0,0,0,0,0,0,0,0],"id":4,"left_children":[1,3,5,-1,-1,7,9,11,-1,13,-1,15,17,19,-1,-1,-1,-1,21,23,25,27,-1,29,-1,31,-1,-1,33,35,37,-1,39,-1,-1,-1,-1,-1,-1,-1,-1],"loss_changes":[3.4674902E3,2.4870288E2,3.0565625E3,0E0,0E0,2.9710895E2,2.5764695E3,2.925852E2,0E0,1.6021875E3,0E0,1.081604E0,2.9992395E2,1.7499888E3,0E0,0E0,0E0,0E0,3.0644678E2,1.3728687E3,1.5509338E0,2.8456348E2,0E0,9.5975E2,0E0,6.600952E-1,0E0,0E0,1.9954419E2,7.664917E0,3.1101855E2,0E0,5.255432E-1,0E0,0E0,0E0,0E0,0E0,0E0,0E0,0E0],"parents":[2147483647,0,0,1,1,2,2,5,5,6,6,7,7,9,9,11,11,12,12,13,13,18,18,19,19,20,20,21,21,23,23,25,25,28,28,29,29,30,30,32,32],"right_children":[2,4,6,-1,-1,8,10,12,-1,14,-1,16,18,20,-1,-1,-1,-1,22,24,26,28,-1,30,-1,32,-1,-1,34,36,38,-1,40,-1,-1,-1,-1,-1,-1,-1,-1],"split_conditions":[1.006627E-1,1.5673205E-1,1.0089637E-1,-1.1623565E-1,6.4618215E-2,1.0644864E-1,1.3851832E-1,4.636417E-1,-1.1921135E-1,1.4249887E-1,6.455359E-2,1.29286E-1,4.6278054E-1,6.693756E-2,6.4501554E-2,-2.9340623E-2,-1.18754126E-1,-1.1657908E-1,1.018573E-1,7.627658E-2,5.7799593E-2,1.5788916E-1,-1.168801E-1,6.848674E-2,6.4318635E-2,1.0555883E-1,1.2652007E-2,-1.1644673E-1,5.4585833E-2,4.565023E-2,1.250368E-1,1.1840041E-2,7.480697E-2,6.3669756E-2,-7.542219E-2,-2.9938096E-2,6.303468E-2,-5.970482E-2,-1.1174452E-1,6.440584E-2,1.412337E-2],"split_indices":[9781,3383,8394,0,0,1134,3220,7600,0,3189,0,4036,1077,4567,0,0,0,0,3383,3829,8625,8062,0,9814,0,1369,0,0,5526,9814,8098,0,3968,0,0,0,0,0,0,0,0],"split_type":[0,0,0,0,0,0,0,0,0,0,0,0,0,0,0,0,0,0,0,0,0,0,0,0,0,0,0,0,0,0,0,0,0,0,0,0,0,0,0,0,0],"sum_hessian":[6.2429946E3,1.647907E3,4.5950874E3,1.8355827E1,1.6295511E3,1.2989305E3,3.296157E3,1.2722078E3,2.672277E1,2.8535256E3,4.4263147E2,2.617438E1,1.2460333E3,2.6338052E3,2.1972032E2,1.1255906E0,2.5048788E1,2.5560862E1,1.2204725E3,2.4268735E3,2.0693166E2,1.1955427E3,2.4929775E1,2.2875825E3,1.3929092E2,2.0488963E2,2.042034E0,2.2257765E1,1.1732849E3,9.165784E1,2.1959248E3,1.1094677E0,2.0378015E2,1.147709E3,2.5575926E1,1.7215916E0,8.993625E1,3.4433694E2,1.8515878E3,2.0261604E2,1.1641107E0],"tree_param":{"num_deleted":"0","num_feature":"10000","num_nodes":"41","size_leaf_vector":"1"}},{"base_weights":[6.909648E-3,1.0078466E0,-6.220813E-1,1.2374557E0,-1.12552606E-1,1.2595776E0,-8.629807E-1,1.2677883E0,-1.0925106E-1,1.2726253E0,-8.245386E-2,-1.1707668E0,6.367524E-2,1.2723008E0,-9.0689234E-2,6.373889E-2,2.3880677E-2,-1.362566E0,6.349461E-2,1.2735851E0,-3.3612163E-3,-1.510393E0,6.3616596E-2,1.3122685E-2,1.2740266E0,6.326011E-2,-1.6345329E0,1.4690936E-2,6.372279E-2,-1.7274126E0,1.2493972E0,6.266662E-2,-9.00267E-2,6.301082E-2,1.39206005E-2],"categories":[],"categories_nodes":[],"categories_segments":[],"categories_sizes":[],"default_left":[0,1,0,1,0,1,1,1,0,1,0,1,0,1,0,0,0,1,0,0,0,0,0,0,0,0,1,0,0,0,1,0,0,0,0],"id":5,"left_children":[1,3,5,7,-1,9,11,13,-1,15,-1,17,-1,19,-1,-1,-1,21,-1,23,-1,25,-1,-1,27,-1,29,-1,-1,31,33,-1,-1,-1,-1],"loss_changes":[3.8846895E3,1.7845115E3,1.7186827E3,2.3375659E2,0E0,1.843512E1,2.2107737E3,3.2985596E1,0E0,1.2542725E-1,0E0,1.3766694E3,0E0,3.8764648E0,0E0,0E0,0E0,1.0628105E3,0E0,6.484375E-1,0E0,8.908408E2,0E0,0E0,5.510254E-1,0E0,6.636162E2,0E0,0E0,5.237837E2,4.6466064E-1,0E0,0E0,0E0,0E0],"parents":[2147483647,0,0,1,1,2,2,3,3,5,5,6,6,7,7,9,9,11,11,13,13,17,17,19,19,21,21,24,24,26,26,29,29,30,30],"right_children":[2,4,6,8,-1,10,12,14,-1,16,-1,18,-1,20,-1,-1,-1,22,-1,24,-1,26,-1,-1,28,-1,30,-1,-1,32,34,-1,-1,-1,-1],"split_conditions":[7.861716E-2,1.422596E-1,7.815099E-2,1.0657457E-1,-1.12552606E-1,1.5337169E-1,1.4249887E-1,1.2734549E-1,-1.0925106E-1,9.3726985E-2,-8.245386E-2,1.7703527E-1,6.367524E-2,1.1374327E-1,-9.0689234E-2,6.373889E-2,2.3880677E-2,8.9097954E-2,6.349461E-2,1.0787669E-1,-3.3612163E-3,3.2288682E-1,6.3616596E-2,1.3122685E-2,1.01976596E-1,6.326011E-2,6.701255E-2,1.4690936E-2,6.372279E-2,2.769264E-1,7.295038E-2,6.266662E-2,-9.00267E-2,6.301082E-2,1.39206005E-2],"split_indices":[9747,3706,9814,3383,0,8098,3189,8098,0,3706,0,3220,0,5738,0,0,0,7736,0,2001,0,4072,0,0,1369,0,8818,0,0,2005,1134,0,0,0,0],"split_type":[0,0,0,0,0,0,0,0,0,0,0,0,0,0,0,0,0,0,0,0,0,0,0,0,0,0,0,0,0,0,0,0,0,0,0],"sum_hessian":[6.1682886E3,2.380117E3,3.7881719E3,2.22404E3,1.5607686E2,4.2945804E2,3.3587139E3,2.2051262E3,1.8913893E1,4.2810013E2,1.3579112E0,2.9361748E3,4.2253894E2,2.202488E3,2.6381304E0,4.2634238E2,1.7577507E0,2.7226567E3,2.1351823E2,2.2004277E3,2.0602474E0,2.5784248E3,1.442319E2,1.2205281E0,2.1992073E3,1.0999086E2,2.4684338E3,1.262357E0,2.1979448E3,2.3918047E3,7.6629265E1,5.688266E1,2.3349219E3,7.549024E1,1.1390219E0],"tree_param":{"num_deleted":"0","num_feature":"10000","num_nodes":"35","size_leaf_vector":"1"}},{"base_weights":[1.2023422E-2,1.0014895E0,-5.94321E-1,-1.0584903E-1,1.216884E0,7.755007E-1,-1.0356877E0,1.249722E0,-1.0325475E-1,-1.8635035E0,8.853992E-1,6.099219E-1,-1.3731825E0,1.253885E0,-8.434776E-2,-4.1402826E-1,-2.0627906E0,9.778396E-1,-1.0557041E-1,9.8152643E-1,-1.1326549E0,6.270491E-2,-1.6211754E0,-8.6955346E-2,1.2565632E0,-8.4431124E-1,2.6417444E-2,-1.071307E-1,1.9507466E-5,1.0758542E0,-1.05201796E-1,-1.0397994E-1,1.149941E0,-1.4198554E0,5.8378227E-2,-1.7563401E0,6.264685E-2,6.285112E-2,7.5213537E-3,-5.772799E-2,-1.4839254E-2,-1.046524E-1,1.167633E0,-1.2154982E0,1.2384313E0,4.516861E-2,-1.4689437E0,6.3463725E-2,-1.8359262E0,1.2365241E0,-1.3683281E0,-1.3911979E0,1.9864751E-2,-6.1662238E-2,1.2488766E0,2.0779471E-1,-1.542425E0,-1.965618E0,-1.1396402E0,-3.5282485E-2,6.2778845E-2,4.2532776E-2,-7.673561E-2,-4.0857712E-4,-7.655112E-2,6.257027E-2,9.575195E-3,4.2376015E-2,-1.7233305E-2,2.5999684E-2,-7.975875E-2,-5.7080176E-2,-1.0411339E-1,-5.823608E-2,2.3622392E-2],"categories":[],"categories_nodes":[],"categories_segments":[],"categories_sizes":[],"default_left":[0,0,0,0,1,0,0,1,0,0,1,1,0,0,0,1,1,1,0,0,1,0,1,0,1,1,0,0,0,0,0,0,0,0,0,0,0,0,0,0,0,0,1,1,0,0,0,0,1,0,0,0,0,0,1,0,0,0,1,0,0,0,0,0,0,0,0,0,0,0,0,0,0,0,0],"id":6,"left_children":[1,3,5,-1,7,9,11,13,-1,15,17,19,21,23,-1,25,27,29,-1,31,33,-1,35,-1,37,39,-1,-1,-1,41,-1,-1,43,45,-1,47,-1,-1,-1,-1,-1,-1,49,51,53,-1,55,-1,57,59,61,63,-1,-1,65,67,69,71,73,-1,-1,-1,-1,-1,-1,-1,-1,-1,-1,-1,-1,-1,-1,-1,-1],"loss_changes":[3.618805E3,1.5420002E3,2.2619536E3,0E0,2.3368994E2,2.6613782E2,1.5720181E3,2.8079102E1,0E0,9.770645E0,2.4478802E2,3.133245E2,1.5317666E3,1.918872E1,0E0,2.7561166E0,5.2848053E0,2.5921576E2,0E0,2.0754224E2,5.7949394E1,0E0,8.35791E2,0E0,8.8842773E-1,3.8710427E-1,0E0,0E0,0E0,2.4240948E2,0E0,0E0,8.059161E1,1.0017426E1,0E0,4.959204E2,0E0,0E0,0E0,0E0,0E0,0E0,1.4189307E2,4.5565243E0,1.0955688E1,0E0,9.562012E0,0E0,1.7815674E2,2.9815552E1,9.316719E0,2.4943771E0,0E0,0E0,7.32666E-1,1.7165356E0,8.659988E0,1.5936035E2,1.3329254E1,0E0,0E0,0E0,0E0,0E0,0E0,0E0,0E0,0E0,0E0,0E0,0E0,0E0,0E0,0E0,0E0],"parents":[2147483647,0,0,1,1,2,2,4,4,5,5,6,6,7,7,9,9,10,10,11,11,12,12,13,13,15,15,16,16,17,17,19,19,20,20,22,22,24,24,25,25,29,29,32,32,33,33,35,35,42,42,43,43,44,44,46,46,48,48,49,49,50,50,51,51,54,54,55,55,56,56,57,57,58,58],"right_children":[2,4,6,-1,8,10,12,14,-1,16,18,20,22,24,-1,26,28,30,-1,32,34,-1,36,-1,38,40,-1,-1,-1,42,-1,-1,44,46,-1,48,-1,-1,-1,-1,-1,-1,50,52,54,-1,56,-1,58,60,62,64,-1,-1,66,68,70,72,74,-1,-1,-1,-1,-1,-1,-1,-1,-1,-1,-1,-1,-1,-1,-1,-1],"split_conditions":[7.861716E-2,1.5402676E-1,1.0089637E-1,-1.0584903E-1,1.0657457E-1,2.2383459E-1,1.4048773E-1,1.2734549E-1,-1.0325475E-1,1.09447256E-1,8.1238195E-2,4.7294274E-2,1.8557541E-1,2.91338E-1,-8.434776E-2,5.718738E-2,1.4147204E-1,1.0644864E-1,-1.0557041E-1,2.555813E-1,1.0632402E-1,6.270491E-2,9.238202E-2,-8.6955346E-2,1.21528424E-1,6.063064E-2,2.6417444E-2,-1.071307E-1,1.9507466E-5,4.6278054E-1,-1.05201796E-1,-1.0397994E-1,6.184061E-2,1.8247181E-1,5.8378227E-2,1.1986009E-1,6.264685E-2,6.285112E-2,7.5213537E-3,-5.772799E-2,-1.4839254E-2,-1.046524E-1,5.9396744E-2,1.03605665E-1,3.005842E-1,4.516861E-2,1.7210615E-1,6.3463725E-2,5.4895326E-2,4.2475592E-2,6.645638E-2,9.3250364E-2,1.9864751E-2,-6.1662238E-2,1.0798955E-1,6.386009E-2,1.5781686E-1,5.817957E-1,1.4037906E-1,-3.5282485E-2,6.2778845E-2,4.2532776E-2,-7.673561E-2,-4.0857712E-4,-7.655112E-2,6.257027E-2,9.575195E-3,4.2376015E-2,-1.7233305E-2,2.5999684E-2,-7.975875E-2,-5.7080176E-2,-1.0411339E-1,-5.823608E-2,2.3622392E-2],"split_indices":[9747,6028,8394,0,3383,3383,4233,8098,0,6942,7600,8098,3189,9415,0,1134,8583,1134,0,3108,1110,0,7736,0,5284,5526,0,0,0,1077,0,0,4233,642,0,1160,0,0,0,0,0,0,5526,4824,7066,0,1694,0,6942,8394,5685,5317,0,0,1369,1134,7766,9142,990,0,0,0,0,0,0,0,0,0,0,0,0,0,0,0,0],"split_type":[0,0,0,0,0,0,0,0,0,0,0,0,0,0,0,0,0,0,0,0,0,0,0,0,0,0,0,0,0,0,0,0,0,0,0,0,0,0,0,0,0,0,0,0,0,0,0,0,0,0,0,0,0,0,0,0,0,0,0,0,0,0,0,0,0,0,0,0,0,0,0,0,0,0,0],"sum_hessian":[6.0297793E3,2.2908284E3,3.738951E3,1.4743564E2,2.1433928E3,9.1095667E2,2.8279944E3,2.1227725E3,2.0620274E1,3.578123E1,8.751755E2,4.811451E2,2.346849E3,2.1203398E3,2.4327557E0,4.696891E0,3.1084341E1,8.4964087E2,2.5534561E1,3.9693536E2,8.420973E1,2.0206628E2,2.144783E3,1.3159124E0,2.119024E3,3.296015E0,1.4008759E0,2.9889437E1,1.1949033E0,8.24083E2,2.5557861E1,2.0107664E1,3.768277E2,7.5202805E1,9.006931E0,2.0488193E3,9.5963646E1,2.1180078E3,1.0160505E0,1.3961953E0,1.8998199E0,2.2581821E1,8.015012E2,1.3129394E1,3.636983E2,1.1960043E0,7.40068E1,5.2127956E1,1.9966913E3,7.808026E2,2.0698616E1,1.1963476E1,1.1659175E0,1.0378759E0,3.6266043E2,3.0303626E0,7.097643E1,1.6816417E3,3.1504962E2,7.2351723E0,7.7356744E2,1.1569068E0,1.9541708E1,1.1956408E0,1.0767836E1,3.6161215E2,1.048281E0,1.1567798E0,1.873583E0,1.5491703E0,6.942726E1,2.0987418E2,1.4717675E3,3.104963E2,4.5532885E0],"tree_param":{"num_deleted":"0","num_feature":"10000","num_nodes":"75","size_leaf_vector":"1"}},{"base_weights":[1.0206954E-2,9.755197E-1,-5.67085E-1,-1.0023874E-1,1.2003618E0,7.788368E-1,-9.043112E-1,1.233303E0,-9.7832985E-2,1.0100329E0,-1.577674E0,-1.2322466E0,6.202656E-2,1.2379776E0,-8.409284E-2,-9.855503E-2,1.1069095E0,3.0123428E-2,-1.6351532E0,1.2303796E0,-1.4570918E0,-8.738203E-2,1.240328E0,-1.0042938E0,1.2239712E0,1.02508776E-1,-1.709045E0,1.4973814E-2,1.234709E0,-1.551339E0,1.1494251E0,1.2416945E0,-2.2927744E-2,4.080783E-2,-1.0885031E0,-7.278548E-1,1.236201E0,2.8368313E-2,-2.2924853E-2,2.2421343E-2,-1.7578828E0,1.595102E-2,6.1947197E-2,-3.742948E-1,-1.7241707E0,-7.8909695E-2,6.1701477E-2,8.575394E-3,6.2107246E-2,2.7573902E-2,-1.1770277E0,-5.9514064E-2,1.7425733E-2,-5.678835E-2,1.242204E0,6.1248704E-3,-1.8040637E0,6.2322702E-2,-1.1766608E0,6.1004814E-2,-1.7997756E0,8.9738825E-3,-6.391863E-2,9.094073E-3,6.2249847E-2,-1.5407129E-2,-9.345577E-2,-6.0337514E-2,3.6277432E-2,-9.608375E-2,-5.3837337E-2],"categories":[],"categories_nodes":[],"categories_segments":[],"categories_sizes":[],"default_left":[0,0,0,0,1,1,1,1,0,0,0,0,0,0,0,0,0,0,0,0,1,0,1,0,0,0,0,0,0,0,0,0,0,0,0,1,0,0,0,0,0,0,0,0,0,0,0,0,0,0,0,0,0,0,0,0,0,0,1,0,1,0,0,0,0,0,0,0,0,0,0],"id":7,"left_children":[1,3,5,-1,7,9,11,13,-1,15,17,19,-1,21,-1,-1,23,-1,25,27,29,-1,31,33,35,37,39,-1,41,43,45,47,-1,-1,49,51,53,-1,-1,-1,55,-1,-1,57,59,-1,-1,-1,-1,-1,61,-1,-1,-1,63,-1,65,-1,67,-1,69,-1,-1,-1,-1,-1,-1,-1,-1,-1,-1],"loss_changes":[3.308487E3,1.4912288E3,1.6869528E3,0E0,2.173274E2,4.074224E2,2.0914478E3,2.996167E1,0E0,1.9826373E2,9.373779E0,1.4291165E3,0E0,1.6505127E1,0E0,0E0,1.6390253E2,0E0,8.584259E0,5.0161743E-1,5.821587E2,0E0,5.3103027E0,6.2735977E0,1.5797119E1,1.2028219E0,7.413376E0,0E0,4.3804932E-1,4.6328223E2,2.1105675E1,7.709961E-1,0E0,0E0,5.5858E0,2.6623847E0,1.0247131E1,0E0,0E0,0E0,5.577835E0,0E0,0E0,3.828375E2,4.447837E2,0E0,0E0,0E0,0E0,0E0,4.7086105E0,0E0,0E0,0E0,1.6080933E0,0E0,5.2893677E0,0E0,1.2132294E1,0E0,1.6881836E2,0E0,0E0,0E0,0E0,0E0,0E0,0E0,0E0,0E0,0E0],"parents":[2147483647,0,0,1,1,2,2,4,4,5,5,6,6,7,7,9,9,10,10,11,11,13,13,16,16,18,18,19,19,20,20,22,22,23,23,24,24,25,25,26,26,28,28,29,29,30,30,31,31,34,34,35,35,36,36,40,40,43,43,44,44,50,50,54,54,56,56,58,58,60,60],"right_children":[2,4,6,-1,8,10,12,14,-1,16,18,20,-1,22,-1,-1,24,-1,26,28,30,-1,32,34,36,38,40,-1,42,44,46,48,-1,-1,50,52,54,-1,-1,-1,56,-1,-1,58,60,-1,-1,-1,-1,-1,62,-1,-1,-1,64,-1,66,-1,68,-1,70,-1,-1,-1,-1,-1,-1,-1,-1,-1,-1],"split_conditions":[7.861716E-2,1.5402676E-1,1.4048773E-1,-1.0023874E-1,1.0657457E-1,7.7073015E-2,1.4249887E-1,1.2734549E-1,-9.7832985E-2,2.5563282E-1,1.841394E-1,7.7449985E-2,6.202656E-2,1.2599298E-1,-8.409284E-2,-9.855503E-2,6.184061E-2,3.0123428E-2,5.8627766E-2,1.1274507E-1,8.189365E-2,-8.738203E-2,9.2027225E-2,2.2261815E-1,1.5874815E-1,1.0785677E-1,1.5672061E-1,1.4973814E-2,1.05770506E-1,9.201446E-2,2.7169177E-1,6.6000916E-2,-2.2927744E-2,4.080783E-2,1.6217442E-1,9.345453E-2,2.59245E-1,2.8368313E-2,-2.2924853E-2,2.2421343E-2,9.375918E-2,1.595102E-2,6.1947197E-2,1.0371345E-1,1.4463542E-1,-7.8909695E-2,6.1701477E-2,8.575394E-3,6.2107246E-2,2.7573902E-2,8.3625E-2,-5.9514064E-2,1.7425733E-2,-5.678835E-2,7.2711684E-2,6.1248704E-3,1.9865556E-1,6.2322702E-2,1.6008481E-1,6.1004814E-2,5.7273794E-2,8.9738825E-3,-6.391863E-2,9.094073E-3,6.2249847E-2,-1.5407129E-2,-9.345577E-2,-6.0337514E-2,3.6277432E-2,-9.608375E-2,-5.3837337E-2],"split_indices":[9747,6028,4233,0,3383,8098,3189,8098,0,4267,1466,9814,0,3482,0,0,4233,0,3383,8615,1733,0,8072,262,5526,5526,7636,0,1369,1134,5526,1134,0,0,1132,4814,7066,0,0,0,5985,0,0,9814,5454,0,0,0,0,0,4379,0,0,0,8098,0,5848,0,5317,0,4814,0,0,0,0,0,0,0,0,0,0],"split_type":[0,0,0,0,0,0,0,0,0,0,0,0,0,0,0,0,0,0,0,0,0,0,0,0,0,0,0,0,0,0,0,0,0,0,0,0,0,0,0,0,0,0,0,0,0,0,0,0,0,0,0,0,0,0,0,0,0,0,0,0,0,0,0,0,0,0,0,0,0,0,0],"sum_hessian":[5.9349907E3,2.2208052E3,3.7141858E3,1.5523541E2,2.0655698E3,7.438911E2,2.9702947E3,2.0448428E3,2.0726992E1,6.779492E2,6.59419E1,2.5767483E3,3.9354617E2,2.0421433E3,2.6993968E0,2.0728704E1,6.572205E2,1.4503336E0,6.449157E1,2.1520752E2,2.361541E3,1.0222574E0,2.0411211E3,3.4128857E1,6.230917E2,2.614764E0,6.1876804E1,1.3210899E0,2.1388643E2,2.279522E3,8.201886E1,2.0397495E3,1.3715459E0,1.12462E0,3.300424E1,3.515504E0,6.195762E2,1.4237155E0,1.1910485E0,1.1885612E0,6.068824E1,1.3360362E0,2.1255038E2,2.9226434E2,1.9872577E3,1.9363921E0,8.008247E1,1.01901E0,2.0387305E3,1.4224617E0,3.1581778E1,2.3850265E0,1.1304774E0,1.0889599E0,6.184872E2,1.4151214E0,5.927312E1,9.6594215E1,1.9567012E2,4.9373585E1,1.9378842E3,2.1418645E0,2.9439913E1,1.7985498E0,6.1668866E2,2.7092137E0,5.6563908E1,1.9298308E2,2.6870396E0,1.656883E3,2.81001E2],"tree_param":{"num_deleted":"0","num_feature":"10000","num_nodes":"71","size_leaf_vector":"1"}},{"base_weights":[1.0591424E-2,1.1787473E0,-3.708868E-1,-9.262988E-2,1.2218678E0,7.9785866E-1,-7.8662366E-1,-6.98011E-2,1.225569E0,1.2249359E0,3.197848E-1,6.125284E-2,-1.0568546E0,6.13357E-2,8.89269E-3,1.2277441E0,3.8883046E-3,-1.7021362E-1,6.109376E-2,-1.2214614E0,6.116971E-2,1.2291238E0,9.962224E-3,4.8651156E-1,-9.699166E-2,-1.3972931E0,1.212592E0,6.1526217E-2,1.655112E-2,-9.319948E-2,7.5333804E-1,6.1634343E-2,-1.5340389E0,6.1110634E-2,7.173553E-3,-1.2288091E0,1.0985827E0,1.121049E0,-1.6233176E0,-3.898531E-4,-7.062551E-2,-6.574966E-2,5.8782876E-2,-6.699193E-2,5.8870014E-2,-4.5702875E-2,-8.7957494E-2],"categories":[],"categories_nodes":[],"categories_segments":[],"categories_sizes":[],"default_left":[0,0,0,0,0,0,0,0,1,1,1,0,1,0,0,1,0,0,0,1,0,1,0,0,0,0,1,0,0,0,0,0,0,0,0,0,0,0,0,0,0,0,0,0,0,0,0],"id":8,"left_children":[1,3,5,-1,7,9,11,-1,13,15,17,-1,19,-1,-1,21,-1,23,-1,25,-1,27,-1,29,-1,31,33,-1,-1,-1,35,-1,37,-1,-1,39,41,43,45,-1,-1,-1,-1,-1,-1,-1,-1],"loss_changes":[2.5927756E3,1.8948389E2,2.1317412E3,0E0,1.5400391E1,2.3467322E2,1.7602806E3,0E0,1.4748535E0,1.8624268E0,2.4091966E2,0E0,1.0723723E3,0E0,0E0,6.1517334E-1,0E0,4.1207266E2,0E0,1.1407576E3,0E0,3.538208E-1,0E0,1.6372523E2,0E0,8.947388E2,1.6744385E0,0E0,0E0,0E0,1.6089359E2,0E0,5.613281E2,0E0,0E0,7.85207E0,3.858072E1,1.2307854E1,2.1843164E2,0E0,0E0,0E0,0E0,0E0,0E0,0E0,0E0],"parents":[2147483647,0,0,1,1,2,2,4,4,5,5,6,6,8,8,9,9,10,10,12,12,15,15,17,17,19,19,21,21,23,23,25,25,26,26,30,30,32,32,35,35,36,36,37,37,38,38],"right_children":[2,4,6,-1,8,10,12,-1,14,16,18,-1,20,-1,-1,22,-1,24,-1,26,-1,28,-1,30,-1,32,34,-1,-1,-1,36,-1,38,-1,-1,40,42,44,46,-1,-1,-1,-1,-1,-1,-1,-1],"split_conditions":[1.00628056E-1,2.367397E-1,1.0089637E-1,-9.262988E-2,1.4176314E-1,1.3847183E-1,3.615073E-1,-6.98011E-2,9.378724E-2,1.0040077E-1,1.8557541E-1,6.125284E-2,1.4249887E-1,6.13357E-2,8.89269E-3,9.8507024E-2,3.8883046E-3,8.124559E-2,6.109376E-2,6.693756E-2,6.116971E-2,7.1409576E-2,9.962224E-3,1.8433449E-1,-9.699166E-2,2.5598013E-1,5.7799593E-2,6.1526217E-2,1.655112E-2,-9.319948E-2,7.1734804E-1,6.1634343E-2,6.848674E-2,6.1110634E-2,7.173553E-3,1.1736764E-1,1.22937776E-1,1.3260785E-1,8.897141E-2,-3.898531E-4,-7.062551E-2,-6.574966E-2,5.8782876E-2,-6.699193E-2,5.8870014E-2,-4.5702875E-2,-8.7957494E-2],"split_indices":[6514,3402,8394,0,5685,9814,3220,0,3706,3706,3189,0,3189,0,0,8625,0,8394,0,4567,0,4286,0,8062,0,1160,8625,0,0,0,5526,0,9814,0,0,5606,1134,1134,8625,0,0,0,0,0,0,0,0],"split_type":[0,0,0,0,0,0,0,0,0,0,0,0,0,0,0,0,0,0,0,0,0,0,0,0,0,0,0,0,0,0,0,0,0,0,0,0,0,0,0,0,0,0,0,0,0,0,0],"sum_hessian":[5.8162954E3,1.4313009E3,4.3849946E3,1.9485924E1,1.411815E3,1.1502947E3,3.2346997E3,1.4621679E0,1.4103528E3,6.067263E2,5.435684E2,3.8264468E2,2.852055E3,1.4086426E3,1.7102976E0,6.051746E2,1.5516729E0,3.5276465E2,1.9080377E2,2.6604653E3,1.915896E2,6.0416907E2,1.0055913E0,2.5781262E2,9.495201E1,2.4816235E3,1.7884203E2,6.028589E2,1.3101494E0,2.567278E1,2.3213985E2,1.2225853E2,2.359365E3,1.7710513E2,1.7368906E0,3.405593E1,1.9808391E2,7.6378006E1,2.2829868E3,4.5899796E0,2.9465952E1,5.632803E0,1.9245111E2,1.1999276E0,7.517808E1,3.6818808E2,1.9147988E3],"tree_param":{"num_deleted":"0","num_feature":"10000","num_nodes":"47","size_leaf_vector":"1"}},{"base_weights":[8.955197E-3,9.485012E-1,-5.2963907E-1,1.1750087E0,-9.152406E-2,7.250729E-1,-9.104281E-1,1.205734E0,-8.896144E-2,-1.5594066E0,8.320794E-1,5.5912924E-1,-1.186289E0,-8.0589265E-2,1.2094142E0,-6.14676E-1,-9.150607E-2,-9.070485E-2,9.257822E-1,-1.0393744E0,8.864857E-1,6.047805E-2,-1.3913214E0,1.2108696E0,-1.5200063E-2,2.3208711E-2,-8.131292E-1,1.0215312E0,-9.080398E-2,-1.087918E0,3.3895895E-2,-9.0010904E-2,1.0550637E0,-1.5026658E0,6.05819E-2,1.2116858E0,2.8180114E-3,-1.0904223E0,5.7577603E-3,1.1166875E0,-9.034551E-2,-1.1437519E0,3.803604E-1,1.1792474E0,-8.8686004E-2,6.0823496E-2,-1.5637131E0,6.9880383E-3,6.062771E-2,3.7822654E-3,-1.3567848E0,-1.187676E0,1.1916188E0,2.3093304E-2,-1.1957257E0,4.9160976E-2,-1.9911475E-2,1.1968656E0,-5.956998E-2,-9.8478943E-1,-1.6980101E0,-1.9580495E-2,-7.6592475E-2,-6.507736E-2,2.4675107E-2,-6.2437143E-2,6.0249813E-2,2.908626E-2,-6.2085044E-2,-3.7893835E-2,6.0329385E-2,4.47828E-2,-5.0096314E-2,-4.6385456E-2,-8.933442E-2],"categories":[],"categories_nodes":[],"categories_segments":[],"categories_sizes":[],"default_left":[0,1,0,1,0,0,0,0,0,0,0,0,0,0,1,0,0,0,1,1,0,0,1,1,0,0,0,1,0,1,0,0,1,0,0,0,0,0,0,0,0,0,1,1,0,0,0,0,0,0,0,1,0,0,0,0,0,0,0,0,0,0,0,0,0,0,0,0,0,0,0,0,0,0,0],"id":9,"left_children":[1,3,5,7,-1,9,11,13,-1,15,17,19,21,-1,23,25,-1,-1,27,29,31,-1,33,35,-1,-1,37,39,-1,41,-1,-1,43,45,-1,47,-1,49,-1,51,-1,53,55,57,-1,-1,59,-1,-1,-1,61,63,65,-1,67,-1,-1,69,-1,71,73,-1,-1,-1,-1,-1,-1,-1,-1,-1,-1,-1,-1,-1,-1],"loss_changes":[2.8785469E3,1.3068402E3,1.7281907E3,1.7616113E2,0E0,2.0722546E2,1.125363E3,2.1629883E1,0E0,8.604118E0,2.013714E2,2.3072539E2,1.1492776E3,0E0,4.5444336E0,2.5138478E0,0E0,0E0,2.0622937E2,6.998848E0,1.6723828E2,0E0,6.256626E2,1.7167969E0,0E0,0E0,2.3885794E0,2.046427E2,0E0,6.4545975E0,0E0,0E0,1.2298041E2,3.4462256E2,0E0,1.5925293E0,0E0,2.234867E0,0E0,1.27284485E2,0E0,6.4761505E0,2.006382E0,1.5219666E1,0E0,0E0,1.5535791E2,0E0,0E0,0E0,3.5329628E-1,5.1330833E0,2.4569214E1,0E0,6.364197E0,0E0,0E0,7.1539307E0,0E0,1.3229492E1,1.1023535E2,0E0,0E0,0E0,0E0,0E0,0E0,0E0,0E0,0E0,0E0,0E0,0E0,0E0,0E0],"parents":[2147483647,0,0,1,1,2,2,3,3,5,5,6,6,7,7,9,9,10,10,11,11,12,12,14,14,15,15,18,18,19,19,20,20,22,22,23,23,26,26,27,27,29,29,32,32,33,33,35,35,37,37,39,39,41,41,42,42,43,43,46,46,50,50,51,51,52,52,54,54,57,57,59,59,60,60],"right_children":[2,4,6,8,-1,10,12,14,-1,16,18,20,22,-1,24,26,-1,-1,28,30,32,-1,34,36,-1,-1,38,40,-1,42,-1,-1,44,46,-1,48,-1,50,-1,52,-1,54,56,58,-1,-1,60,-1,-1,-1,62,64,66,-1,68,-1,-1,70,-1,72,74,-1,-1,-1,-1,-1,-1,-1,-1,-1,-1,-1,-1,-1,-1],"split_conditions":[7.861716E-2,1.422596E-1,1.0089637E-1,1.0657457E-1,-9.152406E-2,2.2383459E-1,1.4048773E-1,1.9208878E-1,-8.896144E-2,4.2475592E-2,4.6278054E-1,6.515793E-2,1.8557541E-1,-8.0589265E-2,1.1374327E-1,1.4602551E-1,-9.150607E-2,-9.070485E-2,8.8933565E-2,1.4266048E-1,2.537098E-1,6.047805E-2,9.238202E-2,9.2027225E-2,-1.5200063E-2,2.3208711E-2,6.939755E-2,1.0952339E-1,-9.080398E-2,9.918528E-2,3.3895895E-2,-9.0010904E-2,7.228646E-2,1.4134727E-1,6.05819E-2,8.355301E-2,2.8180114E-3,5.3132463E-2,5.7577603E-3,2.7169177E-1,-9.034551E-2,1.6548957E-1,6.823096E-2,5.4850347E-2,-8.8686004E-2,6.0823496E-2,1.6007678E-1,6.9880383E-3,6.062771E-2,3.7822654E-3,1.7321697E-1,1.0455761E-1,4.8595183E-2,2.3093304E-2,2.2261815E-1,4.9160976E-2,-1.9911475E-2,6.689904E-2,-5.956998E-2,4.7873658E-1,9.3552575E-2,-1.9580495E-2,-7.6592475E-2,-6.507736E-2,2.4675107E-2,-6.2437143E-2,6.0249813E-2,2.908626E-2,-6.2085044E-2,-3.7893835E-2,6.0329385E-2,4.47828E-2,-5.0096314E-2,-4.6385456E-2,-8.933442E-2],"split_indices":[9747,3706,8394,3383,0,3383,4233,5526,0,8394,1077,4233,3189,0,5738,2931,0,0,7600,4814,5893,0,7736,8072,0,0,3383,9561,0,65,0,0,5526,1162,0,1319,0,3968,0,5526,0,6486,4814,8625,0,0,4814,0,0,0,3677,4942,8625,0,262,0,0,3968,0,9373,8625,0,0,0,0,0,0,0,0,0,0,0,0,0,0],"split_type":[0,0,0,0,0,0,0,0,0,0,0,0,0,0,0,0,0,0,0,0,0,0,0,0,0,0,0,0,0,0,0,0,0,0,0,0,0,0,0,0,0,0,0,0,0,0,0,0,0,0,0,0,0,0,0,0,0,0,0,0,0,0,0,0,0,0,0,0,0,0,0,0,0,0,0],"sum_hessian":[5.6864517E3,2.0717117E3,3.6147402E3,1.9161117E3,1.5559996E2,8.413992E2,2.773341E3,1.8969742E3,1.913748E1,3.704089E1,8.043583E2,4.381603E2,2.3351807E3,1.9046067E0,1.8950696E3,8.978523E0,2.8062366E1,2.688083E1,7.774774E2,7.410848E1,3.6405182E2,1.8370049E2,2.1514802E3,1.8934487E3,1.6208708E0,1.1869504E0,7.7915735E0,7.5184937E2,2.5628038E1,7.242762E1,1.6808621E0,2.0922447E1,3.4312936E2,2.0636292E3,8.785114E1,1.8920615E3,1.3871448E0,5.864955E0,1.9266183E0,7.279639E2,2.3885454E1,6.998727E1,2.440357E0,3.2925806E2,1.3871313E1,4.4897675E1,2.0187314E3,1.6626699E0,1.8903989E3,1.2237396E0,4.6412153E0,2.2458109E1,7.055058E2,1.9471699E0,6.80401E1,1.2272677E0,1.2130893E0,3.2732062E2,1.9374496E0,3.816893E2,1.6370421E3,1.2095592E0,3.4316564E0,2.1244938E1,1.2131695E0,3.3428822E0,7.0216296E2,1.4217247E0,6.661837E1,1.2390596E0,3.2608154E2,2.9840329E0,3.787053E2,1.7018634E2,1.4668558E3],"tree_param":{"num_deleted":"0","num_feature":"10000","num_nodes":"75","size_leaf_vector":"1"}},{"base_weights":[1.25492355E-2,9.286936E-1,-4.9909863E-1,-8.7875985E-2,1.1576885E0,7.447461E-1,-7.90183E-1,1.191413E0,-8.572508E-2,9.691992E-1,-1.3134962E0,-1.0678015E0,5.997113E-2,1.1968673E0,-7.930272E-2,-8.645645E-2,1.0718167E0,4.961455E-2,-1.3716394E0,2.4404937E-1,-1.4305693E0,-8.319988E-2,1.2003565E0,-8.390249E-1,1.1818517E0,3.1505156E-2,-1.427009E0,6.0083635E-2,-5.5885E-1,5.982668E-2,-1.5659301E0,6.0068198E-2,-1.0710715E-2,-9.3695176E-1,4.664965E-2,-5.055032E-1,1.1958915E0,-1.5207355E0,-1.3408361E-1,-9.1483885E-1,5.9379656E-2,-8.924916E-1,-1.6810184E0,-1.014802E0,2.6897216E-2,-8.747991E-1,2.1244539E-2,1.201978E0,-4.3170914E-2,9.983108E-3,-1.566892E0,4.066032E-2,-3.975306E-2,5.290408E-2,-9.4080704E-1,5.5472314E-2,-9.164322E-1,-9.505283E-1,-1.7398894E0,-1.7256793E-2,-6.2598035E-2,-7.228525E-2,-8.1322165E-3,6.0181923E-2,2.3535138E-2,1.0160126E-2,-8.045534E-2,1.4076333E-2,-4.9118366E-2,-4.6923988E-2,5.3398747E-2,2.5550777E-2,-5.067073E-2,3.3358864E-2,-8.747927E-2],"categories":[],"categories_nodes":[],"categories_segments":[],"categories_sizes":[],"default_left":[0,0,0,0,1,1,1,1,0,0,0,0,0,0,0,0,0,0,0,0,0,0,1,1,0,0,1,0,1,0,0,0,0,1,0,1,1,0,0,0,0,0,0,0,0,1,0,1,0,0,0,0,0,0,0,0,1,0,0,0,0,0,0,0,0,0,0,0,0,0,0,0,0,0,0],"id":10,"left_children":[1,3,5,-1,7,9,11,13,-1,15,17,19,-1,21,-1,-1,23,-1,25,27,29,-1,31,33,35,-1,37,-1,39,-1,41,-1,-1,43,-1,45,47,49,51,53,-1,55,57,59,-1,61,-1,63,-1,-1,65,-1,-1,-1,67,-1,69,71,73,-1,-1,-1,-1,-1,-1,-1,-1,-1,-1,-1,-1,-1,-1,-1,-1],"loss_changes":[2.6042551E3,1.2267068E3,1.2913154E3,0E0,1.7980005E2,3.1383243E2,1.5972166E3,2.9385254E1,0E0,1.7093042E2,1.0336761E1,1.2072634E3,0E0,2.0078857E1,0E0,0E0,1.24805664E2,0E0,8.183632E0,4.237361E2,7.084087E2,0E0,2.83667E0,6.539501E0,1.3804932E1,0E0,7.583267E0,0E0,1.8758873E2,0E0,1.4497754E2,0E0,0E0,4.155548E0,0E0,2.193058E0,7.9680176E0,5.063034E0,4.0528536E0,1.3791031E1,0E0,1.4339279E1,6.771094E1,4.3653507E0,0E0,1.4406226E0,0E0,1.0333252E-1,0E0,0E0,4.6886444E0,0E0,0E0,0E0,1.2826157E1,0E0,1.3044159E1,1.1776863E1,3.5975586E1,0E0,0E0,0E0,0E0,0E0,0E0,0E0,0E0,0E0,0E0,0E0,0E0,0E0,0E0,0E0,0E0],"parents":[2147483647,0,0,1,1,2,2,4,4,5,5,6,6,7,7,9,9,10,10,11,11,13,13,16,16,18,18,19,19,20,20,22,22,23,23,24,24,26,26,28,28,30,30,33,33,35,35,36,36,37,37,38,38,39,39,41,41,42,42,43,43,45,45,47,47,50,50,54,54,56,56,57,57,58,58],"right_children":[2,4,6,-1,8,10,12,14,-1,16,18,20,-1,22,-1,-1,24,-1,26,28,30,-1,32,34,36,-1,38,-1,40,-1,42,-1,-1,44,-1,46,48,50,52,54,-1,56,58,60,-1,62,-1,64,-1,-1,66,-1,-1,-1,68,-1,70,72,74,-1,-1,-1,-1,-1,-1,-1,-1,-1,-1,-1,-1,-1,-1,-1,-1],"split_conditions":[7.861716E-2,1.5402676E-1,1.4048773E-1,-8.7875985E-2,1.0657457E-1,7.7073015E-2,1.4249887E-1,1.2734549E-1,-8.572508E-2,2.555813E-1,3.4802806E-1,6.949673E-2,5.997113E-2,2.91338E-1,-7.930272E-2,-8.645645E-2,5.9251003E-2,4.961455E-2,1.841394E-1,1.0371345E-1,2.4365635E-1,-8.319988E-2,9.2027225E-2,1.2346173E-1,2.7169177E-1,3.1505156E-2,1.17292225E-1,6.0083635E-2,1.04922354E-1,5.982668E-2,1.3633434E-1,6.0068198E-2,-1.0710715E-2,7.412417E-2,4.664965E-2,1.1548551E-1,5.5574205E-2,1.3169183E-1,8.0017634E-2,1.7453665E-1,5.9379656E-2,1.881414E-1,1.6254243E-1,9.792318E-2,2.6897216E-2,5.5982396E-2,2.1244539E-2,1.2021539E-1,-4.3170914E-2,9.983108E-3,2.785369E-1,4.066032E-2,-3.975306E-2,5.290408E-2,2.7160385E-1,5.5472314E-2,1.4835662E-1,1.753065E-1,1.4702664E-1,-1.7256793E-2,-6.2598035E-2,-7.228525E-2,-8.1322165E-3,6.0181923E-2,2.3535138E-2,1.0160126E-2,-8.045534E-2,1.4076333E-2,-4.9118366E-2,-4.6923988E-2,5.3398747E-2,2.5550777E-2,-5.067073E-2,3.3358864E-2,-8.747927E-2],"split_indices":[9747,6028,4233,0,3383,8098,3189,8098,0,3108,5612,8625,0,9415,0,0,4233,0,1466,9814,7736,0,8072,8367,5526,0,2975,0,2624,0,4814,0,0,8072,0,4814,8625,4351,6942,9506,0,9714,8098,4379,0,8098,0,3754,0,0,4510,0,0,0,4170,0,9187,7682,2262,0,0,0,0,0,0,0,0,0,0,0,0,0,0,0,0],"split_type":[0,0,0,0,0,0,0,0,0,0,0,0,0,0,0,0,0,0,0,0,0,0,0,0,0,0,0,0,0,0,0,0,0,0,0,0,0,0,0,0,0,0,0,0,0,0,0,0,0,0,0,0,0,0,0,0,0,0,0,0,0,0,0,0,0,0,0,0,0,0,0,0,0,0,0],"sum_hessian":[5.553835E3,1.989919E3,3.563916E3,1.5578741E2,1.8341315E3,6.7556647E2,2.8883494E3,1.8134238E3,2.0707624E1,6.096164E2,6.595007E1,2.5350815E3,3.532678E2,1.8104376E3,2.9861846E0,2.1753658E1,5.8786273E2,1.2269366E0,6.472314E1,5.4923834E2,1.9858434E3,1.6256183E0,1.808812E3,3.1647902E1,5.562148E2,1.4627122E0,6.3260426E1,2.5025768E2,2.9898065E2,9.6922264E1,1.888921E3,1.8076753E3,1.1367157E0,3.0437109E1,1.210792E0,4.3009715E0,5.519138E2,5.882024E1,4.4401855E0,2.4875206E2,5.022858E1,2.7697244E2,1.6119486E3,2.920739E1,1.2297198E0,3.1216624E0,1.1793091E0,5.507025E2,1.2113373E0,1.4499569E0,5.737028E1,1.7302061E0,2.7099795E0,2.7152734E0,2.4603679E2,2.7372727E0,2.7423517E2,1.2149886E2,1.4904497E3,8.280628E0,2.0926762E1,1.1609399E0,1.9607224E0,5.488104E2,1.8920518E0,1.2475169E0,5.6122765E1,7.9005075E0,2.3813629E2,2.7174307E2,2.4920938E0,4.7181435E0,1.16780716E2,5.707601E0,1.4847422E3],"tree_param":{"num_deleted":"0","num_feature":"10000","num_nodes":"75","size_leaf_vector":"1"}},{"base_weights":[9.018849E-3,9.217585E-1,-4.9143705E-1,1.148538E0,-8.463695E-2,7.201255E-1,-8.367448E-1,1.180453E0,-8.2351E-2,8.177563E-1,-1.6355736E0,5.3262395E-1,-1.0909692E0,1.1854815E0,-7.3324345E-2,-1.3983876E0,9.169043E-1,-8.511459E-2,-2.0902187E-2,-8.76421E-1,8.9843804E-1,-1.2709229E0,5.9047867E-2,-6.7697406E-2,1.1880095E0,-1.5796406E0,3.1356993E-1,1.0098153E0,-8.407151E-2,-1.0672172E0,5.4720756E-2,-8.3413735E-2,1.0889196E0,5.896772E-2,-1.3687562E0,5.9478637E-2,-1.7127842E-2,-1.8609442E-1,-8.49599E-2,-5.5968226E-3,3.0901326E-2,-8.3416566E-2,1.1068529E0,6.844785E-1,-1.1301509E0,1.158371E0,-1.2447578E0,5.9394162E-2,-1.4234468E0,-3.9288912E-2,2.5038818E-2,1.1637428E0,-9.355815E-1,4.8967056E-2,3.9742044E-3,3.7867087E-1,-1.1943758E0,1.1787362E0,-8.273804E-1,-1.5108167E0,1.9560717E-2,-8.491178E-1,-1.5606967E0,5.910867E-2,-5.3079214E-2,4.6740975E-2,-5.599482E-2,-2.2641841E-2,5.32885E-2,-6.1710574E-2,3.2604855E-2,-1.3356144E-2,5.9278864E-2,-5.817911E-2,-9.13867E-3,-1.4614448E-2,-8.4016554E-2,-4.3154787E-2,6.182019E-2,-3.912994E-2,-8.275964E-2],"categories":[],"categories_nodes":[],"categories_segments":[],"categories_sizes":[],"default_left":[0,1,0,1,0,1,0,1,0,0,1,0,1,0,0,1,1,0,0,1,0,0,0,0,1,0,0,0,0,0,0,0,1,0,0,0,0,0,0,0,0,0,1,1,0,1,1,0,0,0,0,1,0,0,0,1,1,0,0,0,0,1,0,0,0,0,0,0,0,0,0,0,0,0,0,0,0,0,0,0,0],"id":11,"left_children":[1,3,5,7,-1,9,11,13,-1,15,17,19,21,23,-1,25,27,-1,-1,29,31,33,-1,-1,35,37,39,41,-1,43,-1,-1,45,-1,47,-1,-1,49,-1,-1,-1,-1,51,53,55,57,59,-1,61,-1,-1,63,65,-1,-1,67,69,71,73,75,-1,77,79,-1,-1,-1,-1,-1,-1,-1,-1,-1,-1,-1,-1,-1,-1,-1,-1,-1,-1],"loss_changes":[2.4623794E3,1.1338158E3,1.4572036E3,1.5872339E2,0E0,1.7906348E2,9.439762E2,2.487207E1,0E0,1.644672E2,1.8134918E0,2.1985011E2,9.3608105E2,1.2747803E1,0E0,1.04867935E1,1.7345789E2,0E0,0E0,3.429657E1,1.6701645E2,5.094895E2,0E0,0E0,4.5563965E0,4.5625076E0,5.7663476E-1,1.8052417E2,0E0,9.684456E0,0E0,0E0,5.25213E1,0E0,2.8661743E2,0E0,0E0,1.8091093E0,0E0,0E0,0E0,0E0,7.825275E1,5.3334594E-1,8.050049E0,1.3372803E1,4.7653008E0,0E0,1.5597559E2,0E0,0E0,2.7772522E1,7.442154E0,0E0,0E0,2.7453263E0,6.3541946E0,3.322235E0,5.891144E-1,1.255167E0,0E0,1.2351318E1,1.17041504E2,0E0,0E0,0E0,0E0,0E0,0E0,0E0,0E0,0E0,0E0,0E0,0E0,0E0,0E0,0E0,0E0,0E0,0E0],"parents":[2147483647,0,0,1,1,2,2,3,3,5,5,6,6,7,7,9,9,10,10,11,11,12,12,13,13,15,15,16,16,19,19,20,20,21,21,24,24,25,25,26,26,27,27,29,29,32,32,34,34,37,37,42,42,43,43,44,44,45,45,46,46,48,48,51,51,52,52,55,55,56,56,57,57,58,58,59,59,61,61,62,62],"right_children":[2,4,6,8,-1,10,12,14,-1,16,18,20,22,24,-1,26,28,-1,-1,30,32,34,-1,-1,36,38,40,42,-1,44,-1,-1,46,-1,48,-1,-1,50,-1,-1,-1,-1,52,54,56,58,60,-1,62,-1,-1,64,66,-1,-1,68,70,72,74,76,-1,78,80,-1,-1,-1,-1,-1,-1,-1,-1,-1,-1,-1,-1,-1,-1,-1,-1,-1,-1],"split_conditions":[7.861716E-2,1.422596E-1,1.0089637E-1,1.0657457E-1,-8.463695E-2,9.201446E-2,1.4048773E-1,1.2734549E-1,-8.2351E-2,2.2383459E-1,6.949673E-2,2.9685274E-1,9.446811E-2,2.91338E-1,-7.3324345E-2,1.13952585E-1,8.1238195E-2,-8.511459E-2,-2.0902187E-2,1.0632402E-1,2.555813E-1,2.4365635E-1,5.9047867E-2,-6.7697406E-2,9.2027225E-2,8.0379955E-2,9.7211935E-2,4.6278054E-1,-8.407151E-2,2.1014838E-1,5.4720756E-2,-8.3413735E-2,5.9420634E-2,5.896772E-2,1.1986009E-1,5.9478637E-2,-1.7127842E-2,4.1127574E-2,-8.49599E-2,-5.5968226E-3,3.0901326E-2,-8.3416566E-2,5.8707666E-2,8.766597E-2,6.7209646E-2,5.5574205E-2,1.11481875E-1,5.9394162E-2,1.6007678E-1,-3.9288912E-2,2.5038818E-2,6.563954E-2,6.645638E-2,4.8967056E-2,3.9742044E-3,5.553788E-2,1.376815E-1,4.258372E-2,1.7046292E-1,8.594383E-2,1.9560717E-2,1.631679E-1,1.312047E-1,5.910867E-2,-5.3079214E-2,4.6740975E-2,-5.599482E-2,-2.2641841E-2,5.32885E-2,-6.1710574E-2,3.2604855E-2,-1.3356144E-2,5.9278864E-2,-5.817911E-2,-9.13867E-3,-1.4614448E-2,-8.4016554E-2,-4.3154787E-2,6.182019E-2,-3.912994E-2,-8.275964E-2],"split_indices":[9747,3706,8394,3383,0,1134,4233,8098,0,3383,8625,8098,6028,9415,0,8583,7600,0,0,1110,3108,7736,0,0,8072,6942,8098,1077,0,5629,0,0,4814,0,1160,0,0,8625,0,0,0,0,5526,2128,5526,8625,2016,0,4814,0,0,6942,5685,0,0,3383,8854,8625,3383,2128,0,9371,8098,0,0,0,0,0,0,0,0,0,0,0,0,0,0,0,0,0,0],"split_type":[0,0,0,0,0,0,0,0,0,0,0,0,0,0,0,0,0,0,0,0,0,0,0,0,0,0,0,0,0,0,0,0,0,0,0,0,0,0,0,0,0,0,0,0,0,0,0,0,0,0,0,0,0,0,0,0,0,0,0,0,0,0,0,0,0,0,0,0,0,0,0,0,0,0,0,0,0,0,0,0,0],"sum_hessian":[5.3886724E3,1.9079962E3,3.4806763E3,1.7562234E3,1.5177281E2,7.7175964E2,2.7089167E3,1.7369713E3,1.9252016E1,7.416742E2,3.008545E1,4.2399442E2,2.2849224E3,1.7342288E3,2.7425861E0,3.1199635E1,7.1047455E2,2.8145004E1,1.9404438E0,8.71013E1,3.3689313E2,2.1176306E3,1.6729172E2,1.193015E0,1.7330358E3,2.828252E1,2.9171133E0,6.865368E2,2.3937788E1,7.983134E1,7.269964E0,2.2738382E1,3.1415472E2,8.088078E1,2.0367498E3,1.7314901E3,1.545603E0,2.436737E0,2.5845783E1,1.4804237E0,1.4366896E0,2.343936E1,6.630974E2,2.42613E0,7.7405205E1,3.055646E2,8.590127E0,4.2222893E1,1.9945269E3,1.224057E0,1.2126802E0,6.4554663E2,1.7550802E1,1.215136E0,1.2109941E0,2.9604313E0,7.444477E1,3.0286493E2,2.6996746E0,7.4543285E0,1.1357987E0,3.8609207E2,1.6084348E3,6.407089E2,4.837717E0,1.2091057E0,1.6341696E1,1.4937192E0,1.466712E0,7.3197205E1,1.2475688E0,1.2470863E0,3.0161786E2,1.2451499E0,1.4545248E0,1.2430592E0,6.2112694E0,3.8410382E2,1.9882495E0,1.7518793E2,1.433247E3],"tree_param":{"num_deleted":"0","num_feature":"10000","num_nodes":"81","size_leaf_vector":"1"}},{"base_weights":[1.2517778E-2,9.094928E-1,-4.702596E-1,-8.181658E-2,1.1378865E0,7.0568794E-1,-8.053528E-1,1.1680952E0,-7.934387E-2,-1.4631577E0,8.039644E-1,5.4131776E-1,-1.0531204E0,-8.074117E-2,1.1726733E0,6.621548E-3,-1.5275484E0,8.924455E-1,-8.097408E-2,-7.72127E-1,8.9757776E-1,5.867389E-2,-1.2282834E0,1.1763452E0,-6.376559E-2,4.0591857E-3,-1.5935384E0,9.8662406E-1,-8.0982804E-2,5.4712564E-2,-9.680516E-1,-8.040859E-2,1.080645E0,-1.3212049E0,5.865406E-2,1.1774168E0,1.962051E-2,-8.195038E-2,-1.3351614E-2,-8.022574E-2,1.0783197E0,5.4065466E-1,-1.0310054E0,-7.775039E-1,1.1537286E0,5.8652617E-2,-1.3718661E0,5.8899026E-2,1.2222141E-2,-1.0172435E0,1.1534249E0,-5.9955353E-3,4.940265E-2,-1.0821743E0,3.9270785E-2,-1.1649661E0,-2.1444932E-1,-4.3288887E-2,1.1679555E0,-1.495569E0,-8.409155E-1,3.5185467E-2,-5.9227433E-2,-4.21963E-2,5.8584746E-2,4.2148713E-2,-5.613872E-2,-1.2701198E-2,-6.5898225E-2,-4.2657934E-2,8.560419E-3,5.8561333E-2,1.32769225E-2,-7.893061E-2,-3.2377083E-2,-4.2762183E-2,5.3187627E-2],"categories":[],"categories_nodes":[],"categories_segments":[],"categories_sizes":[],"default_left":[0,0,0,0,1,0,0,0,0,0,1,0,0,0,1,0,0,1,0,0,0,0,1,1,0,0,1,0,0,0,0,0,0,0,0,1,0,0,0,0,0,1,1,0,0,0,1,0,0,0,0,0,0,0,0,0,0,0,1,1,1,0,0,0,0,0,0,0,0,0,0,0,0,0,0,0,0],"id":12,"left_children":[1,3,5,-1,7,9,11,13,-1,15,17,19,21,-1,23,-1,25,27,-1,29,31,-1,33,35,-1,-1,37,39,-1,-1,41,-1,43,45,-1,47,-1,-1,-1,-1,49,51,53,55,57,-1,59,-1,-1,61,63,-1,-1,65,-1,67,69,-1,71,73,75,-1,-1,-1,-1,-1,-1,-1,-1,-1,-1,-1,-1,-1,-1,-1,-1],"loss_changes":[2.2856758E3,1.0757147E3,1.3527102E3,0E0,1.4140454E2,1.6348447E2,8.9174365E2,2.3263916E1,0E0,3.6301498E0,1.5779047E2,1.9521234E2,8.813955E2,0E0,1.655835E1,0E0,3.5423584E0,1.6817468E2,0E0,3.368982E1,1.519545E2,0E0,4.68385E2,9.436035E-1,0E0,0E0,1.4279556E0,1.6312054E2,0E0,0E0,8.278053E0,0E0,4.2420837E1,2.5618604E2,0E0,5.908203E-1,0E0,0E0,0E0,0E0,1.0452112E2,1.2746255E0,8.134575E0,2.4049268E0,9.475494E0,0E0,1.2846143E2,0E0,0E0,7.5281963E0,2.4138916E1,0E0,0E0,6.937454E0,0E0,6.384058E-1,1.6698183E0,0E0,5.538635E-1,1.1169214E2,1.1156799E1,0E0,0E0,0E0,0E0,0E0,0E0,0E0,0E0,0E0,0E0,0E0,0E0,0E0,0E0,0E0,0E0],"parents":[2147483647,0,0,1,1,2,2,4,4,5,5,6,6,7,7,9,9,10,10,11,11,12,12,14,14,16,16,17,17,19,19,20,20,22,22,23,23,26,26,27,27,30,30,32,32,33,33,35,35,40,40,41,41,42,42,43,43,44,44,46,46,49,49,50,50,53,53,55,55,56,56,58,58,59,59,60,60],"right_children":[2,4,6,-1,8,10,12,14,-1,16,18,20,22,-1,24,-1,26,28,-1,30,32,-1,34,36,-1,-1,38,40,-1,-1,42,-1,44,46,-1,48,-1,-1,-1,-1,50,52,54,56,58,-1,60,-1,-1,62,64,-1,-1,66,-1,68,70,-1,72,74,76,-1,-1,-1,-1,-1,-1,-1,-1,-1,-1,-1,-1,-1,-1,-1,-1],"split_conditions":[7.861716E-2,1.5402676E-1,1.0089637E-1,-8.181658E-2,1.0657457E-1,2.2383459E-1,1.4048773E-1,2.91338E-1,-7.934387E-2,1.2338032E-1,8.1238195E-2,2.9685274E-1,1.8557541E-1,-8.074117E-2,1.2734549E-1,6.621548E-3,7.823911E-2,1.0644864E-1,-8.097408E-2,1.0944668E-1,2.5563282E-1,5.867389E-2,9.238202E-2,9.1682024E-2,-6.376559E-2,4.0591857E-3,7.198608E-2,4.6278054E-1,-8.0982804E-2,5.4712564E-2,1.7210615E-1,-8.040859E-2,5.7610694E-2,1.1986009E-1,5.865406E-2,1.2373167E-1,1.962051E-2,-8.195038E-2,-1.3351614E-2,-8.022574E-2,2.7169177E-1,1.2516893E-1,9.569651E-2,7.63533E-2,2.7169177E-1,5.8652617E-2,5.8181457E-2,5.8899026E-2,1.2222141E-2,5.4796237E-2,1.3849379E-1,-5.9955353E-3,4.940265E-2,1.5781686E-1,3.9270785E-2,9.3134835E-2,1.1726682E-1,-4.3288887E-2,1.1716297E-1,5.683428E-2,1.305343E-1,3.5185467E-2,-5.9227433E-2,-4.21963E-2,5.8584746E-2,4.2148713E-2,-5.613872E-2,-1.2701198E-2,-6.5898225E-2,-4.2657934E-2,8.560419E-3,5.8561333E-2,1.32769225E-2,-7.893061E-2,-3.2377083E-2,-4.2762183E-2,5.3187627E-2],"split_indices":[9747,6028,8394,0,3383,3383,4233,9415,0,5606,7600,8098,3189,0,8098,0,5685,1134,0,1111,4266,0,7736,8072,0,0,8625,1077,0,0,1694,0,4233,1160,0,8098,0,0,0,0,5526,4814,642,4814,5526,0,4814,0,0,1134,6942,0,0,7766,0,6828,1134,0,3754,6942,440,0,0,0,0,0,0,0,0,0,0,0,0,0,0,0,0],"split_type":[0,0,0,0,0,0,0,0,0,0,0,0,0,0,0,0,0,0,0,0,0,0,0,0,0,0,0,0,0,0,0,0,0,0,0,0,0,0,0,0,0,0,0,0,0,0,0,0,0,0,0,0,0,0,0,0,0,0,0,0,0,0,0,0,0,0,0,0,0,0,0,0,0,0,0,0,0],"sum_hessian":[5.2762314E3,1.8458518E3,3.4303794E3,1.5145642E2,1.6943954E3,7.604865E2,2.6698928E3,1.6763811E3,1.8014273E1,3.2363945E1,7.2812256E2,4.1470367E2,2.2551892E3,2.1755433E0,1.6742056E3,1.2144105E0,3.1149534E1,7.030844E2,2.5038193E1,8.823503E1,3.2646863E2,1.640578E2,2.0911313E3,1.6722168E3,1.9887853E0,1.21833E0,2.9931204E1,6.7826355E2,2.482082E1,7.9469857E0,8.028805E1,2.1697502E1,3.0477112E2,2.013662E3,7.746941E1,1.6694327E3,2.7840524E0,2.8711468E1,1.2197366E0,2.2618229E1,6.556453E2,2.912039E0,7.737601E1,1.1168703E1,2.9360242E2,3.9644535E1,1.9740175E3,1.6681621E3,1.2706189E0,2.2251326E1,6.3339404E2,1.4714643E0,1.4405748E0,7.564918E1,1.7268249E0,5.9827223E0,5.185981E0,1.6351777E0,2.9196725E2,1.5995352E3,3.7448236E2,1.6874583E0,2.0563868E1,5.3315916E0,6.2806244E2,1.15426E0,7.449492E1,1.2428974E0,4.739825E0,1.496058E0,3.689923E0,2.9061594E2,1.3512951E0,1.4560862E3,1.4344896E2,3.7223315E2,2.2492025E0],"tree_param":{"num_deleted":"0","num_feature":"10000","num_nodes":"77","size_leaf_vector":"1"}},{"base_weights":[4.6231383E-3,8.9828765E-1,-4.6645993E-1,-7.925784E-2,1.1261936E0,6.8443173E-1,-7.885703E-1,-7.6412946E-2,1.155278E0,7.658553E-1,-7.868313E-2,4.939679E-1,-1.0191399E0,1.1622368E0,-7.290879E-2,8.515097E-1,-7.88044E-2,-7.945687E-1,8.6217827E-1,5.8141645E-2,-1.1831902E0,-6.886083E-2,1.1654146E0,-7.784691E-2,9.3648183E-1,-9.875478E-1,5.4066893E-2,-7.797968E-2,1.0539935E0,-1.2690316E0,5.80902E-2,1.1671046E0,-2.340592E-2,-7.67124E-2,1.0212537E0,4.9681064E-2,-1.0302125E0,-8.349779E-1,1.1431013E0,5.8109432E-2,-1.3192168E0,7.015411E-3,5.838418E-2,-9.398714E-1,1.1306345E0,-1.0777932E0,3.7262715E-2,-9.994569E-1,2.3868771E-2,-5.724929E-2,1.1562049E0,-7.509153E-1,-1.4287312E0,2.1406462E-2,-5.461176E-2,5.773999E-2,-6.424275E-2,1.3141567E-2,-5.661915E-2,-5.9867937E-2,1.4055008E-2,8.532828E-3,5.796156E-2,6.4676054E-2,-3.8885694E-2,-3.6501363E-2,-7.636735E-2],"categories":[],"categories_nodes":[],"categories_segments":[],"categories_sizes":[],"default_left":[0,0,0,0,0,1,0,0,1,1,0,0,0,0,0,0,0,1,0,0,1,0,1,0,0,0,0,0,0,0,0,0,0,0,0,0,1,1,0,0,0,0,0,0,1,0,0,1,0,0,0,0,0,0,0,0,0,0,0,0,0,0,0,0,0,0,0],"id":13,"left_children":[1,3,5,-1,7,9,11,-1,13,15,-1,17,19,21,-1,23,-1,25,27,-1,29,-1,31,-1,33,35,-1,-1,37,39,-1,41,-1,-1,43,-1,45,47,49,-1,51,-1,-1,53,55,57,-1,59,-1,-1,61,63,65,-1,-1,-1,-1,-1,-1,-1,-1,-1,-1,-1,-1,-1,-1],"loss_changes":[2.1573696E3,1.00295447E3,1.2445234E3,0E0,1.2689404E2,1.362215E2,7.7595764E2,0E0,3.0862305E1,1.4365588E2,0E0,1.9059169E2,7.971211E2,1.4517334E1,0E0,1.4165756E2,0E0,3.3460167E1,1.4647849E2,0E0,4.1777563E2,0E0,4.9594727E0,0E0,1.4029388E2,7.9256363E0,0E0,0E0,4.9683807E1,2.4501074E2,0E0,7.8564453E-1,0E0,0E0,1.385578E2,0E0,7.5973663E0,3.4168806E0,9.625336E0,0E0,1.2064111E2,0E0,0E0,7.6393013E0,3.6947937E1,6.059746E0,0E0,3.4855356E0,0E0,0E0,6.2475586E-1,1.8432999E1,1.1178735E2,0E0,0E0,0E0,0E0,0E0,0E0,0E0,0E0,0E0,0E0,0E0,0E0,0E0,0E0],"parents":[2147483647,0,0,1,1,2,2,4,4,5,5,6,6,8,8,9,9,11,11,12,12,13,13,15,15,17,17,18,18,20,20,22,22,24,24,25,25,28,28,29,29,31,31,34,34,36,36,37,37,38,38,40,40,43,43,44,44,45,45,47,47,50,50,51,51,52,52],"right_children":[2,4,6,-1,8,10,12,-1,14,16,-1,18,20,22,-1,24,-1,26,28,-1,30,-1,32,-1,34,36,-1,-1,38,40,-1,42,-1,-1,44,-1,46,48,50,-1,52,-1,-1,54,56,58,-1,60,-1,-1,62,64,66,-1,-1,-1,-1,-1,-1,-1,-1,-1,-1,-1,-1,-1,-1],"split_conditions":[7.861716E-2,1.9235337E-1,1.0089637E-1,-7.925784E-2,2.3624478E-1,8.1165954E-2,1.4048773E-1,-7.6412946E-2,1.2734549E-1,1.0952339E-1,-7.868313E-2,2.9685274E-1,1.8557541E-1,2.2695974E-1,-7.290879E-2,4.6259338E-1,-7.88044E-2,1.0632402E-1,2.555813E-1,5.8141645E-2,9.238202E-2,-6.886083E-2,9.2027225E-2,-7.784691E-2,4.859683E-1,1.2959556E-1,5.4066893E-2,-7.797968E-2,6.184061E-2,1.1986009E-1,5.80902E-2,1.0554782E-1,-2.340592E-2,-7.67124E-2,2.7169177E-1,4.9681064E-2,1.0696611E-1,8.644713E-2,2.59245E-1,5.8109432E-2,1.312047E-1,7.015411E-3,5.838418E-2,8.2588576E-2,9.5743194E-2,1.7210615E-1,3.7262715E-2,1.03605665E-1,2.3868771E-2,-5.724929E-2,9.504025E-2,1.6005468E-1,5.817957E-1,2.1406462E-2,-5.461176E-2,5.773999E-2,-6.424275E-2,1.3141567E-2,-5.661915E-2,-5.9867937E-2,1.4055008E-2,8.532828E-3,5.796156E-2,6.4676054E-2,-3.8885694E-2,-3.6501363E-2,-7.636735E-2],"split_indices":[9747,5828,8394,0,3728,7600,4233,0,8098,9561,0,8098,3189,9415,0,4494,0,1110,3108,0,7736,0,8072,0,3728,6981,0,0,4233,1160,0,8331,0,0,5526,0,65,5685,7066,0,8098,0,0,5685,8098,1694,0,4824,0,0,7736,2765,9142,0,0,0,0,0,0,0,0,0,0,0,0,0,0],"split_type":[0,0,0,0,0,0,0,0,0,0,0,0,0,0,0,0,0,0,0,0,0,0,0,0,0,0,0,0,0,0,0,0,0,0,0,0,0,0,0,0,0,0,0,0,0,0,0,0,0,0,0,0,0,0,0,0,0,0,0,0,0,0,0,0,0,0,0],"sum_hessian":[5.1225176E3,1.7678756E3,3.3546418E3,1.4810043E2,1.6197753E3,7.333341E2,2.6213079E3,1.6996548E1,1.6027787E3,7.084493E2,2.4884819E1,3.9926474E2,2.222043E3,1.599076E3,3.7026103E0,6.840666E2,2.4382679E1,8.847884E1,3.107859E2,1.54955E2,2.0670881E3,1.4581041E0,1.5976179E3,2.2721655E1,6.613449E2,8.065521E1,7.823635E0,2.2285719E1,2.8850018E2,1.9945344E3,7.255359E1,1.5962521E3,1.3658541E0,2.1371132E1,6.399738E2,1.230425E0,7.942479E1,1.2619194E1,2.7588098E2,3.9890327E1,1.9546442E3,1.0367758E0,1.5952153E3,3.3407494E1,6.065663E2,7.773453E1,1.6902552E0,1.1425629E1,1.1935647E0,1.0790776E0,2.748019E2,3.1708038E2,1.6375637E3,3.1665618E0,3.0240934E1,6.010749E2,5.491401E0,2.8922172E0,7.4842316E1,9.952504E0,1.4731252E0,1.0169308E0,2.7378497E2,3.4909582E0,3.1358942E2,2.0357983E2,1.4339839E3],"tree_param":{"num_deleted":"0","num_feature":"10000","num_nodes":"67","size_leaf_vector":"1"}},{"base_weights":[8.980648E-3,8.919416E-1,-4.495295E-1,-7.700505E-2,1.1183089E0,6.689393E-1,-7.5855017E-1,1.1498663E0,-7.475191E-2,-1.297396E0,7.7666646E-1,5.050394E-1,-9.824259E-1,-6.927895E-2,1.1538894E0,4.535593E-2,-1.394676E0,8.645614E-1,-7.662075E-2,-7.741458E-1,8.737076E-1,5.765284E-2,-1.1407746E0,1.1555858E0,-1.6855901E-2,-1.4670596E0,2.0972348E-3,-7.567718E-2,9.575259E-1,-9.4089955E-1,5.4120995E-2,-7.530804E-2,1.0458252E0,-1.2250341E0,5.7592608E-2,1.1574832E0,-7.318622E-3,-8.734555E-3,-1.5097001E0,1.0528852E0,-7.561804E-2,-7.833373E-1,-8.121301E-2,-6.920759E-1,1.1331255E0,-1.273975E0,1.0838289E0,8.223593E-3,5.790325E-2,-9.54164E-3,-7.7685274E-2,1.1189196E0,-9.877116E-1,-8.362128E-1,3.2325953E-2,-9.1386616E-1,4.64834E-2,-5.520202E-2,1.1464304E0,-1.3951511E0,-7.516059E-1,-2.6492147E-2,5.839635E-2,-2.5674963E-2,5.7322603E-2,-6.031536E-2,3.152136E-2,-4.399773E-2,4.293329E-2,1.1011332E-2,-5.26797E-2,8.338297E-3,5.7476033E-2,-3.4974173E-2,-7.4721955E-2,-3.821111E-2,5.961592E-2],"categories":[],"categories_nodes":[],"categories_segments":[],"categories_sizes":[],"default_left":[0,0,0,0,1,0,0,0,0,0,1,0,0,0,1,0,1,0,0,1,0,0,1,1,0,0,0,0,1,0,0,0,0,1,0,0,0,0,0,1,0,1,0,1,0,1,0,0,0,0,0,0,1,1,0,0,0,0,0,0,1,0,0,0,0,0,0,0,0,0,0,0,0,0,0,0,0],"id":14,"left_children":[1,3,5,-1,7,9,11,13,-1,15,17,19,21,-1,23,-1,25,27,-1,29,31,-1,33,35,-1,37,-1,-1,39,41,-1,-1,43,45,-1,47,-1,-1,49,51,-1,53,-1,55,57,59,61,-1,-1,-1,-1,63,65,67,-1,69,-1,-1,71,73,75,-1,-1,-1,-1,-1,-1,-1,-1,-1,-1,-1,-1,-1,-1,-1,-1],"loss_changes":[2.0213112E3,9.412168E2,1.1363442E3,0E0,1.305199E2,1.5181638E2,7.290266E2,1.7345215E1,0E0,9.275639E0,1.3843964E2,1.8378271E2,7.412129E2,0E0,4.2893066E0,0E0,3.822586E0,1.4547226E2,0E0,2.807547E1,1.2522797E2,0E0,3.95011E2,3.9743652E0,0E0,1.635315E0,0E0,0E0,1.4939874E2,7.419861E0,0E0,0E0,4.358484E1,2.2351001E2,0E0,6.982422E-1,0E0,0E0,1.6320648E0,8.260431E1,0E0,5.646515E0,0E0,5.9262147E0,9.272247E0,1.2082886E2,6.2294807E0,0E0,0E0,0E0,0E0,2.6940979E1,7.654379E0,5.616146E0,0E0,2.2794333E0,0E0,0E0,6.192932E-1,1.0682495E2,9.855896E0,0E0,0E0,0E0,0E0,0E0,0E0,0E0,0E0,0E0,0E0,0E0,0E0,0E0,0E0,0E0,0E0],"parents":[2147483647,0,0,1,1,2,2,4,4,5,5,6,6,7,7,9,9,10,10,11,11,12,12,14,14,16,16,17,17,19,19,20,20,22,22,23,23,25,25,28,28,29,29,32,32,33,33,35,35,38,38,39,39,41,41,43,43,44,44,45,45,46,46,51,51,52,52,53,53,55,55,58,58,59,59,60,60],"right_children":[2,4,6,-1,8,10,12,14,-1,16,18,20,22,-1,24,-1,26,28,-1,30,32,-1,34,36,-1,38,-1,-1,40,42,-1,-1,44,46,-1,48,-1,-1,50,52,-1,54,-1,56,58,60,62,-1,-1,-1,-1,64,66,68,-1,70,-1,-1,72,74,76,-1,-1,-1,-1,-1,-1,-1,-1,-1,-1,-1,-1,-1,-1,-1,-1],"split_conditions":[7.861716E-2,1.5402676E-1,1.0089637E-1,-7.700505E-2,1.0657457E-1,2.2383459E-1,1.4048773E-1,2.0687371E-1,-7.475191E-2,1.1736764E-1,9.2714235E-2,2.9685274E-1,1.8557541E-1,-6.927895E-2,1.1374327E-1,4.535593E-2,7.64136E-2,4.6381682E-1,-7.662075E-2,8.831592E-2,2.555813E-1,5.765284E-2,9.238202E-2,1.23905286E-1,-1.6855901E-2,1.2189049E-1,2.0972348E-3,-7.567718E-2,8.8933565E-2,1.5556875E-1,5.4120995E-2,-7.530804E-2,6.184061E-2,5.8424197E-2,5.7592608E-2,9.938726E-2,-7.318622E-3,-8.734555E-3,1.8642774E-1,9.504692E-2,-7.561804E-2,1.2384761E-1,-8.121301E-2,1.11481875E-1,2.59245E-1,5.8328085E-2,1.5156487E-1,8.223593E-3,5.790325E-2,-9.54164E-3,-7.7685274E-2,1.14913195E-1,1.0773021E-1,1.3883115E-1,3.2325953E-2,6.53866E-2,4.64834E-2,-5.520202E-2,9.504025E-2,1.6254243E-1,1.631679E-1,-2.6492147E-2,5.839635E-2,-2.5674963E-2,5.7322603E-2,-6.031536E-2,3.152136E-2,-4.399773E-2,4.293329E-2,1.1011332E-2,-5.26797E-2,8.338297E-3,5.7476033E-2,-3.4974173E-2,-7.4721955E-2,-3.821111E-2,5.961592E-2],"split_indices":[9747,6028,8394,0,3383,3383,4233,5526,0,5606,9072,8098,3189,0,5738,0,2699,3563,0,7113,3108,0,7736,8098,0,3677,0,0,7600,8098,0,0,4233,3829,0,9691,0,0,1489,8098,0,4942,0,2016,7066,4814,5526,0,0,0,0,6942,5233,7766,0,1319,0,0,7736,8098,9371,0,0,0,0,0,0,0,0,0,0,0,0,0,0,0,0],"split_type":[0,0,0,0,0,0,0,0,0,0,0,0,0,0,0,0,0,0,0,0,0,0,0,0,0,0,0,0,0,0,0,0,0,0,0,0,0,0,0,0,0,0,0,0,0,0,0,0,0,0,0,0,0,0,0,0,0,0,0,0,0,0,0,0,0,0,0,0,0,0,0,0,0,0,0,0,0],"sum_hessian":[4.9907925E3,1.7055125E3,3.2852803E3,1.4473254E2,1.5607799E3,7.109401E2,2.57434E3,1.5427109E3,1.8068998E1,3.635277E1,6.7458734E2,3.8727036E2,2.1870698E3,1.8999456E0,1.5408109E3,1.1845362E0,3.5168236E1,6.504535E2,2.4133848E1,8.6396515E1,3.0087384E2,1.5054504E2,2.0365248E3,1.5392845E3,1.5263705E0,3.346112E1,1.7071143E0,2.3895937E1,6.2655756E2,7.972862E1,6.6678915E0,1.976957E1,2.8110428E2,1.9647802E3,7.1744675E1,1.5371554E3,2.1292036E0,1.2315509E0,3.2229572E1,6.038186E2,2.2738966E1,6.6534164E1,1.3194461E1,1.3114004E1,2.6799026E2,1.924436E3,4.034402E1,1.0661305E0,1.5360892E3,1.2129613E0,3.101661E1,5.853288E2,1.8489792E1,6.456187E1,1.9722974E0,1.1920275E1,1.193729E0,1.0996901E0,2.6689056E2,1.5607189E3,3.6371722E2,1.7358721E0,3.8608147E1,9.415694E0,5.759131E2,1.6513483E1,1.9763095E0,6.3406277E1,1.1555877E0,1.244363E0,1.0675912E1,1.0120755E0,2.658785E2,1.9593466E2,1.3647842E3,3.6197482E2,1.7423801E0],"tree_param":{"num_deleted":"0","num_feature":"10000","num_nodes":"77","size_leaf_vector":"1"}},{"base_weights":[3.3738841E-3,8.793163E-1,-4.4370884E-1,-7.496043E-2,1.1077595E0,-6.0076183E-1,5.7366114E-2,-7.246767E-2,1.1392928E0,1.1320403E0,-7.900123E-1,1.1450635E0,-6.609418E-2,1.1461173E0,-5.9327543E-2,-9.003993E-1,5.7141244E-2,1.1468478E0,-1.7081883E-2,5.7436794E-2,1.5619195E-2,-9.858531E-1,1.1244988E0,-5.44071E-3,1.1480604E0,-1.8686686E-1,-1.2044363E0,-5.517132E-3,5.700746E-2,1.0753157E-2,1.1485766E0,5.767403E-2,-5.0956094E-1,5.744177E-2,-1.2783915E0,1.6361069E-2,5.7459213E-2,-3.5751116E-2,5.6535866E-2,-6.620281E-2,5.4316908E-2],"categories":[],"categories_nodes":[],"categories_segments":[],"categories_sizes":[],"default_left":[0,0,1,0,0,0,0,0,1,1,1,1,0,1,0,1,0,0,0,0,0,0,0,0,0,0,0,0,0,0,0,0,1,0,1,0,0,0,0,0,0],"id":15,"left_children":[1,3,5,-1,7,9,-1,-1,11,13,15,17,-1,19,-1,21,-1,23,-1,-1,-1,25,27,-1,29,31,33,-1,-1,-1,35,-1,37,-1,39,-1,-1,-1,-1,-1,-1],"loss_changes":[1.90042E3,8.9268896E2,8.0351086E2,0E0,1.2233984E2,9.6006067E2,0E0,0E0,2.252002E1,1.0773102E1,5.6376196E2,4.307617E0,0E0,2.6809692E-1,0E0,4.329253E2,0E0,2.3704834E0,0E0,0E0,0E0,4.1805444E2,2.0877228E0,0E0,4.6228027E-1,2.23621E2,3.2872168E2,0E0,0E0,0E0,3.5876465E-1,0E0,1.4110521E2,0E0,1.9835425E2,0E0,0E0,0E0,0E0,0E0,0E0],"parents":[2147483647,0,0,1,1,2,2,4,4,5,5,8,8,9,9,10,10,11,11,13,13,15,15,17,17,21,21,22,22,24,24,25,25,26,26,30,30,32,32,34,34],"right_children":[2,4,6,-1,8,10,-1,-1,12,14,16,18,-1,20,-1,22,-1,24,-1,-1,-1,26,28,-1,30,32,34,-1,-1,-1,36,-1,38,-1,40,-1,-1,-1,-1,-1,-1],"split_conditions":[7.861716E-2,1.9235337E-1,1.4249887E-1,-7.496043E-2,2.3624478E-1,7.815099E-2,5.7366114E-2,-7.246767E-2,1.2734549E-1,1.5337169E-1,1.7703527E-1,9.2027225E-2,-6.609418E-2,8.748229E-2,-5.9327543E-2,7.143172E-2,5.7141244E-2,1.0760267E-1,-1.7081883E-2,5.7436794E-2,1.5619195E-2,8.561454E-2,7.255321E-2,-5.44071E-3,1.0621909E-1,1.0371345E-1,3.0670214E-1,-5.517132E-3,5.700746E-2,1.0753157E-2,9.6351154E-2,5.767403E-2,8.976087E-2,5.744177E-2,8.8860214E-2,1.6361069E-2,5.7459213E-2,-3.5751116E-2,5.6535866E-2,-6.620281E-2,5.4316908E-2],"split_indices":[9747,5828,3189,0,3728,9814,0,0,8098,8098,3220,8072,0,9747,0,4567,0,8331,0,0,0,8625,3968,0,1543,9814,1278,0,0,0,1104,0,7799,0,2001,0,0,0,0,0,0],"split_type":[0,0,0,0,0,0,0,0,0,0,0,0,0,0,0,0,0,0,0,0,0,0,0,0,0,0,0,0,0,0,0,0,0,0,0,0,0,0,0,0,0],"sum_hessian":[4.850734E3,1.6388556E3,3.2118784E3,1.4312204E2,1.4957336E3,2.9238804E3,2.87998E2,1.7672495E1,1.478061E3,2.8740265E2,2.6364778E3,1.4751371E3,2.9239538E0,2.8617087E2,1.2317724E0,2.494545E3,1.4193282E2,1.4735972E3,1.5399635E0,2.8489825E2,1.2726157E0,2.3940266E3,1.0051833E2,1.3361309E0,1.472261E3,5.1465735E2,1.8793691E3,1.1823058E0,9.933603E1,1.0450213E0,1.4712161E3,9.936377E1,4.1529358E2,5.6819633E1,1.8225496E3,1.4863676E0,1.4697296E3,3.6956583E2,4.572777E1,1.7884531E3,3.409639E1],"tree_param":{"num_deleted":"0","num_feature":"10000","num_nodes":"41","size_leaf_vector":"1"}},{"base_weights":[1.2999571E-2,8.807053E-1,-4.2414364E-1,1.1009142E0,-7.3105335E-2,6.6112083E-1,-7.110395E-1,1.1317092E0,-7.084482E-2,7.473849E-1,-7.2652005E-2,4.769538E-1,-9.1344565E-1,1.1371378E0,-6.357114E-2,-1.223685E0,8.495677E-1,8.463712E-1,-7.479815E-1,5.6750774E-2,-1.0569017E0,1.138314E0,1.5547134E-3,-3.2535318E-1,-7.367929E-2,9.3817407E-1,-7.2582304E-2,-7.184808E-2,1.0385611E0,-9.187141E-1,9.8533154E-1,1.1183838E0,-1.1338818E0,1.1394901E0,3.2128498E-1,-7.82593E-1,5.2493864E-1,-7.182718E-2,1.0300956E0,-5.7242936E-1,1.1136302E0,-1.0458492E0,-1.4850855E-1,1.4739406E-2,5.2523475E-2,1.4472905E-3,5.705411E-2,5.644942E-2,-1.1769197E0,1.7783303E-2,5.700578E-2,-3.8733676E-3,3.055028E-2,8.785237E-3,-1.0852737E0,4.901164E-2,-8.405736E-3,1.1094911E0,-9.5605916E-1,-7.382748E-1,2.5365725E-2,-4.37156E-2,1.1270092E0,-9.115955E-2,-1.173663E0,-5.7226013E-2,3.406137E-1,-1.308453E0,-6.5229917E-1,-6.431068E-2,-2.0175671E-2,-2.523459E-2,5.6839325E-2,-6.0399868E-2,1.1892937E-2,-4.465127E-2,1.2776749E-2,5.6539107E-2,8.07205E-3,3.8083542E-2,-3.84614E-2,-6.3951425E-2,-1.4248228E-3,6.2432803E-2,-2.6990115E-3,-3.3025596E-2,-7.0652395E-2,-3.4041714E-2,3.1788778E-2],"categories":[],"categories_nodes":[],"categories_segments":[],"categories_sizes":[],"default_left":[0,1,0,1,0,1,0,1,0,0,0,1,0,1,0,0,1,0,1,0,0,1,0,0,0,0,0,0,0,1,0,0,0,0,1,0,1,0,1,1,0,0,0,0,0,0,0,0,1,0,0,0,0,0,0,0,0,0,1,1,0,0,1,0,1,0,0,0,1,0,0,0,0,0,0,0,0,0,0,0,0,0,0,0,0,0,0,0,0],"id":16,"left_children":[1,3,5,7,-1,9,11,13,-1,15,-1,17,19,21,-1,23,25,27,29,-1,31,33,-1,35,-1,37,-1,-1,39,41,43,45,47,49,51,53,55,-1,57,59,61,63,65,-1,-1,-1,-1,-1,67,-1,-1,-1,-1,-1,69,-1,-1,71,73,75,-1,-1,77,79,81,-1,83,85,87,-1,-1,-1,-1,-1,-1,-1,-1,-1,-1,-1,-1,-1,-1,-1,-1,-1,-1,-1,-1],"loss_changes":[1.7828389E3,8.1397327E2,9.736448E2,1.1324829E2,0E0,1.203645E2,5.949795E2,2.0010132E1,0E0,1.2773538E2,0E0,1.6380777E2,6.2212256E2,1.8126221E0,0E0,6.5725975E0,1.2342444E2,1.2327513E2,2.5788033E1,0E0,3.3202124E2,9.971924E-1,0E0,3.5677953E0,0E0,1.27441376E2,0E0,0E0,3.1663483E1,7.390465E0,5.1169872E-2,1.6488342E0,1.8716406E2,2.8894043E-1,4.438294E-1,1.838794E0,1.2496581E0,0E0,8.8756775E1,2.5382411E0,7.513916E0,7.943695E0,6.276538E0,0E0,0E0,0E0,0E0,0E0,1.2839673E2,0E0,0E0,0E0,0E0,0E0,9.1632366E-2,0E0,0E0,2.4154907E1,6.8787327E0,1.9016876E0,0E0,0E0,7.073364E-1,5.717696E0,6.974304E0,0E0,3.2471895E0,1.004917E2,1.4306824E1,0E0,0E0,0E0,0E0,0E0,0E0,0E0,0E0,0E0,0E0,0E0,0E0,0E0,0E0,0E0,0E0,0E0,0E0,0E0,0E0],"parents":[2147483647,0,0,1,1,2,2,3,3,5,5,6,6,7,7,9,9,11,11,12,12,13,13,15,15,16,16,17,17,18,18,20,20,21,21,23,23,25,25,28,28,29,29,30,30,31,31,32,32,33,33,34,34,35,35,36,36,38,38,39,39,40,40,41,41,42,42,48,48,54,54,57,57,58,58,59,59,62,62,63,63,64,64,66,66,67,67,68,68],"right_children":[2,4,6,8,-1,10,12,14,-1,16,-1,18,20,22,-1,24,26,28,30,-1,32,34,-1,36,-1,38,-1,-1,40,42,44,46,48,50,52,54,56,-1,58,60,62,64,66,-1,-1,-1,-1,-1,68,-1,-1,-1,-1,-1,70,-1,-1,72,74,76,-1,-1,78,80,82,-1,84,86,88,-1,-1,-1,-1,-1,-1,-1,-1,-1,-1,-1,-1,-1,-1,-1,-1,-1,-1,-1,-1],"split_conditions":[7.861716E-2,1.422596E-1,1.0089637E-1,1.0657457E-1,-7.3105335E-2,8.1238195E-2,1.4048773E-1,1.2734549E-1,-7.084482E-2,2.2383459E-1,-7.2652005E-2,4.607565E-2,1.8557541E-1,1.1374327E-1,-6.357114E-2,3.905473E-2,9.2714235E-2,2.555813E-1,8.651584E-2,5.6750774E-2,2.4365635E-1,1.2355504E-1,1.5547134E-3,6.6158675E-2,-7.367929E-2,4.6278054E-1,-7.2582304E-2,-7.184808E-2,6.184061E-2,7.599464E-2,1.0034295E-1,5.249277E-2,1.1986009E-1,9.6351154E-2,9.770078E-2,6.797787E-2,1.01136364E-1,-7.182718E-2,5.9396744E-2,8.644713E-2,1.4795633E-1,9.396629E-2,5.9343383E-2,1.4739406E-2,5.2523475E-2,1.4472905E-3,5.705411E-2,5.644942E-2,5.7273794E-2,1.7783303E-2,5.700578E-2,-3.8733676E-3,3.055028E-2,8.785237E-3,6.5197885E-2,4.901164E-2,-8.405736E-3,4.2475592E-2,8.2688704E-2,1.3118047E-1,2.5365725E-2,-4.37156E-2,1.0798955E-1,1.3313593E-1,8.146214E-2,-5.7226013E-2,1.0722261E-1,1.7064133E-1,2.2007732E-1,-6.431068E-2,-2.0175671E-2,-2.523459E-2,5.6839325E-2,-6.0399868E-2,1.1892937E-2,-4.465127E-2,1.2776749E-2,5.6539107E-2,8.07205E-3,3.8083542E-2,-3.84614E-2,-6.3951425E-2,-1.4248228E-3,6.2432803E-2,-2.6990115E-3,-3.3025596E-2,-7.0652395E-2,-3.4041714E-2,3.1788778E-2],"split_indices":[9747,3706,8394,3383,0,7600,4233,8098,0,3383,0,8098,3189,5738,0,8394,9072,3108,7113,0,7736,8098,0,3383,0,1077,0,0,4233,4076,1104,8625,1160,1104,1104,5526,8098,0,5526,5685,4286,5685,4286,0,0,0,0,0,4814,0,0,0,0,0,8625,0,0,8394,6942,4,0,0,1369,5526,4814,0,6953,8098,9142,0,0,0,0,0,0,0,0,0,0,0,0,0,0,0,0,0,0,0,0],"split_type":[0,0,0,0,0,0,0,0,0,0,0,0,0,0,0,0,0,0,0,0,0,0,0,0,0,0,0,0,0,0,0,0,0,0,0,0,0,0,0,0,0,0,0,0,0,0,0,0,0,0,0,0,0,0,0,0,0,0,0,0,0,0,0,0,0,0,0,0,0,0,0,0,0,0,0,0,0,0,0,0,0,0,0,0,0,0,0,0,0],"sum_hessian":[4.6982104E3,1.5736282E3,3.124582E3,1.4389102E3,1.3471802E2,6.5302527E2,2.4715566E3,1.4220676E3,1.6842602E1,6.2804565E2,2.4979643E1,3.595972E2,2.1119595E3,1.4193882E3,2.6794658E0,3.0413069E1,5.9763257E2,2.7651465E2,8.308254E1,1.3777061E2,1.974189E3,1.4178511E3,1.5370996E0,7.120075E0,2.3292994E1,5.7604474E2,2.1587824E1,2.0964693E1,2.5554997E2,7.60605E1,7.0220485E0,6.701342E1,1.9071755E3,1.415419E3,2.4320734E0,4.6819825E0,2.4380927E0,2.0921688E1,5.5512305E2,1.1082964E1,2.4446701E2,6.497707E1,1.1083422E1,1.0815774E0,5.940471E0,1.4141616E0,6.559926E1,3.512488E1,1.8720507E3,1.5828253E0,1.4138362E3,1.3317518E0,1.1003217E0,1.2245425E0,3.45744E0,1.2213628E0,1.21673E0,5.342097E2,2.0913372E1,9.881453E0,1.2015117E0,1.2040942E0,2.4326291E2,7.8742843E0,5.710279E1,3.2089698E0,7.8744516E0,1.4955828E3,3.7646783E2,1.9856031E0,1.4718368E0,8.592282E0,5.2561743E2,1.7259512E1,3.6538606E0,8.637829E0,1.2436231E0,2.421456E2,1.1173075E0,3.433082E0,4.441202E0,5.2184464E1,4.918327E0,1.7296836E0,6.144768E0,2.0888762E2,1.2866952E3,3.687698E2,7.69802E0],"tree_param":{"num_deleted":"0","num_feature":"10000","num_nodes":"89","size_leaf_vector":"1"}},{"base_weights":[8.288138E-3,8.660101E-1,-4.1082954E-1,-7.1438156E-2,1.0864236E0,6.3937014E-1,-6.8148476E-1,1.122083E0,-6.959916E-2,-1.2469324E0,7.448499E-1,4.785287E-1,-8.765775E-1,1.1276059E0,-6.128518E-2,2.5559587E-2,-1.3277246E0,-6.9721006E-2,8.364295E-1,-6.598481E-1,8.306227E-1,5.6345344E-2,-1.014276E0,-6.3762195E-2,1.1307122E0,-1.0916763E-3,-1.4109775E0,9.3507564E-1,-7.053631E-2,-8.230369E-1,4.87504E-2,-6.9873564E-2,1.0073051E0,-2.6236603E-1,-1.1829413E0,1.1313853E0,1.2096924E-2,-1.355948E-2,-7.24495E-2,-7.001398E-2,1.0261257E0,-5.165494E-1,-1.0939585E0,-8.0349505E-1,1.1045823E0,1.1165708E0,-5.572297E-1,5.488507E-2,-1.2264771E0,1.132065E0,1.3521965E-2,1.0984843E0,-1.0194038E0,4.0681325E-2,-5.9369606E-1,-1.1723671E0,3.7966233E-2,-1.0543956E0,4.714687E-2,-5.4700673E-2,1.1194786E0,1.0928926E-2,5.6486495E-2,-5.8545005E-1,8.7519944E-1,-1.3498272E0,-5.680526E-1,5.6637E-2,1.55706005E-2,-2.2778021E-2,5.6199487E-2,2.7717605E-2,-6.0704954E-2,-5.4692227E-2,-1.8277436E-2,-6.2325496E-2,1.3491902E-2,1.1280306E-2,-6.1091382E-2,8.132189E-3,5.6154665E-2,-3.0379584E-2,4.4741105E-2,4.8899557E-2,1.2943176E-2,-6.976145E-2,-1.2994068E-2,-3.0484546E-2,3.8423073E-2],"categories":[],"categories_nodes":[],"categories_segments":[],"categories_sizes":[],"default_left":[0,0,0,0,1,0,0,1,0,0,0,0,0,0,0,0,0,0,1,1,0,0,0,0,1,0,0,0,0,0,0,0,0,0,0,1,0,0,0,0,1,0,1,1,0,0,1,0,1,1,0,0,0,0,0,1,0,0,0,0,0,0,0,1,0,1,1,0,0,0,0,0,0,0,0,0,0,0,0,0,0,0,0,0,0,0,0,0,0],"id":17,"left_children":[1,3,5,-1,7,9,11,13,-1,15,17,19,21,23,-1,-1,25,-1,27,29,31,-1,33,-1,35,-1,37,39,-1,41,-1,-1,43,45,47,49,-1,-1,-1,-1,51,53,55,57,59,61,63,-1,65,67,-1,69,71,-1,73,75,-1,77,-1,-1,79,-1,-1,81,83,85,87,-1,-1,-1,-1,-1,-1,-1,-1,-1,-1,-1,-1,-1,-1,-1,-1,-1,-1,-1,-1,-1,-1],"loss_changes":[1.6375085E3,7.578236E2,8.701997E2,0E0,1.22175415E2,1.25785614E2,5.5112634E2,1.8834229E1,0E0,5.4522324E0,1.17719086E2,1.4122726E2,5.759143E2,1.146814E1,0E0,0E0,3.4925232E0,0E0,1.2792169E2,2.3071404E1,1.0711171E2,0E0,2.4698743E2,0E0,5.2905273E-1,0E0,9.263191E-1,1.1789804E2,0E0,5.7817535E0,0E0,0E0,4.4813126E1,1.4640967E2,1.5945728E2,4.7875977E-1,0E0,0E0,0E0,0E0,7.9230286E1,4.3577976E0,6.655899E0,6.8185215E0,8.989105E0,5.0338745E-1,1.248008E1,0E0,1.26180176E2,3.8916016E-1,0E0,2.0733948E1,6.3564625E0,0E0,3.7384882E0,4.448883E0,0E0,2.8676386E0,0E0,0E0,6.334839E-1,0E0,0E0,1.00793E1,1.3460875E-1,6.474634E1,1.4289253E1,0E0,0E0,0E0,0E0,0E0,0E0,0E0,0E0,0E0,0E0,0E0,0E0,0E0,0E0,0E0,0E0,0E0,0E0,0E0,0E0,0E0,0E0],"parents":[2147483647,0,0,1,1,2,2,4,4,5,5,6,6,7,7,9,9,10,10,11,11,12,12,13,13,16,16,18,18,19,19,20,20,22,22,24,24,26,26,27,27,29,29,32,32,33,33,34,34,35,35,40,40,41,41,42,42,43,43,44,44,45,45,46,46,48,48,49,49,51,51,52,52,54,54,55,55,57,57,60,60,63,63,64,64,65,65,66,66],"right_children":[2,4,6,-1,8,10,12,14,-1,16,18,20,22,24,-1,-1,26,-1,28,30,32,-1,34,-1,36,-1,38,40,-1,42,-1,-1,44,46,48,50,-1,-1,-1,-1,52,54,56,58,60,62,64,-1,66,68,-1,70,72,-1,74,76,-1,78,-1,-1,80,-1,-1,82,84,86,88,-1,-1,-1,-1,-1,-1,-1,-1,-1,-1,-1,-1,-1,-1,-1,-1,-1,-1,-1,-1,-1,-1],"split_conditions":[7.861716E-2,1.5402676E-1,1.0089637E-1,-7.1438156E-2,1.0657457E-1,2.2383459E-1,1.4048773E-1,1.2734549E-1,-6.959916E-2,1.1736764E-1,4.636417E-1,2.9685274E-1,1.8557541E-1,2.2695974E-1,-6.128518E-2,2.5559587E-2,5.649616E-2,-6.9721006E-2,1.0952339E-1,8.651584E-2,2.555813E-1,5.6345344E-2,8.561454E-2,-6.3762195E-2,1.2373167E-1,-1.0916763E-3,1.8663783E-1,4.6278054E-1,-7.053631E-2,1.05606735E-1,4.87504E-2,-6.9873564E-2,6.184061E-2,1.0371345E-1,2.892388E-1,1.0701231E-1,1.2096924E-2,-1.355948E-2,-7.24495E-2,-7.001398E-2,9.316592E-2,1.9296889E-1,1.0997019E-1,1.11481875E-1,1.7046292E-1,1.01945646E-1,7.642746E-2,5.488507E-2,5.7273794E-2,1.1180646E-1,1.3521965E-2,3.905473E-2,2.055736E-1,4.0681325E-2,5.6307167E-2,1.2384761E-1,3.7966233E-2,1.1397785E-1,4.714687E-2,-5.4700673E-2,1.01081E-1,1.0928926E-2,5.6486495E-2,1.8635418E-1,9.101757E-2,6.259136E-2,1.0990992E-1,5.6637E-2,1.55706005E-2,-2.2778021E-2,5.6199487E-2,2.7717605E-2,-6.0704954E-2,-5.4692227E-2,-1.8277436E-2,-6.2325496E-2,1.3491902E-2,1.1280306E-2,-6.1091382E-2,8.132189E-3,5.6154665E-2,-3.0379584E-2,4.4741105E-2,4.8899557E-2,1.2943176E-2,-6.976145E-2,-1.2994068E-2,-3.0484546E-2,3.8423073E-2],"split_indices":[9747,6028,8394,0,3383,3383,4233,8098,0,5606,7600,8098,3189,9415,0,0,3968,0,9561,7113,3108,0,8625,0,8098,0,4379,1077,0,8098,0,0,4233,9814,1384,5685,0,0,0,0,8098,1168,4182,2016,3383,1104,2624,0,4814,9399,0,8394,8525,0,4286,4942,0,4824,0,0,5685,0,0,6504,8098,6942,4906,0,0,0,0,0,0,0,0,0,0,0,0,0,0,0,0,0,0,0,0,0,0],"split_type":[0,0,0,0,0,0,0,0,0,0,0,0,0,0,0,0,0,0,0,0,0,0,0,0,0,0,0,0,0,0,0,0,0,0,0,0,0,0,0,0,0,0,0,0,0,0,0,0,0,0,0,0,0,0,0,0,0,0,0,0,0,0,0,0,0,0,0,0,0,0,0,0,0,0,0,0,0,0,0,0,0,0,0,0,0,0,0,0,0],"sum_hessian":[4.553143E3,1.4942017E3,3.0589417E3,1.3046101E2,1.3637406E3,6.265259E2,2.4324158E3,1.3449369E3,1.8803705E1,3.2606163E1,5.9391974E2,3.4998233E2,2.0824333E3,1.3422991E3,2.6378949E0,1.1984911E0,3.1407673E1,2.3797241E1,5.701225E2,8.246985E1,2.6751248E2,1.3345844E2,1.948975E3,1.2042475E0,1.3410947E3,1.9579427E0,2.9449732E1,5.467069E2,2.3415583E1,7.543647E1,7.0333824E0,1.9146893E1,2.4836559E2,3.57554E2,1.591421E3,1.339807E3,1.2877989E0,1.212988E0,2.8236744E1,1.9975405E1,5.267315E2,3.6758755E1,3.867771E1,1.2291987E1,2.360736E2,6.249728E1,2.9505673E2,2.9356482E1,1.5620645E3,1.3384352E3,1.3717345E0,5.0918262E2,1.7548864E1,1.4917219E0,3.5267033E1,3.746026E1,1.2174549E0,1.1094377E1,1.1976112E0,1.1011993E0,2.349724E2,1.1569291E0,6.134035E1,2.8993597E2,5.1207485E0,1.3147144E3,2.4735017E2,1.3369553E3,1.4798887E0,7.949647E0,5.0123297E2,1.7286454E0,1.5820219E1,9.859156E0,2.5407877E1,3.575767E1,1.7025864E0,1.2431521E0,9.851224E0,1.0574425E0,2.3391495E2,2.8624393E2,3.692043E0,3.8858833E0,1.2348651E0,1.261871E3,5.2843357E1,2.4040434E2,6.9458365E0],"tree_param":{"num_deleted":"0","num_feature":"10000","num_nodes":"89","size_leaf_vector":"1"}},{"base_weights":[7.637976E-3,1.0807348E0,-2.8738487E-1,1.1215955E0,-6.7064576E-2,6.945803E-1,-5.772043E-1,1.1249967E0,-3.215394E-2,1.1218692E0,2.553249E-1,-7.546256E-1,5.612888E-2,1.2716762E-2,5.629141E-2,1.1252702E0,1.655008E-3,-1.5554981E-1,5.591752E-2,-8.577966E-1,5.5954445E-2,5.6343574E-2,1.2943539E-2,4.0568376E-1,-7.06655E-2,-9.659595E-1,1.1000446E0,5.5695545E-2,-1.3345866E-1,5.6064393E-2,-1.0465033E0,1.1059123E0,1.4412477E-2,5.542028E-2,-1.019132E0,1.0012968E0,-1.098149E0,1.1118909E0,1.5583589E-2,6.0949465E-3,-5.6737483E-2,-3.6719896E-2,5.248329E-2,-2.7887395E-2,-6.180498E-2,1.9840734E-2,5.5920213E-2],"categories":[],"categories_nodes":[],"categories_segments":[],"categories_sizes":[],"default_left":[0,1,0,1,0,0,1,0,0,1,1,1,0,0,0,1,0,0,0,1,0,0,0,0,0,0,1,0,0,0,0,1,0,0,0,0,0,0,0,0,0,0,0,0,0,0,0],"id":18,"left_children":[1,3,5,7,-1,9,11,13,-1,15,17,19,-1,-1,-1,21,-1,23,-1,25,-1,-1,-1,27,-1,29,31,-1,33,-1,35,37,-1,-1,39,41,43,45,-1,-1,-1,-1,-1,-1,-1,-1,-1],"loss_changes":[1.4050225E3,9.6216064E1,9.910724E2,6.375244E0,0E0,1.4868637E2,8.115764E2,3.942871E-1,0E0,1.4515686E0,1.3941475E2,4.7164075E2,0E0,0E0,0E0,2.642212E-1,0E0,1.8897905E2,0E0,4.898833E2,0E0,0E0,0E0,7.0913864E1,0E0,3.6900732E2,2.591095E-1,0E0,1.1784793E2,0E0,2.2395874E2,2.237091E-1,0E0,0E0,8.378708E0,5.166691E0,1.5257202E2,1.09558105E-1,0E0,0E0,0E0,0E0,0E0,0E0,0E0,0E0,0E0],"parents":[2147483647,0,0,1,1,2,2,3,3,5,5,6,6,7,7,9,9,10,10,11,11,15,15,17,17,19,19,23,23,25,25,26,26,28,28,30,30,31,31,34,34,35,35,36,36,37,37],"right_children":[2,4,6,8,-1,10,12,14,-1,16,18,20,-1,-1,-1,22,-1,24,-1,26,-1,-1,-1,28,-1,30,32,-1,34,-1,36,38,-1,-1,40,42,44,46,-1,-1,-1,-1,-1,-1,-1,-1,-1],"split_conditions":[1.00628056E-1,1.5100463E-1,1.0089637E-1,9.774533E-2,-6.7064576E-2,1.3847183E-1,1.3851832E-1,7.497388E-2,-3.215394E-2,1.0988333E-1,1.8557541E-1,1.4249887E-1,5.612888E-2,1.2716762E-2,5.629141E-2,1.1087783E-1,1.655008E-3,8.124559E-2,5.591752E-2,6.693756E-2,5.5954445E-2,5.6343574E-2,1.2943539E-2,9.310571E-2,-7.06655E-2,2.5598013E-1,5.7799593E-2,5.5695545E-2,3.1891662E-1,5.6064393E-2,6.848674E-2,1.19426385E-1,1.4412477E-2,5.542028E-2,7.038657E-2,4.565023E-2,1.5910524E-1,1.0671605E-1,1.5583589E-2,6.0949465E-3,-5.6737483E-2,-3.6719896E-2,5.248329E-2,-2.7887395E-2,-6.180498E-2,1.9840734E-2,5.5920213E-2],"split_indices":[6514,3383,8394,8098,0,9814,3220,9561,0,5236,3189,3189,0,0,0,1369,0,8394,0,4567,0,0,0,4567,0,1160,8625,0,2624,0,9814,4233,0,0,5526,9814,8098,1369,0,0,0,0,0,0,0,0,0],"split_type":[0,0,0,0,0,0,0,0,0,0,0,0,0,0,0,0,0,0,0,0,0,0,0,0,0,0,0,0,0,0,0,0,0,0,0,0,0,0,0,0,0,0,0,0,0,0,0],"sum_hessian":[4.436033E3,9.560167E2,3.4800164E3,9.406839E2,1.5332836E1,7.92722E2,2.6872944E3,9.3923615E2,1.4477177E0,4.0104678E2,3.9167517E2,2.433812E3,2.5348254E2,1.1889181E0,9.3804724E2,3.9976447E2,1.2823175E0,2.659024E2,1.2577276E2,2.3073083E3,1.2650345E2,3.9872696E2,1.03751E0,1.8432913E2,8.157327E1,2.1869924E3,1.2031598E2,7.9210594E1,1.05118546E2,8.077711E1,2.1062153E3,1.1909286E2,1.2231246E0,4.3655144E1,6.14634E1,5.1359894E1,2.0548555E3,1.1780614E2,1.2867212E0,5.649927E0,5.5813473E1,1.0079237E0,5.035197E1,4.1890414E2,1.6359513E3,1.622302E0,1.1618383E2],"tree_param":{"num_deleted":"0","num_feature":"10000","num_nodes":"47","size_leaf_vector":"1"}},{"base_weights":[8.6444095E-3,8.565668E-1,-3.9685595E-1,1.0729167E0,-6.869256E-2,6.19717E-1,-6.527637E-1,1.1071455E0,-6.655662E-2,-1.1515749E0,7.214798E-1,4.4696292E-1,-8.32538E-1,-6.683319E-2,1.1120331E0,2.8407756E-2,-1.2386043E0,8.12589E-1,-1.3124157E0,8.200532E-1,-6.529525E-1,5.5591464E-2,-9.595563E-1,1.1161095E0,-5.225987E-2,8.822332E-3,-1.3271296E0,-6.738392E-2,9.076985E-1,-1.9938193E-2,-6.758064E-2,-6.6731654E-2,9.8892325E-1,-8.012193E-1,5.0689097E-2,-2.5199372E-1,-1.1170715E0,1.1175227E0,9.636981E-3,-5.799886E-3,-1.3761163E0,-6.7274034E-2,1.0094581E0,-5.0469744E-1,1.0833495E0,-8.7810785E-1,4.465988E-1,5.502156E-2,-3.8983244E-1,5.4070532E-2,-1.1578087E0,5.591184E-2,7.727952E-3,-1.2562026E-2,-7.088448E-2,-6.8606246E-1,1.0895126E0,-7.1954983E-1,3.648611E-1,1.0983529E0,5.285754E-4,3.5321783E-2,-9.322048E-1,6.338624E-2,-3.774018E-2,-5.4972345E-1,1.0895948E0,-5.029643E-1,-1.289184E0,-4.2558417E-2,2.916484E-2,5.5657376E-2,-6.0932726E-2,-4.6461873E-2,3.0417398E-2,5.536396E-2,-2.7225588E-2,8.693488E-3,5.511942E-2,3.2914255E-2,-2.9931862E-2,2.8588204E-2,-4.9431525E-2,5.3986616E-2,-2.8474433E-2,1.237711E-2,5.5657543E-2,-2.7194649E-2,4.3600768E-2,-6.6733964E-2,-1.7426997E-2],"categories":[],"categories_nodes":[],"categories_segments":[],"categories_sizes":[],"default_left":[0,1,0,1,0,0,0,0,0,0,1,1,0,0,1,0,0,0,0,0,1,0,0,1,0,0,0,0,0,0,0,0,0,1,0,0,0,1,0,0,0,0,0,1,1,0,0,0,1,0,0,0,0,0,0,1,1,1,0,0,0,0,0,0,0,0,0,1,1,0,0,0,0,0,0,0,0,0,0,0,0,0,0,0,0,0,0,0,0,0,0],"id":19,"left_children":[1,3,5,7,-1,9,11,13,-1,15,17,19,21,-1,23,-1,25,27,29,31,33,-1,35,37,-1,-1,39,-1,41,-1,-1,-1,43,45,-1,47,49,51,-1,-1,53,-1,55,57,59,61,63,-1,65,-1,67,-1,-1,-1,-1,69,71,73,75,77,79,-1,81,-1,-1,83,85,87,89,-1,-1,-1,-1,-1,-1,-1,-1,-1,-1,-1,-1,-1,-1,-1,-1,-1,-1,-1,-1,-1,-1],"loss_changes":[1.4736604E3,6.705657E2,7.5468494E2,1.05529175E2,0E0,1.06027954E2,4.5841052E2,1.6384888E1,0E0,5.5069504E0,1.0345206E2,1.3438501E2,4.9294128E2,0E0,1.211792E1,0E0,4.1001053E0,1.1000488E2,3.230934E-1,9.010181E1,2.1365509E1,0E0,2.0813843E2,1.4073486E0,0E0,0E0,1.5705185E0,0E0,1.1776932E2,0E0,0E0,0E0,3.2539642E1,7.773529E0,0E0,6.414482E1,1.3821155E2,6.8066406E-1,0E0,0E0,9.502411E-1,0E0,6.676196E1,2.9099178E0,3.4707031E0,6.899452E0,6.0159926E0,0E0,7.4145676E1,0E0,1.2856165E2,0E0,0E0,0E0,0E0,5.220707E0,2.671344E1,3.8228645E0,2.9463646E0,5.94574E-1,1.9392041E0,0E0,6.576435E0,0E0,0E0,9.673225E0,3.3261108E-1,1.46899185E1,5.3041748E1,0E0,0E0,0E0,0E0,0E0,0E0,0E0,0E0,0E0,0E0,0E0,0E0,0E0,0E0,0E0,0E0,0E0,0E0,0E0,0E0,0E0,0E0],"parents":[2147483647,0,0,1,1,2,2,3,3,5,5,6,6,7,7,9,9,10,10,11,11,12,12,14,14,16,16,17,17,18,18,19,19,20,20,22,22,23,23,26,26,28,28,32,32,33,33,35,35,36,36,37,37,40,40,42,42,43,43,44,44,45,45,46,46,48,48,50,50,55,55,56,56,57,57,58,58,59,59,60,60,62,62,65,65,66,66,67,67,68,68],"right_children":[2,4,6,8,-1,10,12,14,-1,16,18,20,22,-1,24,-1,26,28,30,32,34,-1,36,38,-1,-1,40,-1,42,-1,-1,-1,44,46,-1,48,50,52,-1,-1,54,-1,56,58,60,62,64,-1,66,-1,68,-1,-1,-1,-1,70,72,74,76,78,80,-1,82,-1,-1,84,86,88,90,-1,-1,-1,-1,-1,-1,-1,-1,-1,-1,-1,-1,-1,-1,-1,-1,-1,-1,-1,-1,-1,-1],"split_conditions":[7.861716E-2,1.422596E-1,1.0089637E-1,1.0657457E-1,-6.869256E-2,2.2383459E-1,1.4048773E-1,2.91338E-1,-6.655662E-2,1.1736764E-1,9.201446E-2,4.7294274E-2,1.8557541E-1,-6.683319E-2,1.2734549E-1,2.8407756E-2,7.823911E-2,2.1652482E-1,8.9796856E-2,2.555813E-1,1.0632402E-1,5.5591464E-2,8.291564E-2,9.1682024E-2,-5.225987E-2,8.822332E-3,7.3559515E-2,-6.738392E-2,4.6278054E-1,-1.9938193E-2,-6.758064E-2,-6.6731654E-2,6.184061E-2,1.2949878E-1,5.0689097E-2,1.1986009E-1,2.892388E-1,1.1809653E-1,9.636981E-3,-5.799886E-3,5.6307167E-2,-6.7274034E-2,4.357221E-2,4.841904E-2,5.4471053E-2,1.718265E-1,8.897141E-2,5.502156E-2,8.154921E-2,5.4070532E-2,1.6007678E-1,5.591184E-2,7.727952E-3,-1.2562026E-2,-7.088448E-2,1.18949E-1,1.0885139E-1,1.02362715E-1,5.7931796E-2,7.298574E-2,7.424141E-2,3.5321783E-2,9.590141E-2,6.338624E-2,-3.774018E-2,2.505361E-1,5.249277E-2,1.0990992E-1,6.259136E-2,-4.2558417E-2,2.916484E-2,5.5657376E-2,-6.0932726E-2,-4.6461873E-2,3.0417398E-2,5.536396E-2,-2.7225588E-2,8.693488E-3,5.511942E-2,3.2914255E-2,-2.9931862E-2,2.8588204E-2,-4.9431525E-2,5.3986616E-2,-2.8474433E-2,1.237711E-2,5.5657543E-2,-2.7194649E-2,4.3600768E-2,-6.6733964E-2,-1.7426997E-2],"split_indices":[9747,3706,8394,3383,0,3383,4233,9415,0,5606,1134,8098,3189,0,8098,0,5685,7783,8098,3108,1110,0,8625,8072,0,0,1369,0,1077,0,0,0,4233,4814,0,1160,1384,8615,0,0,4286,0,8394,3968,8625,3854,8625,0,2624,0,4814,0,0,0,0,5082,8098,2016,3968,3968,1134,0,5606,0,0,1042,8625,4906,6942,0,0,0,0,0,0,0,0,0,0,0,0,0,0,0,0,0,0,0,0,0,0],"split_type":[0,0,0,0,0,0,0,0,0,0,0,0,0,0,0,0,0,0,0,0,0,0,0,0,0,0,0,0,0,0,0,0,0,0,0,0,0,0,0,0,0,0,0,0,0,0,0,0,0,0,0,0,0,0,0,0,0,0,0,0,0,0,0,0,0,0,0,0,0,0,0,0,0,0,0,0,0,0,0,0,0,0,0,0,0,0,0,0,0,0,0],"sum_hessian":[4.2839907E3,1.3855729E3,2.8984177E3,1.2635299E3,1.22043076E2,5.826129E2,2.3158047E3,1.2463242E3,1.7205696E1,3.1092775E1,5.5152014E2,3.2516974E2,1.9906349E3,1.9437587E0,1.2443804E3,1.2314098E0,2.9861364E1,5.2844855E2,2.3071606E1,2.429991E2,8.217064E1,1.2159119E2,1.8690437E3,1.2425151E3,1.865276E0,1.6996577E0,2.8161707E1,2.1729368E1,5.0671918E2,1.4087229E0,2.1662882E1,1.7158825E1,2.2584029E2,7.593501E1,6.2356243E0,3.4079282E2,1.5282509E3,1.2404064E3,2.1087112E0,1.2257049E0,2.6936003E1,2.1367767E1,4.853514E2,1.3170253E1,2.1267003E2,7.180669E1,4.1283283E0,3.0874977E1,3.0991785E2,2.7338089E1,1.5009128E3,1.2393262E3,1.0803092E0,1.2110513E0,2.572495E1,2.1541527E1,4.638099E2,1.0699186E1,2.471067E0,2.0974942E2,2.920603E0,1.9724765E0,6.9834206E1,2.4194772E0,1.7088511E0,2.8025714E2,2.9660723E1,2.5160545E2,1.2493074E3,1.9353643E1,2.1878831E0,4.5962125E2,4.1886373E0,9.499366E0,1.1998203E0,1.2406017E0,1.2304652E0,1.1032004E0,2.0864622E2,1.3451955E0,1.5754076E0,2.195025E0,6.763918E1,2.7160597E0,2.7754108E2,1.1203514E0,2.854037E1,2.4491943E2,6.6860137E0,1.1912712E3,5.803608E1],"tree_param":{"num_deleted":"0","num_feature":"10000","num_nodes":"91","size_leaf_vector":"1"}},{"base_weights":[1.8071536E-2,8.521669E-1,-3.7717837E-1,-6.742625E-2,1.0713078E0,6.267876E-1,-6.274625E-1,1.0994666E0,-6.450209E-2,-1.0987036E0,7.3129207E-1,4.602093E-1,-8.0384207E-1,-6.7378305E-2,1.1053545E0,-2.3953019E-1,-6.738832E-2,-6.58928E-2,8.165777E-1,-5.413688E-1,7.495074E-1,5.5232625E-2,-9.2267823E-1,-5.742694E-2,1.1085868E0,-5.7150495E-1,2.4240535E-2,9.0759367E-1,-6.604662E-2,8.1584185E-1,-6.0701525E-1,-6.564292E-2,9.162193E-1,-9.883525E-1,5.5126578E-2,1.110079E0,-7.2944807E-3,-8.988847E-1,2.3113836E-2,1.0034493E0,-6.593614E-2,-5.2325665E-3,6.589835E-2,4.0107705E-2,-6.6673803E-1,1.0588291E0,-1.1974926E0,-3.8912034E-1,-1.1192969E0,1.1111655E0,3.8703382E-1,-5.398751E-2,-8.335335E-3,-5.8891296E-1,1.0811592E0,6.569537E-1,-7.3248255E-1,1.0899839E0,-5.3068526E-2,-7.294696E-2,