{"learner":{"attributes":{"scikit_learn":"{\"_estimator_type\": \"classifier\"}"},"feature_names":[],"feature_types":[],"gradient_booster":{"model":{"gbtree_model_param":{"num_parallel_tree":"1","num_trees":"500"},"iteration_indptr":[0,1,2,3,4,5,6,7,8,9,10,11,12,13,14,15,16,17,18,19,20,21,22,23,24,25,26,27,28,29,30,31,32,33,34,35,36,37,38,39,40,41,42,43,44,45,46,47,48,49,50,51,52,53,54,55,56,57,58,59,60,61,62,63,64,65,66,67,68,69,70,71,72,73,74,75,76,77,78,79,80,81,82,83,84,85,86,87,88,89,90,91,92,93,94,95,96,97,98,99,100,101,102,103,104,105,106,107,108,109,110,111,112,113,114,115,116,117,118,119,120,121,122,123,124,125,126,127,128,129,130,131,132,133,134,135,136,137,138,139,140,141,142,143,144,145,146,147,148,149,150,151,152,153,154,155,156,157,158,159,160,161,162,163,164,165,166,167,168,169,170,171,172,173,174,175,176,177,178,179,180,181,182,183,184,185,186,187,188,189,190,191,192,193,194,195,196,197,198,199,200,201,202,203,204,205,206,207,208,209,210,211,212,213,214,215,216,217,218,219,220,221,222,223,224,225,226,227,228,229,230,231,232,233,234,235,236,237,238,239,240,241,242,243,244,245,246,247,248,249,250,251,252,253,254,255,256,257,258,259,260,261,262,263,264,265,266,267,268,269,270,271,272,273,274,275,276,277,278,279,280,281,282,283,284,285,286,287,288,289,290,291,292,293,294,295,296,297,298,299,300,301,302,303,304,305,306,307,308,309,310,311,312,313,314,315,316,317,318,319,320,321,322,323,324,325,326,327,328,329,330,331,332,333,334,335,336,337,338,339,340,341,342,343,344,345,346,347,348,349,350,351,352,353,354,355,356,357,358,359,360,361,362,363,364,365,366,367,368,369,370,371,372,373,374,375,376,377,378,379,380,381,382,383,384,385,386,387,388,389,390,391,392,393,394,395,396,397,398,399,400,401,402,403,404,405,406,407,408,409,410,411,412,413,414,415,416,417,418,419,420,421,422,423,424,425,426,427,428,429,430,431,432,433,434,435,436,437,438,439,440,441,442,443,444,445,446,447,448,449,450,451,452,453,454,455,456,457,458,459,460,461,462,463,464,465,466,467,468,469,470,471,472,473,474,475,476,477,478,479,480,481,482,483,484,485,486,487,488,489,490,491,492,493,494,495,496,497,498,499,500],"tree_info":[0,0,0,0,0,0,0,0,0,0,0,0,0,0,0,0,0,0,0,0,0,0,0,0,0,0,0,0,0,0,0,0,0,0,0,0,0,0,0,0,0,0,0,0,0,0,0,0,0,0,0,0,0,0,0,0,0,0,0,0,0,0,0,0,0,0,0,0,0,0,0,0,0,0,0,0,0,0,0,0,0,0,0,0,0,0,0,0,0,0,0,0,0,0,0,0,0,0,0,0,0,0,0,0,0,0,0,0,0,0,0,0,0,0,0,0,0,0,0,0,0,0,0,0,0,0,0,0,0,0,0,0,0,0,0,0,0,0,0,0,0,0,0,0,0,0,0,0,0,0,0,0,0,0,0,0,0,0,0,0,0,0,0,0,0,0,0,0,0,0,0,0,0,0,0,0,0,0,0,0,0,0,0,0,0,0,0,0,0,0,0,0,0,0,0,0,0,0,0,0,0,0,0,0,0,0,0,0,0,0,0,0,0,0,0,0,0,0,0,0,0,0,0,0,0,0,0,0,0,0,0,0,0,0,0,0,0,0,0,0,0,0,0,0,0,0,0,0,0,0,0,0,0,0,0,0,0,0,0,0,0,0,0,0,0,0,0,0,0,0,0,0,0,0,0,0,0,0,0,0,0,0,0,0,0,0,0,0,0,0,0,0,0,0,0,0,0,0,0,0,0,0,0,0,0,0,0,0,0,0,0,0,0,0,0,0,0,0,0,0,0,0,0,0,0,0,0,0,0,0,0,0,0,0,0,0,0,0,0,0,0,0,0,0,0,0,0,0,0,0,0,0,0,0,0,0,0,0,0,0,0,0,0,0,0,0,0,0,0,0,0,0,0,0,0,0,0,0,0,0,0,0,0,0,0,0,0,0,0,0,0,0,0,0,0,0,0,0,0,0,0,0,0,0,0,0,0,0,0,0,0,0,0,0,0,0,0,0,0,0,0,0,0,0,0,0,0,0,0,0,0,0,0,0,0,0,0,0,0,0,0,0,0,0,0,0,0,0,0,0,0,0,0,0,0,0,0,0,0,0,0,0,0,0,0,0,0,0,0,0,0,0,0,0,0,0,0,0,0,0,0,0,0,0,0,0,0,0,0,0,0,0,0,0,0,0,0,0,0,0],"trees":[{"base_weights":[-2.0005002E-3,1.8687311E0,-1.9232183E0,-9.920792E-2,1.9921069E0,9.79798E-2,-1.9971598E0,-8.7878786E-2,9.997449E-2,6.923077E-2,-9.997417E-2],"categories":[],"categories_nodes":[],"categories_segments":[],"categories_sizes":[],"default_left":[0,0,0,0,0,0,0,0,0,0,0],"id":0,"left_children":[1,3,5,-1,7,-1,9,-1,-1,-1,-1],"loss_changes":[2.874907E4,1.9304404E3,1.1368867E3,0E0,1.1224121E2,0E0,3.3200195E1,0E0,0E0,0E0,0E0],"parents":[2147483647,0,0,1,1,2,2,4,4,6,6],"right_children":[2,4,6,-1,8,-1,10,-1,-1,-1,-1],"split_conditions":[-2.5509638E-1,3.0856103E-1,-8.9201495E-2,-9.920792E-2,2.7207673E-1,9.79798E-2,-2.6634422E-1,-8.7878786E-2,9.997449E-2,6.923077E-2,-9.997417E-2],"split_indices":[97,25,80,0,53,0,58,0,0,0,0],"split_type":[0,0,0,0,0,0,0,0,0,0,0],"sum_hessian":[7.997E3,4.05175E3,3.94525E3,1.2525E2,3.9265E3,7.325E1,3.872E3,7.25E0,3.91925E3,2.25E0,3.86975E3],"tree_param":{"num_deleted":"0","num_feature":"102","num_nodes":"11","size_leaf_vector":"1"}},{"base_weights":[-6.0470463E-3,1.7785741E0,-1.8326627E0,-9.4527155E-2,1.8966146E0,9.336474E-2,-1.9024006E0,9.521874E-2,-8.5131586E-2,6.4411305E-2,-9.5218554E-2],"categories":[],"categories_nodes":[],"categories_segments":[],"categories_sizes":[],"default_left":[0,0,0,0,0,0,0,0,0,0,0],"id":1,"left_children":[1,3,5,-1,7,-1,9,-1,-1,-1,-1],"loss_changes":[2.6143627E4,1.7605225E3,1.026206E3,0E0,1.1303027E2,0E0,2.6911133E1,0E0,0E0,0E0,0E0],"parents":[2147483647,0,0,1,1,2,2,4,4,6,6],"right_children":[2,4,6,-1,8,-1,10,-1,-1,-1,-1],"split_conditions":[-2.5509638E-1,2.963968E-1,-8.9201495E-2,-9.4527155E-2,-1.560284E-1,9.336474E-2,-2.6634422E-1,9.521874E-2,-8.5131586E-2,6.4411305E-2,-9.5218554E-2],"split_indices":[97,25,80,0,78,0,58,0,0,0,0],"split_type":[0,0,0,0,0,0,0,0,0,0,0],"sum_hessian":[8.017968E3,4.055617E3,3.9623508E3,1.2593986E2,3.9296772E3,7.282508E1,3.8895256E3,3.9216926E3,7.984575E0,1.9976054E0,3.887528E3],"tree_param":{"num_deleted":"0","num_feature":"102","num_nodes":"11","size_leaf_vector":"1"}},{"base_weights":[2.5613562E-3,1.7004701E0,-1.7492771E0,-9.0490304E-2,1.8138266E0,9.009991E-2,-1.8197976E0,-8.278869E-2,9.111039E-2,6.687539E-2,-9.111E-2],"categories":[],"categories_nodes":[],"categories_segments":[],"categories_sizes":[],"default_left":[0,0,0,0,0,0,0,0,0,0,0],"id":2,"left_children":[1,3,5,-1,7,-1,9,-1,-1,-1,-1],"loss_changes":[2.360538E4,1.6068857E3,9.814844E2,0E0,1.1655762E2,0E0,3.1488281E1,0E0,0E0,0E0,0E0],"parents":[2147483647,0,0,1,1,2,2,4,4,6,6],"right_children":[2,4,6,-1,8,-1,10,-1,-1,-1,-1],"split_conditions":[-2.5509638E-1,3.0856103E-1,-8.9201495E-2,-9.0490304E-2,2.7207673E-1,9.009991E-2,-5.4160386E-1,-8.278869E-2,9.111039E-2,6.687539E-2,-9.111E-2],"split_indices":[97,25,80,0,53,0,11,0,0,0,0],"split_type":[0,0,0,0,0,0,0,0,0,0,0],"sum_hessian":[7.9340176E3,4.0290398E3,3.9049778E3,1.25570404E2,3.9034692E3,7.5556305E1,3.8294214E3,8.932986E0,3.8945364E3,2.4888704E0,3.8269326E3],"tree_param":{"num_deleted":"0","num_feature":"102","num_nodes":"11","size_leaf_vector":"1"}},{"base_weights":[-9.52927E-3,1.6279981E0,-1.6836599E0,-8.696642E-2,1.7435678E0,-1.7497056E0,1.3080115E0,-7.842862E-2,8.752885E-2,2.9016992E-2,-8.7530546E-2,-7.979541E-2,8.6645745E-2],"categories":[],"categories_nodes":[],"categories_segments":[],"categories_sizes":[],"default_left":[0,0,0,0,0,0,0,0,0,0,0,0,0],"id":3,"left_children":[1,3,5,-1,7,9,11,-1,-1,-1,-1,-1,-1],"loss_changes":[2.1504736E4,1.5462578E3,7.686914E2,0E0,9.176172E1,9.021484E0,1.0684773E2,0E0,0E0,0E0,0E0,0E0,0E0],"parents":[2147483647,0,0,1,1,2,2,4,4,5,5,6,6],"right_children":[2,4,6,-1,8,10,12,-1,-1,-1,-1,-1,-1],"split_conditions":[-2.5509638E-1,2.963968E-1,3.5227937E-1,-8.696642E-2,2.7207673E-1,-4.896182E-1,-9.345694E-2,-7.842862E-2,8.752885E-2,2.9016992E-2,-8.7530546E-2,-7.979541E-2,8.6645745E-2],"split_indices":[97,25,77,0,53,11,4,0,0,0,0,0,0],"split_type":[0,0,0,0,0,0,0,0,0,0,0,0,0],"sum_hessian":[7.8423364E3,3.9645222E3,3.8778142E3,1.3108473E2,3.8334373E3,3.794461E3,8.3353195E1,7.624593E0,3.8258127E3,1.2254019E0,3.7932356E3,1.0287737E1,7.306546E1],"tree_param":{"num_deleted":"0","num_feature":"102","num_nodes":"13","size_leaf_vector":"1"}},{"base_weights":[-1.5907391E-4,1.5750387E0,-1.6221632E0,-8.381265E-2,1.6804619E0,8.348145E-2,-1.685404E0,8.438236E-2,-7.628699E-2,6.214533E-2,-8.4382795E-2],"categories":[],"categories_nodes":[],"categories_segments":[],"categories_sizes":[],"default_left":[0,0,0,0,0,0,0,0,0,0,0],"id":4,"left_children":[1,3,5,-1,7,-1,9,-1,-1,-1,-1],"loss_changes":[1.9759496E4,1.3476338E3,7.960137E2,0E0,9.0134766E1,0E0,2.6754883E1,0E0,0E0,0E0,0E0],"parents":[2147483647,0,0,1,1,2,2,4,4,6,6],"right_children":[2,4,6,-1,8,-1,10,-1,-1,-1,-1],"split_conditions":[-2.5509638E-1,2.963968E-1,-8.9201495E-2,-8.381265E-2,-1.560284E-1,8.348145E-2,-5.4160386E-1,8.438236E-2,-7.628699E-2,6.214533E-2,-8.4382795E-2],"split_indices":[97,25,80,0,78,0,11,0,0,0,0],"split_type":[0,0,0,0,0,0,0,0,0,0,0],"sum_hessian":[7.731727E3,3.9224736E3,3.8092532E3,1.2272391E2,3.7997498E3,7.132371E1,3.7379294E3,3.7917258E3,8.023825E0,2.449161E0,3.7354802E3],"tree_param":{"num_deleted":"0","num_feature":"102","num_nodes":"11","size_leaf_vector":"1"}},{"base_weights":[4.8708026E-3,1.5211617E0,-1.5722265E0,-8.110827E-2,1.6244146E0,7.995614E-2,-1.6304351E0,-7.453046E-2,8.1598826E-2,5.365435E-2,-8.159899E-2],"categories":[],"categories_nodes":[],"categories_segments":[],"categories_sizes":[],"default_left":[0,0,0,0,0,0,0,0,0,0,0],"id":5,"left_children":[1,3,5,-1,7,-1,9,-1,-1,-1,-1],"loss_changes":[1.8219096E4,1.2633066E3,6.91999E2,0E0,9.103027E1,0E0,1.7067383E1,0E0,0E0,0E0,0E0],"parents":[2147483647,0,0,1,1,2,2,4,4,6,6],"right_children":[2,4,6,-1,8,-1,10,-1,-1,-1,-1],"split_conditions":[-2.5509638E-1,3.0856103E-1,-8.9201495E-2,-8.110827E-2,2.7207673E-1,7.995614E-2,-6.263983E-1,-7.453046E-2,8.1598826E-2,5.365435E-2,-8.159899E-2],"split_indices":[97,25,80,0,53,0,60,0,0,0,0],"split_type":[0,0,0,0,0,0,0,0,0,0,0],"sum_hessian":[7.6167876E3,3.8832732E3,3.7335144E3,1.23034225E2,3.7602388E3,6.681467E1,3.6666997E3,8.631226E0,3.7516077E3,1.6976849E0,3.665002E3],"tree_param":{"num_deleted":"0","num_feature":"102","num_nodes":"11","size_leaf_vector":"1"}},{"base_weights":[-1.5122681E-3,1.4739345E0,-1.5230021E0,-7.864048E-2,1.5749748E0,7.823115E-2,-1.5802507E0,-7.2271645E-2,7.912109E-2,5.8891118E-2,-7.912135E-2],"categories":[],"categories_nodes":[],"categories_segments":[],"categories_sizes":[],"default_left":[0,0,0,0,0,0,0,0,0,0,0],"id":6,"left_children":[1,3,5,-1,7,-1,9,-1,-1,-1,-1],"loss_changes":[1.6655717E4,1.1620352E3,6.4813477E2,0E0,8.430469E1,0E0,2.3393555E1,0E0,0E0,0E0,0E0],"parents":[2147483647,0,0,1,1,2,2,4,4,6,6],"right_children":[2,4,6,-1,8,-1,10,-1,-1,-1,-1],"split_conditions":[-2.5509638E-1,3.0856103E-1,-8.9201495E-2,-7.864048E-2,2.7207673E-1,7.823115E-2,-5.4160386E-1,-7.2271645E-2,7.912109E-2,5.8891118E-2,-7.912135E-2],"split_indices":[97,25,80,0,53,0,11,0,0,0,0],"split_type":[0,0,0,0,0,0,0,0,0,0,0],"sum_hessian":[7.417433E3,3.765711E3,3.6517222E3,1.204074E2,3.6453037E3,6.5995766E1,3.5857266E3,8.49073E0,3.636813E3,2.4011977E0,3.5833252E3],"tree_param":{"num_deleted":"0","num_feature":"102","num_nodes":"11","size_leaf_vector":"1"}},{"base_weights":[-1.2710082E-4,1.433368E0,-1.4797763E0,-7.642779E-2,1.5308456E0,-1.5369157E0,1.1333405E0,-7.0213996E-2,7.690435E-2,4.5838427E-2,-7.690755E-2,-6.999637E-2,7.6121144E-2],"categories":[],"categories_nodes":[],"categories_segments":[],"categories_sizes":[],"default_left":[0,0,0,0,0,0,0,0,0,0,0,0,0],"id":7,"left_children":[1,3,5,-1,7,9,11,-1,-1,-1,-1,-1,-1],"loss_changes":[1.5444039E4,1.0701196E3,5.3671875E2,0E0,7.827051E1,1.2040039E1,7.8267944E1,0E0,0E0,0E0,0E0,0E0,0E0],"parents":[2147483647,0,0,1,1,2,2,4,4,5,5,6,6],"right_children":[2,4,6,-1,8,10,12,-1,-1,-1,-1,-1,-1],"split_conditions":[-2.5509638E-1,3.0856103E-1,3.5227937E-1,-7.642779E-2,2.7207673E-1,-7.00744E-1,-9.345694E-2,-7.0213996E-2,7.690435E-2,4.5838427E-2,-7.690755E-2,-6.999637E-2,7.6121144E-2],"split_indices":[97,25,77,0,53,11,4,0,0,0,0,0,0],"split_type":[0,0,0,0,0,0,0,0,0,0,0,0,0],"sum_hessian":[7.27925E3,3.6973047E3,3.5819453E3,1.1733454E2,3.5799702E3,3.5057002E3,7.6245155E1,8.3357935E0,3.5716345E3,1.3912492E0,3.5043088E3,9.805392E0,6.643976E1],"tree_param":{"num_deleted":"0","num_feature":"102","num_nodes":"13","size_leaf_vector":"1"}},{"base_weights":[-1.5925094E-3,1.3980788E0,-1.4399478E0,-7.4431606E-2,1.4923123E0,-1.4966599E0,1.126104E0,-6.687216E-2,7.491129E-2,-7.491433E-2,5.0125618E-2,-6.78797E-2,7.4203454E-2],"categories":[],"categories_nodes":[],"categories_segments":[],"categories_sizes":[],"default_left":[0,0,0,0,0,0,0,0,0,0,0,0,0],"id":8,"left_children":[1,3,5,-1,7,9,11,-1,-1,-1,-1,-1,-1],"loss_changes":[1.4316615E4,9.826294E2,5.120713E2,0E0,6.0414062E1,1.5453125E1,6.994592E1,0E0,0E0,0E0,0E0,0E0,0E0],"parents":[2147483647,0,0,1,1,2,2,4,4,5,5,6,6],"right_children":[2,4,6,-1,8,10,12,-1,-1,-1,-1,-1,-1],"split_conditions":[-2.5509638E-1,3.0856103E-1,3.5227937E-1,-7.4431606E-2,2.7207673E-1,3.2201985E-1,4.547341E-2,-6.687216E-2,7.491129E-2,-7.491433E-2,5.0125618E-2,-6.78797E-2,7.4203454E-2],"split_indices":[97,25,77,0,53,6,6,0,0,0,0,0,0],"split_type":[0,0,0,0,0,0,0,0,0,0,0,0,0],"sum_hessian":[7.109285E3,3.6031086E3,3.5061765E3,1.1343361E2,3.489675E3,3.43077E3,7.540639E1,6.8075237E0,3.4828674E3,3.4289387E3,1.8313557E0,9.147184E0,6.62592E1],"tree_param":{"num_deleted":"0","num_feature":"102","num_nodes":"13","size_leaf_vector":"1"}},{"base_weights":[-3.6600174E-3,1.3636242E0,-1.4092196E0,-7.263421E-2,1.456038E0,1.4294747E0,-1.4606253E0,-6.572252E-2,7.311173E-2,7.221224E-2,1.6656276E-2,4.980113E-2,-7.311299E-2],"categories":[],"categories_nodes":[],"categories_segments":[],"categories_sizes":[],"default_left":[0,0,0,0,0,0,0,0,0,0,0,0,0],"id":9,"left_children":[1,3,5,-1,7,9,11,-1,-1,-1,-1,-1,-1],"loss_changes":[1.3300917E4,9.1520703E2,5.0009668E2,0E0,6.0245117E1,5.1003265E-1,1.4916504E1,0E0,0E0,0E0,0E0,0E0,0E0],"parents":[2147483647,0,0,1,1,2,2,4,4,5,5,6,6],"right_children":[2,4,6,-1,8,10,12,-1,-1,-1,-1,-1,-1],"split_conditions":[-2.5509638E-1,3.0856103E-1,-8.9201495E-2,-7.263421E-2,2.6366845E-1,-2.3589706E-1,-5.4160386E-1,-6.572252E-2,7.311173E-2,7.221224E-2,1.6656276E-2,4.980113E-2,-7.311299E-2],"split_indices":[97,25,80,0,1,49,11,0,0,0,0,0,0],"split_type":[0,0,0,0,0,0,0,0,0,0,0,0,0],"sum_hessian":[6.919074E3,3.5073064E3,3.4117678E3,1.1096389E2,3.3963425E3,6.0207695E1,3.35156E3,7.108133E0,3.3892344E3,5.9094246E1,1.1134512E0,1.8237302E0,3.3497363E3],"tree_param":{"num_deleted":"0","num_feature":"102","num_nodes":"13","size_leaf_vector":"1"}},{"base_weights":[-2.9728445E-3,-1.3487089E0,1.3231965E0,-1.428778E0,1.3531165E0,1.4171976E0,-8.0611944E-1,3.9888322E-2,-7.149449E-2,7.074971E-2,-4.8458297E-2,7.148947E-2,-6.682865E-2,6.926174E-2,-7.086983E-2],"categories":[],"categories_nodes":[],"categories_segments":[],"categories_sizes":[],"default_left":[0,0,0,0,0,0,0,0,0,0,0,0,0,0,0],"id":10,"left_children":[1,3,5,7,9,11,13,-1,-1,-1,-1,-1,-1,-1,-1],"loss_changes":[1.2014653E4,7.24791E2,6.798208E2,9.175293E0,1.5264999E1,1.14524414E2,1.9484912E2,0E0,0E0,0E0,0E0,0E0,0E0,0E0,0E0],"parents":[2147483647,0,0,1,1,2,2,3,3,4,4,5,5,6,6],"right_children":[2,4,6,8,10,12,14,-1,-1,-1,-1,-1,-1,-1,-1],"split_conditions":[3.94312E-1,4.9261433E-1,-3.4947824E-3,1.564944E-1,6.270929E-1,-2.650105E-1,-2.4778644E-2,3.9888322E-2,-7.149449E-2,7.074971E-2,-4.8458297E-2,7.148947E-2,-6.682865E-2,6.926174E-2,-7.086983E-2],"split_indices":[25,53,100,0,0,11,2,0,0,0,0,0,0,0,0],"split_type":[0,0,0,0,0,0,0,0,0,0,0,0,0,0,0],"sum_hessian":[6.730128E3,3.3404128E3,3.389715E3,3.2447258E3,9.568696E1,3.2467195E3,1.4299562E2,1.2617297E0,3.243464E3,9.358408E1,2.102875E0,3.23242E3,1.429955E1,3.0912378E1,1.1208324E2],"tree_param":{"num_deleted":"0","num_feature":"102","num_nodes":"15","size_leaf_vector":"1"}},{"base_weights":[-5.8174296E-3,-1.3213512E0,1.2925979E0,6.923946E-2,-1.3952874E0,1.3883867E0,-8.172036E-1,5.9282638E-2,-7.000996E-2,7.000533E-2,-6.5136984E-2,6.774524E-2,-6.941413E-2],"categories":[],"categories_nodes":[],"categories_segments":[],"categories_sizes":[],"default_left":[0,0,0,0,0,0,0,0,0,0,0,0,0],"id":11,"left_children":[1,3,5,-1,7,9,11,-1,-1,-1,-1,-1,-1],"loss_changes":[1.1106247E4,6.4814453E2,6.624575E2,0E0,4.1520996E1,1.00561035E2,1.7895068E2,0E0,0E0,0E0,0E0,0E0,0E0],"parents":[2147483647,0,0,1,1,2,2,4,4,5,5,6,6],"right_children":[2,4,6,-1,8,10,12,-1,-1,-1,-1,-1,-1],"split_conditions":[3.94312E-1,1.8448995E-1,-3.4947824E-3,6.923946E-2,-7.350109E-1,-2.650105E-1,-5.70455E-1,5.9282638E-2,-7.000996E-2,7.000533E-2,-6.5136984E-2,6.774524E-2,-6.941413E-2],"split_indices":[25,0,100,0,11,11,11,0,0,0,0,0,0],"split_type":[0,0,0,0,0,0,0,0,0,0,0,0,0],"sum_hessian":[6.500071E3,3.2287424E3,3.2713281E3,8.539692E1,3.1433455E3,3.1295813E3,1.4174686E2,5.5141664E0,3.1378313E3,3.1164888E3,1.3092473E1,2.9223248E1,1.1252362E2],"tree_param":{"num_deleted":"0","num_feature":"102","num_nodes":"13","size_leaf_vector":"1"}},{"base_weights":[-3.7644524E-3,1.2800773E0,-1.3202959E0,-6.812958E-2,1.3666594E0,6.775768E-2,-1.371152E0,-6.158358E-2,6.8645425E-2,4.762035E-2,-6.864577E-2],"categories":[],"categories_nodes":[],"categories_segments":[],"categories_sizes":[],"default_left":[0,0,0,0,0,0,0,0,0,0,0],"id":12,"left_children":[1,3,5,-1,7,-1,9,-1,-1,-1,-1],"loss_changes":[1.0728098E4,7.3713135E2,4.2823682E2,0E0,5.2222168E1,0E0,1.3908203E1,0E0,0E0,0E0,0E0],"parents":[2147483647,0,0,1,1,2,2,4,4,6,6],"right_children":[2,4,6,-1,8,-1,10,-1,-1,-1,-1],"split_conditions":[-2.5509638E-1,3.0856103E-1,-8.9201495E-2,-6.812958E-2,2.7207673E-1,6.775768E-2,-5.4160386E-1,-6.158358E-2,6.8645425E-2,4.762035E-2,-6.864577E-2],"split_indices":[97,25,80,0,53,0,11,0,0,0,0],"split_type":[0,0,0,0,0,0,0,0,0,0,0],"sum_hessian":[6.3451675E3,3.2124807E3,3.1326865E3,1.0144448E2,3.1110364E3,5.795833E1,3.0747283E3,6.993735E0,3.1040425E3,1.9226425E0,3.0728057E3],"tree_param":{"num_deleted":"0","num_feature":"102","num_nodes":"11","size_leaf_vector":"1"}},{"base_weights":[-6.184915E-3,1.2569218E0,-1.2963524E0,-6.688276E-2,1.342484E0,1.3150368E0,-1.3463756E0,6.74066E-2,-5.9485406E-2,1.6912697E-2,6.650283E-2,4.6635117E-2,-6.740688E-2],"categories":[],"categories_nodes":[],"categories_segments":[],"categories_sizes":[],"default_left":[0,0,0,0,0,0,0,0,0,0,0,0,0],"id":13,"left_children":[1,3,5,-1,7,9,11,-1,-1,-1,-1,-1,-1],"loss_changes":[9.977575E3,6.88605E2,3.9743262E2,0E0,4.444629E1,3.9276123E-1,1.3192871E1,0E0,0E0,0E0,0E0,0E0,0E0],"parents":[2147483647,0,0,1,1,2,2,4,4,5,5,6,6],"right_children":[2,4,6,-1,8,10,12,-1,-1,-1,-1,-1,-1],"split_conditions":[-2.5509638E-1,3.0856103E-1,-8.9201495E-2,-6.688276E-2,6.687185E-1,-5.5642266E-2,-5.4160386E-1,6.74066E-2,-5.9485406E-2,1.6912697E-2,6.650283E-2,4.6635117E-2,-6.740688E-2],"split_indices":[97,25,80,0,0,36,11,0,0,0,0,0,0],"split_type":[0,0,0,0,0,0,0,0,0,0,0,0,0],"sum_hessian":[6.120642E3,3.0927688E3,3.0278735E3,9.826801E1,2.994501E3,5.643581E1,2.9714375E3,2.988303E3,6.1978097E0,1.2108558E0,5.5224953E1,1.8871258E0,2.9695505E3],"tree_param":{"num_deleted":"0","num_feature":"102","num_nodes":"13","size_leaf_vector":"1"}},{"base_weights":[-4.005926E-3,1.2360667E0,-1.2732916E0,-6.573744E-2,1.3200191E0,6.525105E-2,-1.3132124E0,-5.8036894E-2,6.627019E-2,-6.6274285E-2,6.210509E-2],"categories":[],"categories_nodes":[],"categories_segments":[],"categories_sizes":[],"default_left":[0,0,0,0,0,0,0,0,0,0,0],"id":14,"left_children":[1,3,5,-1,7,-1,9,-1,-1,-1,-1],"loss_changes":[9.352556E3,6.4536084E2,3.0394775E2,0E0,4.0412598E1,0E0,9.2348145E1,0E0,0E0,0E0,0E0],"parents":[2147483647,0,0,1,1,2,2,4,4,6,6],"right_children":[2,4,6,-1,8,-1,10,-1,-1,-1,-1],"split_conditions":[-2.5509638E-1,3.0856103E-1,-2.476019E-1,-6.573744E-2,2.6366845E-1,6.525105E-2,3.2201985E-1,-5.8036894E-2,6.627019E-2,-6.6274285E-2,6.210509E-2],"split_indices":[97,25,58,0,1,0,6,0,0,0,0],"split_type":[0,0,0,0,0,0,0,0,0,0,0],"sum_hessian":[5.93988E3,3.004528E3,2.9353518E3,9.526719E1,2.909261E3,4.427284E1,2.8910789E3,5.8362207E0,2.9034248E3,2.8777383E3,1.3340608E1],"tree_param":{"num_deleted":"0","num_feature":"102","num_nodes":"11","size_leaf_vector":"1"}},{"base_weights":[3.3459736E-3,1.2155887E0,-1.2529645E0,1.2898823E0,-6.473359E-2,1.2710371E0,-1.3025545E0,6.522524E-2,-6.1608095E-2,1.8735683E-2,6.431704E-2,4.6054613E-2,-6.522492E-2],"categories":[],"categories_nodes":[],"categories_segments":[],"categories_sizes":[],"default_left":[0,0,0,0,0,0,0,0,0,0,0,0,0],"id":15,"left_children":[1,3,5,7,-1,9,11,-1,-1,-1,-1,-1,-1],"loss_changes":[8.735716E3,5.4609326E2,3.542246E2,1.0618799E2,0E0,2.6944733E-1,1.314502E1,0E0,0E0,0E0,0E0,0E0,0E0],"parents":[2147483647,0,0,1,1,2,2,3,3,5,5,6,6],"right_children":[2,4,6,8,-1,10,12,-1,-1,-1,-1,-1,-1],"split_conditions":[-2.5509638E-1,6.687185E-1,-8.9201495E-2,8.900516E-2,-6.473359E-2,2.1877842E-2,-5.4160386E-1,6.522524E-2,-6.1608095E-2,1.8735683E-2,6.431704E-2,4.6054613E-2,-6.522492E-2],"split_indices":[97,0,80,55,0,98,11,0,0,0,0,0,0],"split_type":[0,0,0,0,0,0,0,0,0,0,0,0,0],"sum_hessian":[5.734037E3,2.918216E3,2.8158213E3,2.8348035E3,8.341269E1,5.3782974E1,2.7620383E3,2.8189424E3,1.5861082E1,1.3306885E0,5.2452286E1,1.9995016E0,2.7600388E3],"tree_param":{"num_deleted":"0","num_feature":"102","num_nodes":"13","size_leaf_vector":"1"}},{"base_weights":[2.7065162E-4,1.2013685E0,-1.234549E0,-6.365419E-2,1.2794057E0,1.251237E0,-1.2834889E0,-5.6826204E-2,6.4261764E-2,1.8423652E-2,6.3333265E-2,4.352689E-2,-6.42617E-2],"categories":[],"categories_nodes":[],"categories_segments":[],"categories_sizes":[],"default_left":[0,0,0,0,0,0,0,0,0,0,0,0,0],"id":16,"left_children":[1,3,5,-1,7,9,11,-1,-1,-1,-1,-1,-1],"loss_changes":[8.205302E3,5.431731E2,3.3346582E2,0E0,3.975879E1,2.574997E-1,1.117627E1,0E0,0E0,0E0,0E0,0E0,0E0],"parents":[2147483647,0,0,1,1,2,2,4,4,5,5,6,6],"right_children":[2,4,6,-1,8,10,12,-1,-1,-1,-1,-1,-1],"split_conditions":[-2.5509638E-1,2.963968E-1,-8.9201495E-2,-6.365419E-2,2.7207673E-1,-5.5642266E-2,-5.4160386E-1,-5.6826204E-2,6.4261764E-2,1.8423652E-2,6.3333265E-2,4.352689E-2,-6.42617E-2],"split_indices":[97,25,80,0,53,36,11,0,0,0,0,0,0],"split_type":[0,0,0,0,0,0,0,0,0,0,0,0,0],"sum_hessian":[5.530387E3,2.8034875E3,2.7268997E3,8.524274E1,2.7182449E3,5.217596E1,2.6747236E3,6.076383E0,2.7121685E3,1.3236369E0,5.085232E1,1.7621061E0,2.6729617E3],"tree_param":{"num_deleted":"0","num_feature":"102","num_nodes":"13","size_leaf_vector":"1"}},{"base_weights":[3.921792E-4,1.1832733E0,-1.2169504E0,-6.279785E-2,1.2620246E0,1.2325566E0,-1.2654845E0,6.3372016E-2,-5.5033486E-2,6.243908E-2,1.9508403E-2,4.4335477E-2,-6.33719E-2],"categories":[],"categories_nodes":[],"categories_segments":[],"categories_sizes":[],"default_left":[0,0,0,0,0,0,0,0,0,0,0,0,0],"id":17,"left_children":[1,3,5,-1,7,9,11,-1,-1,-1,-1,-1,-1],"loss_changes":[7.653061E3,5.1937427E2,3.129431E2,0E0,3.481299E1,2.1522522E-1,1.1924316E1,0E0,0E0,0E0,0E0,0E0,0E0],"parents":[2147483647,0,0,1,1,2,2,4,4,5,5,6,6],"right_children":[2,4,6,-1,8,10,12,-1,-1,-1,-1,-1,-1],"split_conditions":[-2.5509638E-1,3.0856103E-1,-8.9201495E-2,-6.279785E-2,6.687185E-1,5.580765E-2,-2.6634422E-1,6.3372016E-2,-5.5033486E-2,6.243908E-2,1.9508403E-2,4.4335477E-2,-6.33719E-2],"split_indices":[97,25,80,0,0,19,58,0,0,0,0,0,0],"split_type":[0,0,0,0,0,0,0,0,0,0,0,0,0],"sum_hessian":[5.312731E3,2.6945186E3,2.6182122E3,8.380513E1,2.6107134E3,5.0394867E1,2.5678174E3,2.6052056E3,5.507928E0,4.8969257E1,1.4256084E0,1.917904E0,2.5658994E3],"tree_param":{"num_deleted":"0","num_feature":"102","num_nodes":"13","size_leaf_vector":"1"}},{"base_weights":[6.456932E-5,1.1667E0,-1.2023782E0,-6.1970066E-2,1.2453996E0,1.2145325E0,-1.2494195E0,-5.4750692E-2,6.254898E-2,1.1966287E-2,6.1575558E-2,4.0030867E-2,-6.254885E-2],"categories":[],"categories_nodes":[],"categories_segments":[],"categories_sizes":[],"default_left":[0,0,0,0,0,0,0,0,0,0,0,0,0],"id":18,"left_children":[1,3,5,-1,7,9,11,-1,-1,-1,-1,-1,-1],"loss_changes":[7.2340215E3,4.971665E2,2.9023657E2,0E0,3.4474854E1,5.1641846E-1,8.957031E0,0E0,0E0,0E0,0E0,0E0,0E0],"parents":[2147483647,0,0,1,1,2,2,4,4,5,5,6,6],"right_children":[2,4,6,-1,8,10,12,-1,-1,-1,-1,-1,-1],"split_conditions":[-2.5509638E-1,3.0856103E-1,-8.9201495E-2,-6.1970066E-2,2.7207673E-1,2.0056285E-2,-5.4160386E-1,-5.4750692E-2,6.254898E-2,1.1966287E-2,6.1575558E-2,4.0030867E-2,-6.254885E-2],"split_indices":[97,25,80,0,53,98,11,0,0,0,0,0,0],"split_type":[0,0,0,0,0,0,0,0,0,0,0,0,0],"sum_hessian":[5.1547993E3,2.6163708E3,2.5384287E3,8.2399605E1,2.5339712E3,4.798939E1,2.4904395E3,5.5626564E0,2.5284084E3,1.0795329E0,4.690986E1,1.5012854E0,2.488938E3],"tree_param":{"num_deleted":"0","num_feature":"102","num_nodes":"13","size_leaf_vector":"1"}},{"base_weights":[-3.579443E-4,1.1527866E0,-1.1867692E0,-6.1177608E-2,1.2299597E0,1.1987088E0,-1.2341381E0,-5.4085072E-2,6.1785895E-2,1.5543613E-2,6.0782164E-2,3.9315503E-2,-6.1785668E-2],"categories":[],"categories_nodes":[],"categories_segments":[],"categories_sizes":[],"default_left":[0,0,0,0,0,0,0,0,0,0,0,0,0],"id":19,"left_children":[1,3,5,-1,7,9,11,-1,-1,-1,-1,-1,-1],"loss_changes":[6.7572725E3,4.6083862E2,2.7656714E2,0E0,3.363452E1,3.4238434E-1,8.5703125E0,0E0,0E0,0E0,0E0,0E0,0E0],"parents":[2147483647,0,0,1,1,2,2,4,4,5,5,6,6],"right_children":[2,4,6,-1,8,10,12,-1,-1,-1,-1,-1,-1],"split_conditions":[-2.5509638E-1,3.0856103E-1,-8.9201495E-2,-6.1177608E-2,2.7207673E-1,-5.5642266E-2,-2.6634422E-1,-5.4085072E-2,6.1785895E-2,1.5543613E-2,6.0782164E-2,3.9315503E-2,-6.1785668E-2],"split_indices":[97,25,80,0,53,36,58,0,0,0,0,0,0],"split_type":[0,0,0,0,0,0,0,0,0,0,0,0,0],"sum_hessian":[4.937152E3,2.5036917E3,2.4334602E3,7.828424E1,2.4254075E3,4.690756E1,2.3865527E3,5.562221E0,2.4198452E3,1.2402741E0,4.5667286E1,1.4711335E0,2.3850815E3],"tree_param":{"num_deleted":"0","num_feature":"102","num_nodes":"13","size_leaf_vector":"1"}},{"base_weights":[-3.4756495E-3,1.1396093E0,-1.1726162E0,-6.0475826E-2,1.2087235E0,5.989042E-2,-1.2096634E0,-5.6769628E-2,6.1077293E-2,-6.1083026E-2,5.65958E-2],"categories":[],"categories_nodes":[],"categories_segments":[],"categories_sizes":[],"default_left":[0,0,0,0,0,0,0,0,0,0,0],"id":20,"left_children":[1,3,5,-1,7,-1,9,-1,-1,-1,-1],"loss_changes":[6.343151E3,3.9110767E2,2.0750708E2,0E0,7.14751E1,0E0,6.6298096E1,0E0,0E0,0E0,0E0],"parents":[2147483647,0,0,1,1,2,2,4,4,6,6],"right_children":[2,4,6,-1,8,-1,10,-1,-1,-1,-1],"split_conditions":[-2.5509638E-1,3.318421E-1,-2.476019E-1,-6.0475826E-2,2.5673553E-1,5.989042E-2,3.2201985E-1,-5.6769628E-2,6.1077293E-2,-6.1083026E-2,5.65958E-2],"split_indices":[97,1,58,0,53,0,6,0,0,0,0],"split_type":[0,0,0,0,0,0,0,0,0,0,0],"sum_hessian":[4.7443506E3,2.3989192E3,2.3454314E3,6.809043E1,2.3308289E3,3.5610344E1,2.309821E3,1.2203977E1,2.3186248E3,2.298523E3,1.1298145E1],"tree_param":{"num_deleted":"0","num_feature":"102","num_nodes":"11","size_leaf_vector":"1"}},{"base_weights":[5.8406144E-3,1.1270633E0,-1.1604271E0,1.1954786E0,-5.979343E-2,1.1688981E0,-1.2067819E0,6.0418934E-2,-5.61344E-2,1.0767607E-2,5.9344333E-2,3.7589017E-2,-6.041838E-2],"categories":[],"categories_nodes":[],"categories_segments":[],"categories_sizes":[],"default_left":[0,0,0,0,0,0,0,0,0,0,0,0,0],"id":21,"left_children":[1,3,5,7,-1,9,11,-1,-1,-1,-1,-1,-1],"loss_changes":[5.982202E3,3.7210962E2,2.4352954E2,6.912671E1,0E0,5.0361633E-1,7.738037E0,0E0,0E0,0E0,0E0,0E0,0E0],"parents":[2147483647,0,0,1,1,2,2,3,3,5,5,6,6],"right_children":[2,4,6,8,-1,10,12,-1,-1,-1,-1,-1,-1],"split_conditions":[-2.5509638E-1,6.687185E-1,-8.9201495E-2,-1.560284E-1,-5.979343E-2,-5.5642266E-2,-5.4160386E-1,6.0418934E-2,-5.61344E-2,1.0767607E-2,5.9344333E-2,3.7589017E-2,-6.041838E-2],"split_indices":[97,0,80,78,0,36,11,0,0,0,0,0,0],"split_type":[0,0,0,0,0,0,0,0,0,0,0,0,0],"sum_hessian":[4.572788E3,2.3314346E3,2.2413533E3,2.2652048E3,6.622977E1,4.326128E1,2.198092E3,2.2531453E3,1.2059569E1,1.0411897E0,4.222009E1,1.3954818E0,2.1966965E3],"tree_param":{"num_deleted":"0","num_feature":"102","num_nodes":"13","size_leaf_vector":"1"}},{"base_weights":[-1.0533776E-3,1.1131473E0,-1.1480836E0,-5.916992E-2,1.1906542E0,5.8777194E-2,-1.1947162E0,-5.1113732E-2,5.9805628E-2,3.4847386E-2,-5.980531E-2],"categories":[],"categories_nodes":[],"categories_segments":[],"categories_sizes":[],"default_left":[0,0,0,0,0,0,0,0,0,0,0],"id":22,"left_children":[1,3,5,-1,7,-1,9,-1,-1,-1,-1],"loss_changes":[5.6340103E3,3.9944702E2,2.3677612E2,0E0,2.735791E1,0E0,6.433838E0,0E0,0E0,0E0,0E0],"parents":[2147483647,0,0,1,1,2,2,4,4,6,6],"right_children":[2,4,6,-1,8,-1,10,-1,-1,-1,-1],"split_conditions":[-2.5509638E-1,3.0856103E-1,-8.9201495E-2,-5.916992E-2,2.7207673E-1,5.8777194E-2,-2.6634422E-1,-5.1113732E-2,5.9805628E-2,3.4847386E-2,-5.980531E-2],"split_indices":[97,25,80,0,53,0,58,0,0,0,0],"split_type":[0,0,0,0,0,0,0,0,0,0,0],"sum_hessian":[4.4063833E3,2.2351936E3,2.17119E3,7.250765E1,2.162686E3,4.2239796E1,2.12895E3,4.862967E0,2.157823E3,1.1957787E0,2.1277544E3],"tree_param":{"num_deleted":"0","num_feature":"102","num_nodes":"11","size_leaf_vector":"1"}},{"base_weights":[2.3841436E-3,1.1040342E0,-1.1376834E0,-5.8556087E-2,1.1792411E0,1.1416068E0,-1.1828563E0,5.9233963E-2,-5.0353833E-2,9.182415E-3,5.8057792E-2,3.8179766E-2,-5.9233557E-2],"categories":[],"categories_nodes":[],"categories_segments":[],"categories_sizes":[],"default_left":[0,0,0,0,0,0,0,0,0,0,0,0,0],"id":23,"left_children":[1,3,5,-1,7,9,11,-1,-1,-1,-1,-1,-1],"loss_changes":[5.3126304E3,3.694707E2,2.1538062E2,0E0,2.5958008E1,5.5280685E-1,8.106689E0,0E0,0E0,0E0,0E0,0E0,0E0],"parents":[2147483647,0,0,1,1,2,2,4,4,5,5,6,6],"right_children":[2,4,6,-1,8,10,12,-1,-1,-1,-1,-1,-1],"split_conditions":[-2.5509638E-1,3.0856103E-1,-8.9201495E-2,-5.8556087E-2,-1.560284E-1,-5.5642266E-2,-2.6634422E-1,5.9233963E-2,-5.0353833E-2,9.182415E-3,5.8057792E-2,3.8179766E-2,-5.9233557E-2],"split_indices":[97,25,80,0,78,36,58,0,0,0,0,0,0],"split_type":[0,0,0,0,0,0,0,0,0,0,0,0,0],"sum_hessian":[4.227951E3,2.15022E3,2.077731E3,6.833649E1,2.0818835E3,3.990626E1,2.0378248E3,2.0771748E3,4.7085524E0,1.005949E0,3.8900314E1,1.5072632E0,2.0363175E3],"tree_param":{"num_deleted":"0","num_feature":"102","num_nodes":"13","size_leaf_vector":"1"}},{"base_weights":[-3.0834463E-3,1.0948054E0,-1.1273263E0,-5.7983976E-2,1.1686138E0,1.1303171E0,-1.1725796E0,5.870017E-2,-4.928577E-2,1.2656844E-2,5.749302E-2,3.3653527E-2,-5.8699924E-2],"categories":[],"categories_nodes":[],"categories_segments":[],"categories_sizes":[],"default_left":[0,0,0,0,0,0,0,0,0,0,0,0,0],"id":24,"left_children":[1,3,5,-1,7,9,11,-1,-1,-1,-1,-1,-1],"loss_changes":[5.011405E3,3.431648E2,2.0626978E2,0E0,2.4257568E1,3.9341354E-1,5.941162E0,0E0,0E0,0E0,0E0,0E0,0E0],"parents":[2147483647,0,0,1,1,2,2,4,4,5,5,6,6],"right_children":[2,4,6,-1,8,10,12,-1,-1,-1,-1,-1,-1],"split_conditions":[-2.5509638E-1,3.0856103E-1,-8.9201495E-2,-5.7983976E-2,6.687185E-1,-5.5642266E-2,-5.4160386E-1,5.870017E-2,-4.928577E-2,1.2656844E-2,5.749302E-2,3.3653527E-2,-5.8699924E-2],"split_indices":[97,25,80,0,0,36,11,0,0,0,0,0,0],"split_type":[0,0,0,0,0,0,0,0,0,0,0,0,0],"sum_hessian":[4.05814E3,2.0531475E3,2.0049923E3,6.461974E1,1.9885278E3,3.8928265E1,1.9660641E3,1.9840194E3,4.508424E0,1.1524909E0,3.7775776E1,1.1466018E0,1.9649175E3],"tree_param":{"num_deleted":"0","num_feature":"102","num_nodes":"13","size_leaf_vector":"1"}},{"base_weights":[5.0773594E-4,1.0848067E0,-1.1178284E0,-5.7434674E-2,1.1583766E0,1.1174303E0,-1.1621587E0,-4.927921E-2,5.820147E-2,1.16925305E-2,5.6949984E-2,3.698221E-2,-5.8201093E-2],"categories":[],"categories_nodes":[],"categories_segments":[],"categories_sizes":[],"default_left":[0,0,0,0,0,0,0,0,0,0,0,0,0],"id":25,"left_children":[1,3,5,-1,7,9,11,-1,-1,-1,-1,-1,-1],"loss_changes":[4.705124E3,3.2504834E2,1.9056982E2,0E0,2.4267334E1,4.512787E-1,7.4992676E0,0E0,0E0,0E0,0E0,0E0,0E0],"parents":[2147483647,0,0,1,1,2,2,4,4,5,5,6,6],"right_children":[2,4,6,-1,8,10,12,-1,-1,-1,-1,-1,-1],"split_conditions":[-2.5509638E-1,2.963968E-1,-8.9201495E-2,-5.7434674E-2,2.7207673E-1,2.1877842E-2,-2.6634422E-1,-4.927921E-2,5.820147E-2,1.16925305E-2,5.6949984E-2,3.698221E-2,-5.8201093E-2],"split_indices":[97,25,80,0,53,98,58,0,0,0,0,0,0],"split_type":[0,0,0,0,0,0,0,0,0,0,0,0,0],"sum_hessian":[3.8781606E3,1.96906E3,1.9091006E3,6.2325203E1,1.9067349E3,3.6654804E1,1.8724458E3,4.5581927E0,1.9021768E3,1.1556563E0,3.5499146E1,1.44509E0,1.8710007E3],"tree_param":{"num_deleted":"0","num_feature":"102","num_nodes":"13","size_leaf_vector":"1"}},{"base_weights":[-3.1274117E-3,1.0766251E0,-1.1077597E0,-5.696193E-2,1.1496191E0,1.1070718E0,-1.1526071E0,5.773486E-2,-4.7299016E-2,5.644952E-2,1.0826364E-2,3.7948914E-2,-5.7734706E-2],"categories":[],"categories_nodes":[],"categories_segments":[],"categories_sizes":[],"default_left":[0,0,0,0,0,0,0,0,0,0,0,0,0],"id":26,"left_children":[1,3,5,-1,7,9,11,-1,-1,-1,-1,-1,-1],"loss_changes":[4.438521E3,3.056892E2,1.8398853E2,0E0,2.048462E1,4.7811127E-1,8.071045E0,0E0,0E0,0E0,0E0,0E0,0E0],"parents":[2147483647,0,0,1,1,2,2,4,4,5,5,6,6],"right_children":[2,4,6,-1,8,10,12,-1,-1,-1,-1,-1,-1],"split_conditions":[-2.5509638E-1,3.0856103E-1,-8.9201495E-2,-5.696193E-2,6.687185E-1,-1.18811235E-1,-5.4160386E-1,5.773486E-2,-4.7299016E-2,5.644952E-2,1.0826364E-2,3.7948914E-2,-5.7734706E-2],"split_indices":[97,25,80,0,0,80,11,0,0,0,0,0,0],"split_type":[0,0,0,0,0,0,0,0,0,0,0,0,0],"sum_hessian":[3.7193142E3,1.8808511E3,1.838463E3,5.9516407E1,1.8213347E3,3.6017517E1,1.8024456E3,1.8173799E3,3.954894E0,3.4891003E1,1.1265138E0,1.5701866E0,1.8008754E3],"tree_param":{"num_deleted":"0","num_feature":"102","num_nodes":"13","size_leaf_vector":"1"}},{"base_weights":[-1.6259144E-3,1.068093E0,-1.1032541E0,1.1333834E0,-5.644269E-2,1.0920781E0,-1.1442662E0,-5.2306093E-2,5.7298172E-2,5.5829167E-2,8.116341E-3,3.397758E-2,-5.7297785E-2],"categories":[],"categories_nodes":[],"categories_segments":[],"categories_sizes":[],"default_left":[0,0,0,0,0,0,0,0,0,0,0,0,0],"id":27,"left_children":[1,3,5,7,-1,9,11,-1,-1,-1,-1,-1,-1],"loss_changes":[4.209975E3,2.6126538E2,1.5971289E2,4.9474365E1,0E0,5.6578827E-1,6.1035156E0,0E0,0E0,0E0,0E0,0E0,0E0],"parents":[2147483647,0,0,1,1,2,2,3,3,5,5,6,6],"right_children":[2,4,6,8,-1,10,12,-1,-1,-1,-1,-1,-1],"split_conditions":[-2.5509638E-1,6.687185E-1,-8.9201495E-2,2.5673553E-1,-5.644269E-2,6.2386464E-2,-5.4160386E-1,-5.2306093E-2,5.7298172E-2,5.5829167E-2,8.116341E-3,3.397758E-2,-5.7297785E-2],"split_indices":[97,0,80,53,0,12,11,0,0,0,0,0,0],"split_type":[0,0,0,0,0,0,0,0,0,0,0,0,0],"sum_hessian":[3.570521E3,1.8115115E3,1.7590096E3,1.7596996E3,5.18119E1,3.17884E1,1.7272212E3,9.627148E0,1.7500724E3,3.0776289E1,1.0121115E0,1.2271361E0,1.7259941E3],"tree_param":{"num_deleted":"0","num_feature":"102","num_nodes":"13","size_leaf_vector":"1"}},{"base_weights":[-1.5262621E-3,1.0605097E0,-1.0919468E0,1.1253158E0,-5.602772E-2,1.0860949E0,-1.1358317E0,-5.1701676E-2,5.688853E-2,5.5488992E-2,7.931051E-3,3.5217267E-2,-5.688833E-2],"categories":[],"categories_nodes":[],"categories_segments":[],"categories_sizes":[],"default_left":[0,0,0,0,0,0,0,0,0,0,0,0,0],"id":28,"left_children":[1,3,5,7,-1,9,11,-1,-1,-1,-1,-1,-1],"loss_changes":[3.9511995E3,2.4557019E2,1.6214319E2,4.6333252E1,0E0,5.6559753E-1,6.678711E0,0E0,0E0,0E0,0E0,0E0,0E0],"parents":[2147483647,0,0,1,1,2,2,3,3,5,5,6,6],"right_children":[2,4,6,8,-1,10,12,-1,-1,-1,-1,-1,-1],"split_conditions":[-2.5509638E-1,6.687185E-1,-8.9201495E-2,2.5673553E-1,-5.602772E-2,6.2386464E-2,-5.4160386E-1,-5.1701676E-2,5.688853E-2,5.5488992E-2,7.931051E-3,3.5217267E-2,-5.688833E-2],"split_indices":[97,0,80,53,0,12,11,0,0,0,0,0,0],"split_type":[0,0,0,0,0,0,0,0,0,0,0,0,0],"sum_hessian":[3.4098955E3,1.7274448E3,1.6824506E3,1.6780684E3,4.9376457E1,3.2760796E1,1.6496898E3,9.152897E0,1.6689155E3,3.1753345E1,1.00745E0,1.3514374E0,1.6483384E3],"tree_param":{"num_deleted":"0","num_feature":"102","num_nodes":"13","size_leaf_vector":"1"}},{"base_weights":[-9.2523027E-4,1.0550493E0,-1.0835984E0,1.1172945E0,-5.5561017E-2,1.0776635E0,-1.1279197E0,-5.1345523E-2,5.6504685E-2,5.512296E-2,7.0644394E-3,3.6218673E-2,-5.6504387E-2],"categories":[],"categories_nodes":[],"categories_segments":[],"categories_sizes":[],"default_left":[0,0,0,0,0,0,0,0,0,0,0,0,0],"id":29,"left_children":[1,3,5,7,-1,9,11,-1,-1,-1,-1,-1,-1],"loss_changes":[3.7559495E3,2.2549866E2,1.5659827E2,4.5542603E1,0E0,6.129379E-1,7.2038574E0,0E0,0E0,0E0,0E0,0E0,0E0],"parents":[2147483647,0,0,1,1,2,2,3,3,5,5,6,6],"right_children":[2,4,6,8,-1,10,12,-1,-1,-1,-1,-1,-1],"split_conditions":[-2.5509638E-1,6.687185E-1,-8.9201495E-2,2.5673553E-1,-5.5561017E-2,5.580765E-2,-5.4160386E-1,-5.1345523E-2,5.6504685E-2,5.512296E-2,7.0644394E-3,3.6218673E-2,-5.6504387E-2],"split_indices":[97,0,80,53,0,19,11,0,0,0,0,0,0],"split_type":[0,0,0,0,0,0,0,0,0,0,0,0,0],"sum_hessian":[3.2832542E3,1.6621339E3,1.6211202E3,1.6161791E3,4.5954803E1,3.2108E1,1.5890123E3,9.119933E0,1.6070592E3,3.1106907E1,1.001094E0,1.4682757E0,1.5875441E3],"tree_param":{"num_deleted":"0","num_feature":"102","num_nodes":"13","size_leaf_vector":"1"}},{"base_weights":[6.7293533E-4,1.0288218E0,-7.878532E-1,-5.5045396E-2,1.108448E0,-1.0920968E0,7.955485E-1,1.115371E0,-4.5082405E-2,-5.6125026E-2,5.3520795E-2,5.5960245E-2,-5.484885E-2,-3.9407402E-2,1.119413E0,-3.7812293E-2,5.614827E-2],"categories":[],"categories_nodes":[],"categories_segments":[],"categories_sizes":[],"default_left":[0,0,0,0,0,0,0,0,0,0,0,0,0,0,0,0,0],"id":30,"left_children":[1,3,5,-1,7,9,11,13,-1,-1,-1,-1,-1,-1,15,-1,-1],"loss_changes":[2.533232E3,2.3121704E2,8.527799E2,0E0,1.9205933E1,9.8759155E1,1.7616788E2,1.091394E1,0E0,0E0,0E0,0E0,0E0,0E0,9.520996E0,0E0,0E0],"parents":[2147483647,0,0,1,1,2,2,4,4,5,5,6,6,7,7,14,14],"right_children":[2,4,6,-1,8,10,12,14,-1,-1,-1,-1,-1,-1,16,-1,-1],"split_conditions":[-4.123342E-1,8.837277E-2,1.6201052E-1,-5.5045396E-2,6.4829215E-2,3.6609718E-1,-1.5863766E-1,-6.374892E-2,-4.5082405E-2,-5.6125026E-2,5.3520795E-2,5.5960245E-2,-5.484885E-2,-3.9407402E-2,-2.2950317E-1,-3.7812293E-2,5.614827E-2],"split_indices":[11,32,66,0,80,77,34,15,0,0,0,0,0,0,46,0,0],"split_type":[0,0,0,0,0,0,0,0,0,0,0,0,0,0,0,0,0],"sum_hessian":[3.1226606E3,1.3552556E3,1.7674049E3,4.8381718E1,1.3068739E3,1.4828015E3,2.846035E2,1.3028319E3,4.0420203E0,1.4627174E3,2.0084024E1,2.4338828E2,4.1215214E1,2.349561E0,1.3004823E3,2.0578237E0,1.2984246E3],"tree_param":{"num_deleted":"0","num_feature":"102","num_nodes":"17","size_leaf_vector":"1"}},{"base_weights":[-5.294012E-3,1.040586E0,-1.0719681E0,-5.484554E-2,1.1106572E0,1.0563412E0,-1.1141449E0,5.5805594E-2,-4.4784706E-2,5.418971E-2,7.231844E-3,3.321833E-2,-5.580595E-2],"categories":[],"categories_nodes":[],"categories_segments":[],"categories_sizes":[],"default_left":[0,0,0,0,0,0,0,0,0,0,0,0,0],"id":31,"left_children":[1,3,5,-1,7,9,11,-1,-1,-1,-1,-1,-1],"loss_changes":[3.3502573E3,2.2832727E2,1.346355E2,0E0,1.7072754E1,5.791931E-1,5.8616943E0,0E0,0E0,0E0,0E0,0E0,0E0],"parents":[2147483647,0,0,1,1,2,2,4,4,5,5,6,6],"right_children":[2,4,6,-1,8,10,12,-1,-1,-1,-1,-1,-1],"split_conditions":[-2.5509638E-1,3.0856103E-1,-8.9201495E-2,-5.484554E-2,-1.560284E-1,1.4012364E-1,-5.4160386E-1,5.5805594E-2,-4.4784706E-2,5.418971E-2,7.231844E-3,3.321833E-2,-5.580595E-2],"split_indices":[97,25,80,0,78,5,11,0,0,0,0,0,0],"split_type":[0,0,0,0,0,0,0,0,0,0,0,0,0],"sum_hessian":[3.001064E3,1.5153141E3,1.4857498E3,4.7632984E1,1.4676812E3,2.8403788E1,1.457346E3,1.4641443E3,3.5367858E0,2.739026E1,1.0135274E0,1.2437896E0,1.4561022E3],"tree_param":{"num_deleted":"0","num_feature":"102","num_nodes":"13","size_leaf_vector":"1"}},{"base_weights":[1.1204523E-3,-1.0424156E0,1.0254555E0,-5.5494368E-2,1.0076147E0,1.1004665E0,-6.097954E-1,5.4296494E-2,-3.445421E-2,-4.6667192E-2,1.1088785E0,5.183168E-2,-5.4428644E-2,-4.926035E-3,5.5494893E-2],"categories":[],"categories_nodes":[],"categories_segments":[],"categories_sizes":[],"default_left":[0,0,0,0,0,0,0,0,0,0,0,0,0,0,0],"id":32,"left_children":[1,3,5,-1,7,9,11,-1,-1,-1,13,-1,-1,-1,-1],"loss_changes":[3.061658E3,1.9736731E2,1.7796765E2,0E0,6.8251762E0,2.4685059E1,5.1608078E1,0E0,0E0,0E0,1.8043213E0,0E0,0E0,0E0,0E0],"parents":[2147483647,0,0,1,1,2,2,4,4,5,5,6,6,10,10],"right_children":[2,4,6,-1,8,10,12,-1,-1,-1,14,-1,-1,-1,-1],"split_conditions":[3.94312E-1,4.8686564E-1,-3.4947824E-3,-5.5494368E-2,6.270929E-1,2.7842844E-1,-2.4778644E-2,5.4296494E-2,-3.445421E-2,-4.6667192E-2,-1.2399312E-1,5.183168E-2,-5.4428644E-2,-4.926035E-3,5.5494893E-2],"split_indices":[25,53,100,0,0,53,2,0,0,0,48,0,0,0,0],"split_type":[0,0,0,0,0,0,0,0,0,0,0,0,0,0,0],"sum_hessian":[2.862225E3,1.4178153E3,1.4444098E3,1.3730823E3,4.473303E1,1.3813716E3,6.3038242E1,4.3103462E1,1.6295676E0,5.237017E0,1.3761345E3,1.3939085E1,4.9099155E1,1.0801567E0,1.3750543E3],"tree_param":{"num_deleted":"0","num_feature":"102","num_nodes":"15","size_leaf_vector":"1"}},{"base_weights":[-1.6149034E-3,1.0261412E0,-1.0584005E0,1.0912757E0,-5.4126468E-2,5.3210992E-2,-1.0932553E0,-4.9164835E-2,5.518757E-2,-5.5198587E-2,4.8279364E-2],"categories":[],"categories_nodes":[],"categories_segments":[],"categories_sizes":[],"default_left":[0,0,0,0,0,0,0,0,0,0,0],"id":33,"left_children":[1,3,5,7,-1,-1,9,-1,-1,-1,-1],"loss_changes":[2.9849353E3,1.9254297E2,1.0141052E2,3.6078003E1,0E0,0E0,3.0489624E1,0E0,0E0,0E0,0E0],"parents":[2147483647,0,0,1,1,2,2,3,3,6,6],"right_children":[2,4,6,8,-1,-1,10,-1,-1,-1,-1],"split_conditions":[-2.5509638E-1,6.687185E-1,-2.476019E-1,2.5673553E-1,-5.4126468E-2,5.3210992E-2,3.2201985E-1,-4.9164835E-2,5.518757E-2,-5.5198587E-2,4.8279364E-2],"split_indices":[97,0,58,53,0,0,6,0,0,0,0],"split_type":[0,0,0,0,0,0,0,0,0,0,0],"sum_hessian":[2.7462612E3,1.3922677E3,1.3539935E3,1.3510187E3,4.1249027E1,2.1397085E1,1.3325964E3,7.610837E0,1.3434078E3,1.3261575E3,6.4389696E0],"tree_param":{"num_deleted":"0","num_feature":"102","num_nodes":"11","size_leaf_vector":"1"}},{"base_weights":[9.5798186E-4,1.0231932E0,-1.0532148E0,-5.381248E-2,1.0926658E0,5.3155035E-2,-1.0960748E0,-4.2794596E-2,5.4905202E-2,3.1070594E-2,-5.490501E-2],"categories":[],"categories_nodes":[],"categories_segments":[],"categories_sizes":[],"default_left":[0,0,0,0,0,0,0,0,0,0,0],"id":34,"left_children":[1,3,5,-1,7,-1,9,-1,-1,-1,-1],"loss_changes":[2.8230083E3,1.9516016E2,1.1814783E2,0E0,1.458728E1,0E0,5.081421E0,0E0,0E0,0E0,0E0],"parents":[2147483647,0,0,1,1,2,2,4,4,6,6],"right_children":[2,4,6,-1,8,-1,10,-1,-1,-1,-1],"split_conditions":[-2.5509638E-1,3.0856103E-1,-8.9201495E-2,-5.381248E-2,2.7207673E-1,5.3155035E-2,-5.4160386E-1,-4.2794596E-2,5.4905202E-2,3.1070594E-2,-5.490501E-2],"split_indices":[97,25,80,0,53,0,11,0,0,0,0],"split_type":[0,0,0,0,0,0,0,0,0,0,0],"sum_hessian":[2.6176877E3,1.3289904E3,1.2886975E3,4.2104748E1,1.2868856E3,2.5108398E1,1.2635891E3,3.146355E0,1.2837393E3,1.1281252E0,1.2624609E3],"tree_param":{"num_deleted":"0","num_feature":"102","num_nodes":"11","size_leaf_vector":"1"}},{"base_weights":[-1.1678152E-3,1.0172848E0,-1.0501494E0,-5.350848E-2,1.0868235E0,1.0209109E0,-1.0909547E0,-4.312307E-2,5.463915E-2,7.990696E-3,5.2644152E-2,2.5712628E-2,-5.4638963E-2],"categories":[],"categories_nodes":[],"categories_segments":[],"categories_sizes":[],"default_left":[0,0,0,0,0,0,0,0,0,0,0,0,0],"id":35,"left_children":[1,3,5,-1,7,9,11,-1,-1,-1,-1,-1,-1],"loss_changes":[2.6854285E3,1.8629626E2,1.0575952E2,0E0,1.5286743E1,5.0465393E-1,4.120117E0,0E0,0E0,0E0,0E0,0E0,0E0],"parents":[2147483647,0,0,1,1,2,2,4,4,5,5,6,6],"right_children":[2,4,6,-1,8,10,12,-1,-1,-1,-1,-1,-1],"split_conditions":[-2.5509638E-1,3.0856103E-1,-8.9201495E-2,-5.350848E-2,2.7207673E-1,9.229719E-2,-4.8814076E-1,-4.312307E-2,5.463915E-2,7.990696E-3,5.2644152E-2,2.5712628E-2,-5.4638963E-2],"split_indices":[97,25,80,0,53,6,11,0,0,0,0,0,0],"split_type":[0,0,0,0,0,0,0,0,0,0,0,0,0],"sum_hessian":[2.5116504E3,1.2743849E3,1.2372655E3,4.0620625E1,1.2337643E3,2.3442225E1,1.2138234E3,3.322465E0,1.2304418E3,1.053987E0,2.2388237E1,1.0592602E0,1.212764E3],"tree_param":{"num_deleted":"0","num_feature":"102","num_nodes":"13","size_leaf_vector":"1"}},{"base_weights":[-4.1175764E-3,1.0110548E0,-1.0451443E0,-5.3235453E-2,1.0820558E0,-1.0867342E0,7.98981E-1,5.438816E-2,-4.1859224E-2,4.1089295E-3,-5.4400362E-2,-4.1372295E-2,5.2499276E-2],"categories":[],"categories_nodes":[],"categories_segments":[],"categories_sizes":[],"default_left":[0,0,0,0,0,0,0,0,0,0,0,0,0],"id":36,"left_children":[1,3,5,-1,7,9,11,-1,-1,-1,-1,-1,-1],"loss_changes":[2.5417324E3,1.806123E2,9.193921E1,0E0,1.38133545E1,1.8179932E0,1.1795353E1,0E0,0E0,0E0,0E0,0E0,0E0],"parents":[2147483647,0,0,1,1,2,2,4,4,5,5,6,6],"right_children":[2,4,6,-1,8,10,12,-1,-1,-1,-1,-1,-1],"split_conditions":[-2.5509638E-1,3.0856103E-1,3.5227937E-1,-5.3235453E-2,6.687185E-1,-1.9217792E-1,-9.345694E-2,5.438816E-2,-4.1859224E-2,4.1089295E-3,-5.4400362E-2,-4.1372295E-2,5.2499276E-2],"split_indices":[97,25,77,0,0,92,4,0,0,0,0,0,0],"split_type":[0,0,0,0,0,0,0,0,0,0,0,0,0],"sum_hessian":[2.4030728E3,1.2166589E3,1.1864138E3,3.977631E1,1.1768827E3,1.1606489E3,2.5764977E1,1.1738252E3,3.0575013E0,1.1935756E0,1.1594553E3,3.1376295E0,2.2627346E1],"tree_param":{"num_deleted":"0","num_feature":"102","num_nodes":"13","size_leaf_vector":"1"}},{"base_weights":[1.752642E-3,1.0091614E0,-1.0400935E0,-5.2904446E-2,1.0775006E0,-1.082132E0,7.891588E-1,-4.1262876E-2,5.4151874E-2,1.6340971E-3,-5.4163452E-2,-4.11258E-2,5.21862E-2],"categories":[],"categories_nodes":[],"categories_segments":[],"categories_sizes":[],"default_left":[0,0,0,0,0,0,0,0,0,0,0,0,0],"id":37,"left_children":[1,3,5,-1,7,9,11,-1,-1,-1,-1,-1,-1],"loss_changes":[2.415127E3,1.6641284E2,8.784253E1,0E0,1.2829468E1,1.4375E0,1.1521856E1,0E0,0E0,0E0,0E0,0E0,0E0],"parents":[2147483647,0,0,1,1,2,2,4,4,5,5,6,6],"right_children":[2,4,6,-1,8,10,12,-1,-1,-1,-1,-1,-1],"split_conditions":[-2.5509638E-1,3.0856103E-1,3.5227937E-1,-5.2904446E-2,2.7207673E-1,-1.9217792E-1,-1.0248731E-1,-4.1262876E-2,5.4151874E-2,1.6340971E-3,-5.4163452E-2,-4.11258E-2,5.21862E-2],"split_indices":[97,25,77,0,53,92,4,0,0,0,0,0,0],"split_type":[0,0,0,0,0,0,0,0,0,0,0,0,0],"sum_hessian":[2.2990745E3,1.168871E3,1.1302035E3,3.6940628E1,1.1319303E3,1.1052126E3,2.4990728E1,2.8547084E0,1.1290757E3,1.097825E0,1.1041149E3,3.1045399E0,2.1886189E1],"tree_param":{"num_deleted":"0","num_feature":"102","num_nodes":"13","size_leaf_vector":"1"}},{"base_weights":[-3.2826958E-3,-1.0159873E0,9.963441E-1,-1.0747583E0,5.2243024E-2,1.0687469E0,-5.96452E-1,-5.394889E-2,3.6427997E-2,1.0745883E0,-4.006991E-2,4.9262863E-2,-5.257809E-2,5.3935636E-2,-3.6096472E-2],"categories":[],"categories_nodes":[],"categories_segments":[],"categories_sizes":[],"default_left":[0,0,0,0,0,0,0,0,0,0,0,0,0,0,0],"id":38,"left_children":[1,3,5,7,-1,9,11,-1,-1,13,-1,-1,-1,-1,-1],"loss_changes":[2.2192793E3,1.3302075E2,1.278678E2,8.84668E0,0E0,1.2393433E1,3.6028927E1,0E0,0E0,8.579346E0,0E0,0E0,0E0,0E0,0E0],"parents":[2147483647,0,0,1,1,2,2,3,3,5,5,6,6,9,9],"right_children":[2,4,6,8,-1,10,12,-1,-1,14,-1,-1,-1,-1,-1],"split_conditions":[3.94312E-1,8.0718035E-1,-3.4947824E-3,1.1367251E-1,5.2243024E-2,3.4751007E-1,-2.4778644E-2,-5.394889E-2,3.6427997E-2,-1.1143249E-2,-4.006991E-2,4.9262863E-2,-5.257809E-2,5.3935636E-2,-3.6096472E-2],"split_indices":[25,1,100,27,0,18,2,0,0,52,0,0,0,0,0],"split_type":[0,0,0,0,0,0,0,0,0,0,0,0,0,0,0],"sum_hessian":[2.190256E3,1.0880028E3,1.1022532E3,1.0583009E3,2.9702E1,1.054642E3,4.7611233E1,1.0562311E3,2.0697925E0,1.0517821E3,2.859856E0,1.0378041E1,3.7233192E1,1.0497716E3,2.0104694E0],"tree_param":{"num_deleted":"0","num_feature":"102","num_nodes":"15","size_leaf_vector":"1"}},{"base_weights":[-4.209578E-3,9.9950904E-1,-1.0306509E0,-5.2352246E-2,1.0683674E0,9.9445826E-1,-1.0727141E0,-4.0681016E-2,5.3717256E-2,7.4911253E-3,5.1418383E-2,1.4139049E-2,-5.371763E-2],"categories":[],"categories_nodes":[],"categories_segments":[],"categories_sizes":[],"default_left":[0,0,0,0,0,0,0,0,0,0,0,0,0],"id":39,"left_children":[1,3,5,-1,7,9,11,-1,-1,-1,-1,-1,-1],"loss_changes":[2.1516743E3,1.4992285E2,8.902222E1,0E0,1.2372314E1,4.6255302E-1,2.5515137E0,0E0,0E0,0E0,0E0,0E0,0E0],"parents":[2147483647,0,0,1,1,2,2,4,4,5,5,6,6],"right_children":[2,4,6,-1,8,10,12,-1,-1,-1,-1,-1,-1],"split_conditions":[-2.5509638E-1,3.0856103E-1,-8.9201495E-2,-5.2352246E-2,2.7207673E-1,2.1877842E-2,-5.942818E-1,-4.0681016E-2,5.3717256E-2,7.4911253E-3,5.1418383E-2,1.4139049E-2,-5.371763E-2],"split_indices":[97,25,80,0,53,98,60,0,0,0,0,0,0],"split_type":[0,0,0,0,0,0,0,0,0,0,0,0,0],"sum_hessian":[2.0864812E3,1.0549303E3,1.0315508E3,3.3876423E1,1.0210539E3,2.0529486E1,1.0110213E3,2.805116E0,1.0182488E3,1.001512E0,1.9527973E1,1.0134631E0,1.0100078E3],"tree_param":{"num_deleted":"0","num_feature":"102","num_nodes":"13","size_leaf_vector":"1"}},{"base_weights":[-2.6223965E-3,-1.0067006E0,9.8804E-1,-5.3537067E-2,9.6497536E-1,1.0614723E0,-5.933091E-1,5.1860448E-2,-2.7984565E-2,5.3524386E-2,-4.3076403E-2,4.85714E-2,-5.2090775E-2],"categories":[],"categories_nodes":[],"categories_segments":[],"categories_sizes":[],"default_left":[0,0,0,0,0,0,0,0,0,0,0,0,0],"id":40,"left_children":[1,3,5,-1,7,9,11,-1,-1,-1,-1,-1,-1],"loss_changes":[1.9920049E3,1.2661487E2,1.1768579E2,0E0,4.084223E0,1.7629028E1,3.2855392E1,0E0,0E0,0E0,0E0,0E0,0E0],"parents":[2147483647,0,0,1,1,2,2,4,4,5,5,6,6],"right_children":[2,4,6,-1,8,10,12,-1,-1,-1,-1,-1,-1],"split_conditions":[3.94312E-1,4.8686564E-1,-3.4947824E-3,-5.3537067E-2,6.270929E-1,-2.650105E-1,-2.4778644E-2,5.1860448E-2,-2.7984565E-2,5.3524386E-2,-4.3076403E-2,4.85714E-2,-5.2090775E-2],"split_indices":[25,53,100,0,0,11,2,0,0,0,0,0,0],"split_type":[0,0,0,0,0,0,0,0,0,0,0,0,0],"sum_hessian":[2.0006136E3,9.9357104E2,1.00704254E3,9.627574E2,3.0813702E1,9.6266833E2,4.4374172E1,2.972514E1,1.0885615E0,9.586175E2,4.050867E0,9.625849E0,3.474832E1],"tree_param":{"num_deleted":"0","num_feature":"102","num_nodes":"13","size_leaf_vector":"1"}},{"base_weights":[-1.1376012E-3,9.925469E-1,-1.0233581E0,1.0548319E0,-5.1752415E-2,5.076164E-2,-1.0634699E0,-4.50581E-2,5.3330094E-2,3.3061232E-2,-5.334313E-2],"categories":[],"categories_nodes":[],"categories_segments":[],"categories_sizes":[],"default_left":[0,0,0,0,0,0,0,0,0,0,0],"id":41,"left_children":[1,3,5,7,-1,-1,9,-1,-1,-1,-1],"loss_changes":[1.9456567E3,1.2375458E2,7.828601E1,2.2667236E1,0E0,0E0,6.126465E0,0E0,0E0,0E0,0E0],"parents":[2147483647,0,0,1,1,2,2,3,3,6,6],"right_children":[2,4,6,8,-1,-1,10,-1,-1,-1,-1],"split_conditions":[-2.5509638E-1,6.687185E-1,-1.1257873E-1,2.5673553E-1,-5.1752415E-2,5.076164E-2,-5.4160386E-1,-4.50581E-2,5.3330094E-2,3.3061232E-2,-5.334313E-2],"split_indices":[97,0,80,53,0,0,11,0,0,0,0],"split_type":[0,0,0,0,0,0,0,0,0,0,0],"sum_hessian":[1.9134601E3,9.7028766E2,9.4317236E2,9.418355E2,2.8452148E1,1.7730867E1,9.254415E2,5.181524E0,9.36654E2,1.4362023E0,9.240053E2],"tree_param":{"num_deleted":"0","num_feature":"102","num_nodes":"11","size_leaf_vector":"1"}},{"base_weights":[-1.0960855E-3,9.900849E-1,-1.020419E0,-5.1571008E-2,1.0576988E0,4.9876265E-2,-1.0525951E0,5.3133793E-2,-3.6507003E-2,4.3759257E-2,-5.316425E-2],"categories":[],"categories_nodes":[],"categories_segments":[],"categories_sizes":[],"default_left":[0,0,0,0,0,0,0,0,0,0,0],"id":42,"left_children":[1,3,5,-1,7,-1,9,-1,-1,-1,-1],"loss_changes":[1.8333871E3,1.2684076E2,5.9137207E1,0E0,8.701721E0,0E0,1.9087158E1,0E0,0E0,0E0,0E0],"parents":[2147483647,0,0,1,1,2,2,4,4,6,6],"right_children":[2,4,6,-1,8,-1,10,-1,-1,-1,-1],"split_conditions":[-2.5509638E-1,3.0856103E-1,-2.476019E-1,-5.1571008E-2,6.687185E-1,4.9876265E-2,-5.361112E-1,5.3133793E-2,-3.6507003E-2,4.3759257E-2,-5.316425E-2],"split_indices":[97,25,58,0,0,0,11,0,0,0,0],"split_type":[0,0,0,0,0,0,0,0,0,0,0],"sum_hessian":[1.8126356E3,9.190185E2,8.936171E2,2.928251E1,8.89736E2,1.3554209E1,8.8006287E2,8.8767053E2,2.065486E0,4.4072113E0,8.756557E2],"tree_param":{"num_deleted":"0","num_feature":"102","num_nodes":"11","size_leaf_vector":"1"}},{"base_weights":[-3.402305E-3,9.8496807E-1,-1.0159156E0,1.0474797E0,-5.12523E-2,9.6741486E-1,-1.0576823E0,5.2982558E-2,-4.4373114E-2,9.238895E-3,5.0213486E-2,1.335946E-2,-5.2982595E-2],"categories":[],"categories_nodes":[],"categories_segments":[],"categories_sizes":[],"default_left":[0,0,0,0,0,0,0,0,0,0,0,0,0],"id":43,"left_children":[1,3,5,7,-1,9,11,-1,-1,-1,-1,-1,-1],"loss_changes":[1.7425408E3,1.1178766E2,7.227319E1,2.1077698E1,0E0,3.41177E-1,2.482605E0,0E0,0E0,0E0,0E0,0E0,0E0],"parents":[2147483647,0,0,1,1,2,2,3,3,5,5,6,6],"right_children":[2,4,6,8,-1,10,12,-1,-1,-1,-1,-1,-1],"split_conditions":[-2.5509638E-1,6.687185E-1,-8.9201495E-2,8.900516E-2,-5.12523E-2,-8.113027E-3,-5.7834196E-1,5.2982558E-2,-4.4373114E-2,9.238895E-3,5.0213486E-2,1.335946E-2,-5.2982595E-2],"split_indices":[97,0,80,55,0,86,60,0,0,0,0,0,0],"split_type":[0,0,0,0,0,0,0,0,0,0,0,0,0],"sum_hessian":[1.7392555E3,8.801345E2,8.59121E2,8.540523E2,2.6082264E1,1.7261883E1,8.418591E2,8.4916315E2,4.8891454E0,1.0467664E0,1.6215117E1,1.0497986E0,8.4080927E2],"tree_param":{"num_deleted":"0","num_feature":"102","num_nodes":"13","size_leaf_vector":"1"}},{"base_weights":[1.0249608E-3,9.830766E-1,-1.0114158E0,-5.111754E-2,1.0510303E0,4.952241E-2,-1.0454619E0,5.2803315E-2,-3.537465E-2,-5.283589E-2,4.3186527E-2],"categories":[],"categories_nodes":[],"categories_segments":[],"categories_sizes":[],"default_left":[0,0,0,0,0,0,0,0,0,0,0],"id":44,"left_children":[1,3,5,-1,7,-1,9,-1,-1,-1,-1],"loss_changes":[1.64274E3,1.1536798E2,5.64812E1,0E0,7.935547E0,0E0,1.8113098E1,0E0,0E0,0E0,0E0],"parents":[2147483647,0,0,1,1,2,2,4,4,6,6],"right_children":[2,4,6,-1,8,-1,10,-1,-1,-1,-1],"split_conditions":[-2.5509638E-1,3.0856103E-1,-2.476019E-1,-5.111754E-2,6.687185E-1,4.952241E-2,3.2201985E-1,5.2803315E-2,-3.537465E-2,-5.283589E-2,4.3186527E-2],"split_indices":[97,25,58,0,0,0,6,0,0,0,0],"split_type":[0,0,0,0,0,0,0,0,0,0,0],"sum_hessian":[1.6502086E3,8.3769073E2,8.125178E2,2.6994436E1,8.106963E2,1.3117773E1,7.994E2,8.087796E2,1.9167246E0,7.9515857E2,4.2414613E0],"tree_param":{"num_deleted":"0","num_feature":"102","num_nodes":"11","size_leaf_vector":"1"}},{"base_weights":[3.9948914E-3,9.8032296E-1,-1.0085099E0,-5.0883394E-2,1.0476488E0,4.9809266E-2,-1.050568E0,5.267137E-2,-3.6463123E-2,2.5834635E-2,-5.2670438E-2],"categories":[],"categories_nodes":[],"categories_segments":[],"categories_sizes":[],"default_left":[0,0,0,0,0,0,0,0,0,0,0],"id":45,"left_children":[1,3,5,-1,7,-1,9,-1,-1,-1,-1],"loss_changes":[1.5624397E3,1.0930505E2,6.646594E1,0E0,8.766174E0,0E0,3.9299316E0,0E0,0E0,0E0,0E0],"parents":[2147483647,0,0,1,1,2,2,4,4,6,6],"right_children":[2,4,6,-1,8,-1,10,-1,-1,-1,-1],"split_conditions":[-2.5509638E-1,3.0856103E-1,-8.9201495E-2,-5.0883394E-2,6.687185E-1,4.9809266E-2,-2.4180752E-1,5.267137E-2,-3.6463123E-2,2.5834635E-2,-5.2670438E-2],"split_indices":[97,25,80,0,0,0,58,0,0,0,0],"split_type":[0,0,0,0,0,0,0,0,0,0,0],"sum_hessian":[1.5785577E3,8.03652E2,7.7490576E2,2.5737562E1,7.779144E2,1.5457131E1,7.594486E2,7.7579865E2,2.1157458E0,1.0467683E0,7.5840186E2],"tree_param":{"num_deleted":"0","num_feature":"102","num_nodes":"11","size_leaf_vector":"1"}},{"base_weights":[1.497658E-3,9.7830814E-1,-1.0059911E0,-5.0652903E-2,1.0454044E0,-5.2500576E-2,7.531158E-1,5.2527677E-2,-3.4445442E-2,-3.6303308E-2,4.9742654E-2],"categories":[],"categories_nodes":[],"categories_segments":[],"categories_sizes":[],"default_left":[0,0,0,0,0,0,0,0,0,0,0],"id":46,"left_children":[1,3,5,-1,7,-1,9,-1,-1,-1,-1],"loss_changes":[1.4864843E3,1.03528015E2,5.83692E1,0E0,7.3534546E0,0E0,7.4214716E0,0E0,0E0,0E0,0E0],"parents":[2147483647,0,0,1,1,2,2,4,4,6,6],"right_children":[2,4,6,-1,8,-1,10,-1,-1,-1,-1],"split_conditions":[-2.5509638E-1,3.0856103E-1,3.5227937E-1,-5.0652903E-2,6.687185E-1,-5.2500576E-2,-1.0248731E-1,5.2527677E-2,-3.4445442E-2,-3.6303308E-2,4.9742654E-2],"split_indices":[97,25,77,0,0,0,4,0,0,0,0],"split_type":[0,0,0,0,0,0,0,0,0,0,0],"sum_hessian":[1.5084619E3,7.659065E2,7.425555E2,2.4505451E1,7.4140106E2,7.2482043E2,1.7735006E1,7.395995E2,1.8015897E0,2.2097979E0,1.5525208E1],"tree_param":{"num_deleted":"0","num_feature":"102","num_nodes":"11","size_leaf_vector":"1"}},{"base_weights":[-1.7478992E-3,-9.862029E-1,9.6974117E-1,-1.0469956E0,9.5769775E-1,1.0383612E0,-5.698338E-1,-5.2412666E-2,-6.367708E-3,1.8117279E-3,5.002091E-2,5.2398097E-2,-4.001562E-2,4.5718256E-2,-5.0375916E-2],"categories":[],"categories_nodes":[],"categories_segments":[],"categories_sizes":[],"default_left":[0,0,0,0,0,0,0,0,0,0,0,0,0,0,0],"id":47,"left_children":[1,3,5,7,9,11,13,-1,-1,-1,-1,-1,-1,-1,-1],"loss_changes":[1.380858E3,8.574933E1,7.73645E1,6.713257E-1,8.4038734E-1,1.312561E1,2.1483517E1,0E0,0E0,0E0,0E0,0E0,0E0,0E0,0E0],"parents":[2147483647,0,0,1,1,2,2,3,3,4,4,5,5,6,6],"right_children":[2,4,6,8,10,12,14,-1,-1,-1,-1,-1,-1,-1,-1],"split_conditions":[3.94312E-1,4.9261433E-1,-3.4947824E-3,2.834949E-1,2.2408867E-1,-2.650105E-1,-2.4778644E-2,-5.2412666E-2,-6.367708E-3,1.8117279E-3,5.002091E-2,5.2398097E-2,-4.001562E-2,4.5718256E-2,-5.0375916E-2],"split_indices":[25,53,100,17,32,11,2,0,0,0,0,0,0,0,0],"split_type":[0,0,0,0,0,0,0,0,0,0,0,0,0,0,0],"sum_hessian":[1.4418274E3,7.1612726E2,7.2570013E2,6.948579E2,2.126931E1,6.950469E2,3.0653225E1,6.9376935E2,1.0885782E0,1.024276E0,2.0245035E1,6.918644E2,3.182534E0,6.7328534E0,2.3920372E1],"tree_param":{"num_deleted":"0","num_feature":"102","num_nodes":"15","size_leaf_vector":"1"}},{"base_weights":[-2.483866E-3,9.7011214E-1,-1.0015104E0,-5.02593E-2,1.0391206E0,-1.0443925E0,7.493315E-1,-3.5496756E-2,5.2262094E-2,-8.499718E-3,-5.2275877E-2,-3.4515984E-2,4.912373E-2],"categories":[],"categories_nodes":[],"categories_segments":[],"categories_sizes":[],"default_left":[0,0,0,0,0,0,0,0,0,0,0,0,0],"id":48,"left_children":[1,3,5,-1,7,9,11,-1,-1,-1,-1,-1,-1],"loss_changes":[1.3292203E3,9.553235E1,5.144867E1,0E0,7.918213E0,4.706421E-1,6.2886095E0,0E0,0E0,0E0,0E0,0E0,0E0],"parents":[2147483647,0,0,1,1,2,2,4,4,5,5,6,6],"right_children":[2,4,6,-1,8,10,12,-1,-1,-1,-1,-1,-1],"split_conditions":[-2.5509638E-1,3.0856103E-1,3.5227937E-1,-5.02593E-2,2.7207673E-1,-4.6584418E-1,-9.345694E-2,-3.5496756E-2,5.2262094E-2,-8.499718E-3,-5.2275877E-2,-3.4515984E-2,4.912373E-2],"split_indices":[97,25,77,0,53,11,4,0,0,0,0,0,0],"split_type":[0,0,0,0,0,0,0,0,0,0,0,0,0],"sum_hessian":[1.3660043E3,6.921727E2,6.738315E2,2.2907303E1,6.6926544E2,6.581162E2,1.5715256E1,1.9331199E0,6.6733234E2,1.0411015E0,6.5707513E2,1.9169886E0,1.3798267E1],"tree_param":{"num_deleted":"0","num_feature":"102","num_nodes":"13","size_leaf_vector":"1"}},{"base_weights":[2.6014042E-3,9.4890875E-1,-1.0207396E0,-5.0450988E-2,1.0320429E0,4.5589007E-2,-5.213811E-2,-4.089667E-2,5.214692E-2],"categories":[],"categories_nodes":[],"categories_segments":[],"categories_sizes":[],"default_left":[0,0,0,0,0,0,0,0,0],"id":49,"left_children":[1,3,5,-1,7,-1,-1,-1,-1],"loss_changes":[1.2651855E3,1.1152765E2,2.766455E1,0E0,1.3987732E1,0E0,0E0,0E0,0E0],"parents":[2147483647,0,0,1,1,2,2,4,4],"right_children":[2,4,6,-1,8,-1,-1,-1,-1],"split_conditions":[-2.448936E-1,3.0856103E-1,-1.1257873E-1,-5.0450988E-2,2.7207673E-1,4.5589007E-2,-5.213811E-2,-4.089667E-2,5.214692E-2],"split_indices":[97,25,80,0,53,0,0,0,0],"split_type":[0,0,0,0,0,0,0,0,0],"sum_hessian":[1.3044763E3,6.777852E2,6.266911E2,2.7153097E1,6.5063214E2,6.605923E0,6.200852E2,3.3757975E0,6.472563E2],"tree_param":{"num_deleted":"0","num_feature":"102","num_nodes":"9","size_leaf_vector":"1"}},{"base_weights":[-2.0765208E-3,9.4077474E-1,-1.0204488E0,-8.951269E-1,1.0349693E0,4.4691235E-2,-5.2036125E-2,3.35011E-2,-5.050533E-2,-3.3008594E-2,5.202908E-2],"categories":[],"categories_nodes":[],"categories_segments":[],"categories_sizes":[],"default_left":[0,0,0,0,0,0,0,0,0,0,0],"id":50,"left_children":[1,3,5,7,9,-1,-1,-1,-1,-1,-1],"loss_changes":[1.1964183E3,1.12815796E2,2.4178223E1,6.455763E0,6.5463257E0,0E0,0E0,0E0,0E0,0E0,0E0],"parents":[2147483647,0,0,1,1,2,2,3,3,4,4],"right_children":[2,4,6,8,10,-1,-1,-1,-1,-1,-1],"split_conditions":[-2.448936E-1,3.3891204E-1,-1.1257873E-1,1.564944E-1,2.7207673E-1,4.4691235E-2,-5.2036125E-2,3.35011E-2,-5.050533E-2,-3.3008594E-2,5.202908E-2],"split_indices":[97,25,80,0,53,0,0,0,0,0,0],"split_type":[0,0,0,0,0,0,0,0,0,0,0],"sum_hessian":[1.244044E3,6.460138E2,5.9803015E2,3.1112465E1,6.149013E2,5.8156886E0,5.922144E2,1.7988255E0,2.9313639E1,1.6442348E0,6.132571E2],"tree_param":{"num_deleted":"0","num_feature":"102","num_nodes":"11","size_leaf_vector":"1"}},{"base_weights":[-1.5108308E-3,9.651017E-1,-9.9161553E-1,-4.953949E-2,1.0318952E0,-1.0365427E0,7.712915E-1,-3.3943567E-2,5.191148E-2,-5.6330403E-3,-5.1910378E-2,4.848003E-2,-3.1198338E-2],"categories":[],"categories_nodes":[],"categories_segments":[],"categories_sizes":[],"default_left":[0,0,0,0,0,0,0,0,0,0,0,0,0],"id":51,"left_children":[1,3,5,-1,7,9,11,-1,-1,-1,-1,-1,-1],"loss_changes":[1.1316055E3,7.918408E1,4.706128E1,0E0,6.979492E0,7.598877E-1,4.779999E0,0E0,0E0,0E0,0E0,0E0,0E0],"parents":[2147483647,0,0,1,1,2,2,4,4,5,5,6,6],"right_children":[2,4,6,-1,8,10,12,-1,-1,-1,-1,-1,-1],"split_conditions":[-2.5509638E-1,3.0856103E-1,3.5227937E-1,-4.953949E-2,2.7207673E-1,-4.7013193E-1,1.4465608E-1,-3.3943567E-2,5.191148E-2,-5.6330403E-3,-5.1910378E-2,4.848003E-2,-3.1198338E-2],"split_indices":[97,25,77,0,53,11,5,0,0,0,0,0,0],"split_type":[0,0,0,0,0,0,0,0,0,0,0,0,0],"sum_hessian":[1.180392E3,5.972946E2,5.830974E2,1.926716E1,5.7802747E2,5.690084E2,1.4088957E1,1.7406514E0,5.762868E2,1.1471206E0,5.678613E2,1.2602788E1,1.4861696E0],"tree_param":{"num_deleted":"0","num_feature":"102","num_nodes":"13","size_leaf_vector":"1"}},{"base_weights":[1.4040757E-3,9.639143E-1,-9.902413E-1,-4.937122E-2,1.0309299E0,9.141851E-1,-1.0340124E0,5.180743E-2,-3.1070909E-2,1.017649E-2,4.787369E-2,3.0332427E-3,-5.1806808E-2],"categories":[],"categories_nodes":[],"categories_segments":[],"categories_sizes":[],"default_left":[0,0,0,0,0,0,0,0,0,0,0,0,0],"id":52,"left_children":[1,3,5,-1,7,9,11,-1,-1,-1,-1,-1,-1],"loss_changes":[1.0887083E3,7.671088E1,4.7777954E1,0E0,5.473633E0,2.097702E-1,1.3406982E0,0E0,0E0,0E0,0E0,0E0,0E0],"parents":[2147483647,0,0,1,1,2,2,4,4,5,5,6,6],"right_children":[2,4,6,-1,8,10,12,-1,-1,-1,-1,-1,-1],"split_conditions":[-2.5509638E-1,3.0856103E-1,-8.9201495E-2,-4.937122E-2,-1.560284E-1,9.801367E-2,-5.600163E-1,5.180743E-2,-3.1070909E-2,1.017649E-2,4.787369E-2,3.0332427E-3,-5.1806808E-2],"split_indices":[97,25,80,0,78,6,60,0,0,0,0,0,0],"split_type":[0,0,0,0,0,0,0,0,0,0,0,0,0],"sum_hessian":[1.138643E3,5.778239E2,5.608191E2,1.8729546E1,5.5909436E2,1.2153446E1,5.4866565E2,5.577059E2,1.388485E0,1.0251763E0,1.1128269E1,1.0089507E0,5.476567E2],"tree_param":{"num_deleted":"0","num_feature":"102","num_nodes":"13","size_leaf_vector":"1"}},{"base_weights":[1.2915247E-4,9.584719E-1,-9.9113834E-1,-4.924718E-2,1.027671E0,4.748677E-2,-1.0317597E0,5.170691E-2,-3.310158E-2,5.5071E-4,-5.1721122E-2],"categories":[],"categories_nodes":[],"categories_segments":[],"categories_sizes":[],"default_left":[0,0,0,0,0,0,0,0,0,0,0],"id":53,"left_children":[1,3,5,-1,7,-1,9,-1,-1,-1,-1],"loss_changes":[1.0315217E3,7.525879E1,4.3061523E1,0E0,6.515503E0,0E0,1.4642944E0,0E0,0E0,0E0,0E0],"parents":[2147483647,0,0,1,1,2,2,4,4,6,6],"right_children":[2,4,6,-1,8,-1,10,-1,-1,-1,-1],"split_conditions":[-2.5509638E-1,3.0856103E-1,-1.18811235E-1,-4.924718E-2,-1.560284E-1,4.748677E-2,-4.7013193E-1,5.170691E-2,-3.310158E-2,5.5071E-4,-5.1721122E-2],"split_indices":[97,25,80,0,78,0,11,0,0,0,0],"split_type":[0,0,0,0,0,0,0,0,0,0,0],"sum_hessian":[1.0838422E3,5.510898E2,5.327524E2,1.8492949E1,5.325968E2,1.0462822E1,5.2228955E2,5.3095264E2,1.6441983E0,1.322256E0,5.209673E2],"tree_param":{"num_deleted":"0","num_feature":"102","num_nodes":"11","size_leaf_vector":"1"}},{"base_weights":[-3.017127E-3,9.5734584E-1,-9.8769945E-1,1.0196763E0,-4.8799336E-2,8.929992E-1,-1.0289998E0,-3.9296206E-2,5.1610507E-2,9.930566E-3,4.702748E-2,1.2216012E-2,-5.161041E-2],"categories":[],"categories_nodes":[],"categories_segments":[],"categories_sizes":[],"default_left":[0,0,0,0,0,0,0,0,0,0,0,0,0],"id":54,"left_children":[1,3,5,7,-1,9,11,-1,-1,-1,-1,-1,-1],"loss_changes":[9.736667E2,6.380887E1,4.0406128E1,1.2250305E1,0E0,1.9156933E-1,2.286316E0,0E0,0E0,0E0,0E0,0E0,0E0],"parents":[2147483647,0,0,1,1,2,2,3,3,5,5,6,6],"right_children":[2,4,6,8,-1,10,12,-1,-1,-1,-1,-1,-1],"split_conditions":[-2.5509638E-1,6.687185E-1,-8.9201495E-2,2.5673553E-1,-4.8799336E-2,8.4903136E-2,-4.8063296E-1,-3.9296206E-2,5.1610507E-2,9.930566E-3,4.702748E-2,1.2216012E-2,-5.161041E-2],"split_indices":[97,0,80,53,0,68,11,0,0,0,0,0,0],"split_type":[0,0,0,0,0,0,0,0,0,0,0,0,0],"sum_hessian":[1.0276244E3,5.2025055E2,5.073738E2,5.0445938E2,1.579117E1,1.0459445E1,4.9691437E2,3.0522444E0,5.0140714E2,1.0021226E0,9.457322E0,1.060049E0,4.958543E2],"tree_param":{"num_deleted":"0","num_feature":"102","num_nodes":"13","size_leaf_vector":"1"}},{"base_weights":[-2.1800797E-3,9.98702E-1,-7.6714957E-1,-4.436083E-2,1.0283164E0,6.9026434E-1,-9.9215084E-1,5.1510226E-2,6.173074E-3,-4.7642704E-2,5.077925E-2,1.665859E-1,-1.0198286E0,-4.236534E-2,4.4767566E-2,-5.1458906E-2,3.5159104E-2],"categories":[],"categories_nodes":[],"categories_segments":[],"categories_sizes":[],"default_left":[0,0,0,0,0,0,0,0,0,0,0,0,0,0,0,0,0],"id":55,"left_children":[1,3,5,-1,7,9,11,-1,-1,-1,-1,13,15,-1,-1,-1,-1],"loss_changes":[7.5086206E2,2.463974E1,1.8296045E2,0E0,5.881958E-1,4.1019722E1,1.5625763E1,0E0,0E0,0E0,0E0,9.700938E0,8.308502E0,0E0,0E0,0E0,0E0],"parents":[2147483647,0,0,1,1,2,2,4,4,5,5,6,6,11,11,12,12],"right_children":[2,4,6,-1,8,10,12,-1,-1,-1,-1,14,16,-1,-1,-1,-1],"split_conditions":[-2.0409739E-1,2.701418E-1,-4.9796566E-2,-4.436083E-2,3.919868E-2,4.23347E-2,-4.419792E-1,5.1510226E-2,6.173074E-3,-4.7642704E-2,5.077925E-2,4.2300475E-1,1.9419095E-1,-4.236534E-2,4.4767566E-2,-5.1458906E-2,3.5159104E-2],"split_indices":[58,53,80,0,100,79,78,0,0,0,0,0,66,0,0,0,0],"split_type":[0,0,0,0,0,0,0,0,0,0,0,0,0,0,0,0,0],"sum_hessian":[9.7869244E2,4.2383862E2,5.548538E2,6.1048894E0,4.1773373E2,7.3927986E1,4.809258E2,4.1672565E2,1.0080885E0,1.1899154E1,6.202883E1,1.1102347E1,4.698235E2,4.5748878E0,6.5274596E0,4.6768832E2,2.1351504E0],"tree_param":{"num_deleted":"0","num_feature":"102","num_nodes":"17","size_leaf_vector":"1"}},{"base_weights":[-4.234452E-4,9.315541E-1,-1.0077657E0,-8.719223E-1,1.0243224E0,4.2465977E-2,-5.1431548E-2,3.0103311E-2,-4.9406227E-2,-2.6036238E-2,5.1440757E-2],"categories":[],"categories_nodes":[],"categories_segments":[],"categories_sizes":[],"default_left":[0,0,0,0,0,0,0,0,0,0,0],"id":56,"left_children":[1,3,5,7,9,-1,-1,-1,-1,-1,-1],"loss_changes":[8.798842E2,8.234131E1,1.832605E1,4.766733E0,3.7528381E0,0E0,0E0,0E0,0E0,0E0,0E0],"parents":[2147483647,0,0,1,1,2,2,3,3,4,4],"right_children":[2,4,6,8,10,-1,-1,-1,-1,-1,-1],"split_conditions":[-2.448936E-1,3.3891204E-1,-1.1257873E-1,1.564944E-1,2.7207673E-1,4.2465977E-2,-5.1431548E-2,3.0103311E-2,-4.9406227E-2,-2.6036238E-2,5.1440757E-2],"split_indices":[97,25,80,0,53,0,0,0,0,0,0],"split_type":[0,0,0,0,0,0,0,0,0,0,0],"sum_hessian":[9.352233E2,4.8582278E2,4.494005E2,2.335661E1,4.624662E2,4.551996E0,4.448485E2,1.4012308E0,2.1955378E1,1.0077131E0,4.6145847E2],"tree_param":{"num_deleted":"0","num_feature":"102","num_nodes":"11","size_leaf_vector":"1"}},{"base_weights":[2.2470756E-3,9.2984825E-1,-1.0071168E0,5.1356453E-2,-6.419468E-1,4.1586153E-2,-5.1347654E-2,4.2492263E-2,-4.936909E-2],"categories":[],"categories_nodes":[],"categories_segments":[],"categories_sizes":[],"default_left":[0,0,0,0,0,0,0,0,0],"id":57,"left_children":[1,3,5,-1,7,-1,-1,-1,-1],"loss_changes":[8.3316345E2,7.156299E1,1.6398193E1,0E0,1.5083685E1,0E0,0E0,0E0,0E0],"parents":[2147483647,0,0,1,1,2,2,4,4],"right_children":[2,4,6,-1,8,-1,-1,-1,-1],"split_conditions":[-2.448936E-1,6.51899E-1,-1.1257873E-1,5.1356453E-2,-5.199516E-1,4.1586153E-2,-5.1347654E-2,4.2492263E-2,-4.936909E-2],"split_indices":[97,0,80,0,11,0,0,0,0],"split_type":[0,0,0,0,0,0,0,0,0],"sum_hessian":[8.8785864E2,4.627094E2,4.2514923E2,4.360671E2,2.6642323E1,4.100478E0,4.2104877E2,4.7347336E0,2.1907589E1],"tree_param":{"num_deleted":"0","num_feature":"102","num_nodes":"9","size_leaf_vector":"1"}},{"base_weights":[2.563631E-3,9.2714274E-1,-1.0045531E0,-8.016651E-1,1.0228065E0,4.169519E-2,-5.1284254E-2,3.510387E-2,-4.9144063E-2,5.1278353E-2,-2.5093292E-3],"categories":[],"categories_nodes":[],"categories_segments":[],"categories_sizes":[],"default_left":[0,0,0,0,0,0,0,0,0,0,0],"id":58,"left_children":[1,3,5,7,9,-1,-1,-1,-1,-1,-1],"loss_changes":[7.934385E2,7.4292206E1,1.6700256E1,7.1904316E0,1.2996826E0,0E0,0E0,0E0,0E0,0E0,0E0],"parents":[2147483647,0,0,1,1,2,2,3,3,4,4],"right_children":[2,4,6,8,10,-1,-1,-1,-1,-1,-1],"split_conditions":[-2.448936E-1,3.4911025E-1,-1.1257873E-1,1.564944E-1,3.835625E-1,4.169519E-2,-5.1284254E-2,3.510387E-2,-4.9144063E-2,5.1278353E-2,-2.5093292E-3],"split_indices":[97,25,80,0,94,0,0,0,0,0,0],"split_type":[0,0,0,0,0,0,0,0,0,0,0],"sum_hessian":[8.5009753E2,4.4325168E2,4.0684586E2,2.2854362E1,4.203973E2,4.18624E0,4.026596E2,2.1488469E0,2.0705515E1,4.193626E2,1.0346804E0],"tree_param":{"num_deleted":"0","num_feature":"102","num_nodes":"11","size_leaf_vector":"1"}},{"base_weights":[-5.4567325E-4,9.272046E-1,-1.0027397E0,-8.045099E-1,1.0208709E0,4.142743E-2,-5.120879E-2,3.3825528E-2,-4.8908144E-2,5.1202234E-2,-3.044289E-3],"categories":[],"categories_nodes":[],"categories_segments":[],"categories_sizes":[],"default_left":[0,0,0,0,0,0,0,0,0,0,0],"id":59,"left_children":[1,3,5,7,9,-1,-1,-1,-1,-1,-1],"loss_changes":[7.565867E2,6.9361176E1,1.6204102E1,6.3820076E0,1.440094E0,0E0,0E0,0E0,0E0,0E0,0E0],"parents":[2147483647,0,0,1,1,2,2,3,3,4,4],"right_children":[2,4,6,8,10,-1,-1,-1,-1,-1,-1],"split_conditions":[-2.448936E-1,3.4911025E-1,-1.1257873E-1,1.564944E-1,3.6736645E-3,4.142743E-2,-5.120879E-2,3.3825528E-2,-4.8908144E-2,5.1202234E-2,-3.044289E-3],"split_indices":[97,25,80,0,43,0,0,0,0,0,0],"split_type":[0,0,0,0,0,0,0,0,0,0,0],"sum_hessian":[8.1172156E2,4.215549E2,3.9016666E2,2.1241966E1,4.0031293E2,4.078619E0,3.8608804E2,1.9253793E0,1.9316587E1,3.9919513E2,1.1178254E0],"tree_param":{"num_deleted":"0","num_feature":"102","num_nodes":"11","size_leaf_vector":"1"}},{"base_weights":[-2.7331065E-3,9.4688433E-1,-9.7776246E-1,-4.7716007E-2,1.0152907E0,4.5521047E-2,-1.0190016E0,-2.9761935E-2,5.1123846E-2,-5.1137466E-2,1.5267864E-3],"categories":[],"categories_nodes":[],"categories_segments":[],"categories_sizes":[],"default_left":[0,0,0,0,0,0,0,0,0,0,0],"id":60,"left_children":[1,3,5,-1,7,-1,9,-1,-1,-1,-1],"loss_changes":[7.152108E2,5.1862305E1,3.0604553E1,0E0,4.985901E0,0E0,1.5001526E0,0E0,0E0,0E0,0E0],"parents":[2147483647,0,0,1,1,2,2,4,4,6,6],"right_children":[2,4,6,-1,8,-1,10,-1,-1,-1,-1],"split_conditions":[-2.5509638E-1,3.0856103E-1,-1.1257873E-1,-4.7716007E-2,2.7207673E-1,4.5521047E-2,4.808445E-1,-2.9761935E-2,5.1123846E-2,-5.1137466E-2,1.5267864E-3],"split_indices":[97,25,80,0,53,0,25,0,0,0,0],"split_type":[0,0,0,0,0,0,0,0,0,0,0],"sum_hessian":[7.704453E2,3.9032352E2,3.8012177E2,1.3106513E1,3.77217E2,7.6741652E0,3.724476E2,1.3121399E0,3.7590488E2,3.711478E2,1.2998104E0],"tree_param":{"num_deleted":"0","num_feature":"102","num_nodes":"11","size_leaf_vector":"1"}},{"base_weights":[-3.6461456E-3,9.21244E-1,-9.9781704E-1,-7.908019E-1,1.018731E0,5.2961856E-1,-1.0191051E0,3.3709656E-2,-4.8633493E-2,4.4951094E-3,5.1059663E-2,-1.5831908E-2,3.9956972E-2,-1.5633946E-2,-5.106504E-2],"categories":[],"categories_nodes":[],"categories_segments":[],"categories_sizes":[],"default_left":[0,0,0,0,0,0,0,0,0,0,0,0,0,0,0],"id":61,"left_children":[1,3,5,7,9,11,13,-1,-1,-1,-1,-1,-1,-1,-1],"loss_changes":[6.760193E2,6.437448E1,1.2061188E1,6.2728405E0,7.333374E-1,1.5139948E0,2.2323608E-1,0E0,0E0,0E0,0E0,0E0,0E0,0E0,0E0],"parents":[2147483647,0,0,1,1,2,2,3,3,4,4,5,5,6,6],"right_children":[2,4,6,8,10,12,14,-1,-1,-1,-1,-1,-1,-1,-1],"split_conditions":[-2.448936E-1,3.4911025E-1,-3.2444623E-1,1.564944E-1,-1.1664703E-1,1.0714648E-1,-2.1708228E-1,3.3709656E-2,-4.8633493E-2,4.4951094E-3,5.1059663E-2,-1.5831908E-2,3.9956972E-2,-1.5633946E-2,-5.106504E-2],"split_indices":[97,25,49,0,48,2,58,0,0,0,0,0,0,0,0],"split_type":[0,0,0,0,0,0,0,0,0,0,0,0,0,0,0],"sum_hessian":[7.3320435E2,3.79875E2,3.5332935E2,2.0082289E1,3.5979272E2,4.528479E0,3.4880087E2,1.9187996E0,1.8163488E1,1.0504149E0,3.587423E2,1.0516454E0,3.4768336E0,1.525137E0,3.4727573E2],"tree_param":{"num_deleted":"0","num_feature":"102","num_nodes":"15","size_leaf_vector":"1"}},{"base_weights":[-1.2667009E-3,9.4360083E-1,-9.7319305E-1,1.0069292E0,-4.702748E-2,4.235569E-2,-1.0171708E0,-3.52114E-2,5.0988007E-2,-4.024078E-3,-5.0986446E-2],"categories":[],"categories_nodes":[],"categories_segments":[],"categories_sizes":[],"default_left":[0,0,0,0,0,0,0,0,0,0,0],"id":62,"left_children":[1,3,5,7,-1,-1,9,-1,-1,-1,-1],"loss_changes":[6.425515E2,4.3279724E1,2.847226E1,8.265015E0,0E0,0E0,7.2595215E-1,0E0,0E0,0E0,0E0],"parents":[2147483647,0,0,1,1,2,2,3,3,6,6],"right_children":[2,4,6,8,-1,-1,10,-1,-1,-1,-1],"split_conditions":[-2.5509638E-1,6.687185E-1,-8.9201495E-2,2.5673553E-1,-4.702748E-2,4.235569E-2,-2.2143987E-1,-3.52114E-2,5.0988007E-2,-4.024078E-3,-5.0986446E-2],"split_indices":[97,0,80,53,0,0,58,0,0,0,0],"split_type":[0,0,0,0,0,0,0,0,0,0,0],"sum_hessian":[6.9768677E2,3.5378268E2,3.4390408E2,3.427288E2,1.1053894E1,7.6817565E0,3.3622232E2,2.1497598E0,3.40579E2,1.004118E0,3.352182E2],"tree_param":{"num_deleted":"0","num_feature":"102","num_nodes":"11","size_leaf_vector":"1"}},{"base_weights":[4.9789727E-5,-9.558083E-1,9.41849E-1,-5.089286E-2,4.507743E-2,1.01034E0,-5.5716854E-1,-2.6944507E-2,5.087029E-2,3.8280055E-2,-4.695298E-2],"categories":[],"categories_nodes":[],"categories_segments":[],"categories_sizes":[],"default_left":[0,0,0,0,0,0,0,0,0,0,0],"id":63,"left_children":[1,3,5,-1,-1,7,9,-1,-1,-1,-1],"loss_changes":[6.0023694E2,3.905417E1,3.5044495E1,0E0,0E0,4.0679016E0,8.4575405E0,0E0,0E0,0E0,0E0],"parents":[2147483647,0,0,1,1,2,2,5,5,6,6],"right_children":[2,4,6,-1,-1,8,10,-1,-1,-1,-1],"split_conditions":[3.94312E-1,4.9261433E-1,-3.4947824E-3,-5.089286E-2,4.507743E-2,2.7842844E-1,-2.4778644E-2,-2.6944507E-2,5.087029E-2,3.8280055E-2,-4.695298E-2],"split_indices":[25,53,100,0,0,53,2,0,0,0,0],"split_type":[0,0,0,0,0,0,0,0,0,0,0],"sum_hessian":[6.6476227E2,3.299113E2,3.3485095E2,3.1968356E2,1.0227716E1,3.2053168E2,1.4319285E1,1.1135185E0,3.1941815E2,2.9828207E0,1.1336465E1],"tree_param":{"num_deleted":"0","num_feature":"102","num_nodes":"11","size_leaf_vector":"1"}},{"base_weights":[7.887043E-4,9.1716564E-1,-9.970535E-1,-7.8579503E-1,1.01438E0,3.8701337E-2,-5.0875988E-2,3.1876218E-2,-4.8115905E-2,5.0870657E-2,3.234173E-3],"categories":[],"categories_nodes":[],"categories_segments":[],"categories_sizes":[],"default_left":[0,0,0,0,0,0,0,0,0,0,0],"id":64,"left_children":[1,3,5,7,9,-1,-1,-1,-1,-1,-1],"loss_changes":[5.8653546E2,5.6152863E1,1.1918121E1,5.291855E0,8.4664917E-1,0E0,0E0,0E0,0E0,0E0,0E0],"parents":[2147483647,0,0,1,1,2,2,3,3,4,4],"right_children":[2,4,6,8,10,-1,-1,-1,-1,-1,-1],"split_conditions":[-2.448936E-1,3.4911025E-1,-1.1257873E-1,1.564944E-1,-1.6959904E-1,3.8701337E-2,-5.0875988E-2,3.1876218E-2,-4.8115905E-2,5.0870657E-2,3.234173E-3],"split_indices":[97,25,80,0,78,0,0,0,0,0,0],"split_type":[0,0,0,0,0,0,0,0,0,0,0],"sum_hessian":[6.394432E2,3.3337042E2,3.0607272E2,1.7620407E1,3.1575003E2,3.0758708E0,3.0299686E2,1.6560425E0,1.5964365E1,3.146737E2,1.0763075E0],"tree_param":{"num_deleted":"0","num_feature":"102","num_nodes":"11","size_leaf_vector":"1"}},{"base_weights":[7.6413376E-4,9.180729E-1,-9.9635875E-1,-7.6314694E-1,1.0135993E0,3.7934687E-2,-5.081607E-2,-4.786507E-2,3.2356825E-2,5.081087E-2,6.290226E-3],"categories":[],"categories_nodes":[],"categories_segments":[],"categories_sizes":[],"default_left":[0,0,0,0,0,0,0,0,0,0,0],"id":65,"left_children":[1,3,5,7,9,-1,-1,-1,-1,-1,-1],"loss_changes":[5.5653217E2,5.1669342E1,1.0985382E1,5.441078E0,5.701599E-1,0E0,0E0,0E0,0E0,0E0,0E0],"parents":[2147483647,0,0,1,1,2,2,3,3,4,4],"right_children":[2,4,6,8,10,-1,-1,-1,-1,-1,-1],"split_conditions":[-2.448936E-1,3.4911025E-1,-1.1257873E-1,3.4534183E-1,3.6861244E-1,3.7934687E-2,-5.081607E-2,-4.786507E-2,3.2356825E-2,5.081087E-2,6.290226E-3],"split_indices":[97,25,80,1,94,0,0,0,0,0,0],"split_type":[0,0,0,0,0,0,0,0,0,0,0],"sum_hessian":[6.0645154E2,3.1590878E2,2.9054276E2,1.6609015E1,2.9929977E2,2.8513942E0,2.8769138E2,1.4881474E1,1.7275412E0,2.982755E2,1.0242634E0],"tree_param":{"num_deleted":"0","num_feature":"102","num_nodes":"11","size_leaf_vector":"1"}},{"base_weights":[-2.9823615E-3,-9.5434046E-1,9.3562335E-1,-1.0112504E0,4.535357E-2,1.0069981E0,-5.672E-1,6.50421E-4,-5.0753217E-2,5.075109E-2,-2.6720742E-2,3.670617E-2,-4.643315E-2],"categories":[],"categories_nodes":[],"categories_segments":[],"categories_sizes":[],"default_left":[0,0,0,0,0,0,0,0,0,0,0,0,0],"id":66,"left_children":[1,3,5,7,-1,9,11,-1,-1,-1,-1,-1,-1],"loss_changes":[5.1761163E2,3.141269E1,3.1869614E1,1.1062622E0,0E0,3.9920654E0,7.2057147E0,0E0,0E0,0E0,0E0,0E0,0E0],"parents":[2147483647,0,0,1,1,2,2,3,3,5,5,6,6],"right_children":[2,4,6,8,-1,10,12,-1,-1,-1,-1,-1,-1],"split_conditions":[3.94312E-1,8.0718035E-1,-3.4947824E-3,-3.115284E-1,4.535357E-2,-2.650105E-1,-2.4778644E-2,6.50421E-4,-5.0753217E-2,5.075109E-2,-2.6720742E-2,3.670617E-2,-4.643315E-2],"split_indices":[25,1,100,93,0,11,2,0,0,0,0,0,0],"split_type":[0,0,0,0,0,0,0,0,0,0,0,0,0],"sum_hessian":[5.776647E2,2.8687512E2,2.9078955E2,2.7880774E2,8.067409E0,2.7791998E2,1.2869548E1,1.0253887E0,2.7778235E2,2.7682053E2,1.0994672E0,2.5735147E0,1.0296033E1],"tree_param":{"num_deleted":"0","num_feature":"102","num_nodes":"13","size_leaf_vector":"1"}},{"base_weights":[-3.0675905E-3,9.1355026E-1,-9.9225324E-1,5.069792E-2,-6.5438336E-1,3.7779797E-2,-5.0703336E-2,3.710883E-2,-4.7643796E-2],"categories":[],"categories_nodes":[],"categories_segments":[],"categories_sizes":[],"default_left":[0,0,0,0,0,0,0,0,0],"id":67,"left_children":[1,3,5,-1,7,-1,-1,-1,-1],"loss_changes":[4.9841446E2,4.5581802E1,1.0846222E1,0E0,8.118755E0,0E0,0E0,0E0,0E0],"parents":[2147483647,0,0,1,1,2,2,4,4],"right_children":[2,4,6,-1,8,-1,-1,-1,-1],"split_conditions":[-2.448936E-1,6.51899E-1,-1.1257873E-1,5.069792E-2,-5.199516E-1,3.7779797E-2,-5.0703336E-2,3.710883E-2,-4.7643796E-2],"split_indices":[97,0,80,0,11,0,0,0,0],"split_type":[0,0,0,0,0,0,0,0,0],"sum_hessian":[5.476987E2,2.843165E2,2.6338226E2,2.6753714E2,1.6779358E1,2.8318899E0,2.6055035E2,2.6930313E0,1.4086326E1],"tree_param":{"num_deleted":"0","num_feature":"102","num_nodes":"9","size_leaf_vector":"1"}},{"base_weights":[5.401861E-4,9.37968E-1,-9.648257E-1,-4.5784306E-2,1.0055382E0,-5.055455E-2,6.822995E-1,5.0641973E-2,-2.102791E-2,-1.3280732E-2,4.341599E-2],"categories":[],"categories_nodes":[],"categories_segments":[],"categories_sizes":[],"default_left":[0,0,0,0,0,0,0,0,0,0,0],"id":68,"left_children":[1,3,5,-1,7,-1,9,-1,-1,-1,-1],"loss_changes":[4.7616806E2,3.4356766E1,2.0444016E1,0E0,3.112671E0,0E0,1.5847561E0,0E0,0E0,0E0,0E0],"parents":[2147483647,0,0,1,1,2,2,4,4,6,6],"right_children":[2,4,6,-1,8,-1,10,-1,-1,-1,-1],"split_conditions":[-2.5509638E-1,3.0856103E-1,3.5227937E-1,-4.5784306E-2,-1.6721267E-1,-5.055455E-2,-3.996462E-1,5.0641973E-2,-2.102791E-2,-1.3280732E-2,4.341599E-2],"split_indices":[97,25,77,0,78,0,72,0,0,0,0],"split_type":[0,0,0,0,0,0,0,0,0,0,0],"sum_hessian":[5.241753E2,2.6595016E2,2.582251E2,8.912133E0,2.5703806E2,2.5154572E2,6.6793942E0,2.5601712E2,1.0209395E0,1.0255519E0,5.6538424E0],"tree_param":{"num_deleted":"0","num_feature":"102","num_nodes":"11","size_leaf_vector":"1"}},{"base_weights":[-2.2984406E-3,9.3505615E-1,-9.6350664E-1,-4.560668E-2,1.0042133E0,4.3207463E-2,-1.0090353E0,-1.02558145E-2,5.0589204E-2,-5.0587248E-2,-9.767928E-3],"categories":[],"categories_nodes":[],"categories_segments":[],"categories_sizes":[],"default_left":[0,0,0,0,0,0,0,0,0,0,0],"id":69,"left_children":[1,3,5,-1,7,-1,9,-1,-1,-1,-1],"loss_changes":[4.4991656E2,3.3212357E1,2.1386765E1,0E0,2.4430237E0,0E0,3.3369446E-1,0E0,0E0,0E0,0E0],"parents":[2147483647,0,0,1,1,2,2,4,4,6,6],"right_children":[2,4,6,-1,8,-1,10,-1,-1,-1,-1],"split_conditions":[-2.5509638E-1,3.0856103E-1,-8.9201495E-2,-4.560668E-2,2.939439E-1,4.3207463E-2,2.649513E-1,-1.02558145E-2,5.0589204E-2,-5.0587248E-2,-9.767928E-3],"split_indices":[97,25,80,0,53,0,48,0,0,0,0],"split_type":[0,0,0,0,0,0,0,0,0,0,0],"sum_hessian":[4.9735645E2,2.518164E2,2.4554004E2,8.647668E0,2.4316873E2,5.530959E0,2.4000908E2,1.3505018E0,2.4181824E2,2.389699E2,1.0391873E0],"tree_param":{"num_deleted":"0","num_feature":"102","num_nodes":"11","size_leaf_vector":"1"}},{"base_weights":[2.2165985E-3,9.128017E-1,-9.879078E-1,5.054571E-2,-6.3756025E-1,3.6779344E-2,-5.0549157E-2,3.5710458E-2,-4.6978608E-2],"categories":[],"categories_nodes":[],"categories_segments":[],"categories_sizes":[],"default_left":[0,0,0,0,0,0,0,0,0],"id":70,"left_children":[1,3,5,-1,7,-1,-1,-1,-1],"loss_changes":[4.2844763E2,3.829898E1,9.797882E0,0E0,6.9363017E0,0E0,0E0,0E0,0E0],"parents":[2147483647,0,0,1,1,2,2,4,4],"right_children":[2,4,6,-1,8,-1,-1,-1,-1],"split_conditions":[-2.448936E-1,6.51899E-1,-1.1257873E-1,5.054571E-2,7.641155E-2,3.6779344E-2,-5.0549157E-2,3.5710458E-2,-4.6978608E-2],"split_indices":[97,0,80,0,12,0,0,0,0],"split_type":[0,0,0,0,0,0,0,0,0],"sum_hessian":[4.7321185E2,2.465479E2,2.2666397E2,2.3220132E2,1.4346584E1,2.5866828E0,2.2407729E2,2.370714E0,1.197587E1],"tree_param":{"num_deleted":"0","num_feature":"102","num_nodes":"9","size_leaf_vector":"1"}},{"base_weights":[6.303159E-3,9.3540007E-1,-9.601222E-1,-4.4932347E-2,1.0020972E0,3.926688E-2,-1.0065091E0,5.0493922E-2,-9.337992E-3,-5.0488036E-2,-7.6554264E-3],"categories":[],"categories_nodes":[],"categories_segments":[],"categories_sizes":[],"default_left":[0,0,0,0,0,0,0,0,0,0,0],"id":71,"left_children":[1,3,5,-1,7,-1,9,-1,-1,-1,-1],"loss_changes":[4.0791302E2,2.9233307E1,1.881984E1,0E0,2.2603912E0,0E0,4.485321E-1,0E0,0E0,0E0,0E0],"parents":[2147483647,0,0,1,1,2,2,4,4,6,6],"right_children":[2,4,6,-1,8,-1,10,-1,-1,-1,-1],"split_conditions":[-2.5509638E-1,3.0856103E-1,-8.9201495E-2,-4.4932347E-2,-1.6959904E-1,3.926688E-2,1.9288431E-1,5.0493922E-2,-9.337992E-3,-5.0488036E-2,-7.6554264E-3],"split_indices":[97,25,80,0,78,0,66,0,0,0,0],"split_type":[0,0,0,0,0,0,0,0,0,0,0],"sum_hessian":[4.5229507E2,2.3061742E2,2.2167764E2,7.6546755E0,2.2296274E2,5.3263326E0,2.1635132E2,2.216625E2,1.3002412E0,2.1534756E2,1.0037459E0],"tree_param":{"num_deleted":"0","num_feature":"102","num_nodes":"11","size_leaf_vector":"1"}},{"base_weights":[4.315353E-3,9.1053385E-1,-9.8515624E-1,-7.928913E-1,1.0024921E0,-5.0386067E-2,3.463718E-2,-4.621153E-2,1.6621374E-2,5.0453074E-2,-6.0361973E-3],"categories":[],"categories_nodes":[],"categories_segments":[],"categories_sizes":[],"default_left":[0,0,0,0,0,0,0,0,0,0,0],"id":72,"left_children":[1,3,5,7,9,-1,-1,-1,-1,-1,-1],"loss_changes":[3.883321E2,3.6203735E1,8.536713E0,2.1009703E0,1.7075958E0,0E0,0E0,0E0,0E0,0E0,0E0],"parents":[2147483647,0,0,1,1,2,2,3,3,4,4],"right_children":[2,4,6,8,10,-1,-1,-1,-1,-1,-1],"split_conditions":[-2.448936E-1,3.3891204E-1,3.6609718E-1,4.128591E-1,-1.6959904E-1,-5.0386067E-2,3.463718E-2,-4.621153E-2,1.6621374E-2,5.0453074E-2,-6.0361973E-3],"split_indices":[97,25,77,57,78,0,0,0,0,0,0],"split_type":[0,0,0,0,0,0,0,0,0,0,0],"sum_hessian":[4.3107852E2,2.2504675E2,2.0603178E2,1.1136323E1,2.1391043E2,2.0369186E2,2.339917E0,1.0132431E1,1.0038916E0,2.1276765E2,1.1427757E0],"tree_param":{"num_deleted":"0","num_feature":"102","num_nodes":"11","size_leaf_vector":"1"}},{"base_weights":[2.8180119E-4,9.2958957E-1,-9.5815223E-1,-4.4668954E-2,1.0008216E0,-5.0301027E-2,6.5902543E-1,-9.571461E-3,5.039962E-2,-6.4696516E-3,4.149474E-2],"categories":[],"categories_nodes":[],"categories_segments":[],"categories_sizes":[],"default_left":[0,0,0,0,0,0,0,0,0,0,0],"id":73,"left_children":[1,3,5,-1,7,-1,9,-1,-1,-1,-1],"loss_changes":[3.6580682E2,2.7971344E1,1.6314423E1,0E0,1.912674E0,0E0,9.718301E-1,0E0,0E0,0E0,0E0],"parents":[2147483647,0,0,1,1,2,2,4,4,6,6],"right_children":[2,4,6,-1,8,-1,10,-1,-1,-1,-1],"split_conditions":[-2.5509638E-1,2.963968E-1,3.5227937E-1,-4.4668954E-2,2.939439E-1,-5.0301027E-2,-3.8836268E-1,-9.571461E-3,5.039962E-2,-6.4696516E-3,4.149474E-2],"split_indices":[97,25,77,0,53,0,72,0,0,0,0],"split_type":[0,0,0,0,0,0,0,0,0,0,0],"sum_hessian":[4.0870502E2,2.0752078E2,2.0118425E2,7.3698587E0,2.0015092E2,1.9576746E2,5.416791E0,1.042974E0,1.9910794E2,1.008081E0,4.4087105E0],"tree_param":{"num_deleted":"0","num_feature":"102","num_nodes":"11","size_leaf_vector":"1"}},{"base_weights":[-3.7644522E-3,9.046152E-1,-9.8270154E-1,-7.5848013E-1,1.0040684E0,3.545286E-2,-5.0365865E-2,2.566509E-2,-4.6136703E-2,5.036096E-2,1.0176345E-2],"categories":[],"categories_nodes":[],"categories_segments":[],"categories_sizes":[],"default_left":[0,0,0,0,0,0,0,0,0,0,0],"id":74,"left_children":[1,3,5,7,9,-1,-1,-1,-1,-1,-1],"loss_changes":[3.4970987E2,3.4500854E1,8.596619E0,2.9970393E0,2.815857E-1,0E0,0E0,0E0,0E0,0E0,0E0],"parents":[2147483647,0,0,1,1,2,2,3,3,4,4],"right_children":[2,4,6,8,10,-1,-1,-1,-1,-1,-1],"split_conditions":[-2.448936E-1,3.4911025E-1,-1.1257873E-1,1.564944E-1,8.850185E-2,3.545286E-2,-5.0365865E-2,2.566509E-2,-4.6136703E-2,5.036096E-2,1.0176345E-2],"split_indices":[97,25,80,0,82,0,0,0,0,0,0],"split_type":[0,0,0,0,0,0,0,0,0,0,0],"sum_hessian":[3.912657E2,2.0298595E2,1.8827972E2,1.1079736E1,1.9190622E2,2.3014894E0,1.8597823E2,1.0242379E0,1.0055498E1,1.9089671E2,1.0095088E0],"tree_param":{"num_deleted":"0","num_feature":"102","num_nodes":"11","size_leaf_vector":"1"}},{"base_weights":[-1.1885113E-3,9.290075E-1,-9.560383E-1,-4.381446E-2,9.9679005E-1,-5.020336E-2,6.480397E-1,-1.194052E-2,5.0312456E-2,4.063862E-2,-4.294627E-3],"categories":[],"categories_nodes":[],"categories_segments":[],"categories_sizes":[],"default_left":[0,0,0,0,0,0,0,0,0,0,0],"id":75,"left_children":[1,3,5,-1,7,-1,9,-1,-1,-1,-1],"loss_changes":[3.3250845E2,2.407811E1,1.4882874E1,0E0,2.3818817E0,0E0,7.9258776E-1,0E0,0E0,0E0,0E0],"parents":[2147483647,0,0,1,1,2,2,4,4,6,6],"right_children":[2,4,6,-1,8,-1,10,-1,-1,-1,-1],"split_conditions":[-2.5509638E-1,2.963968E-1,3.5227937E-1,-4.381446E-2,2.939439E-1,-5.020336E-2,-8.9842856E-2,-1.194052E-2,5.0312456E-2,4.063862E-2,-4.294627E-3],"split_indices":[97,25,77,0,53,0,28,0,0,0,0],"split_type":[0,0,0,0,0,0,0,0,0,0,0],"sum_hessian":[3.7236328E2,1.8863036E2,1.8373294E2,6.394472E0,1.8223589E2,1.7875476E2,4.9781723E0,1.2002728E0,1.8103561E2,3.9779022E0,1.00027E0],"tree_param":{"num_deleted":"0","num_feature":"102","num_nodes":"11","size_leaf_vector":"1"}},{"base_weights":[-7.259564E-4,-9.4193727E-1,9.3041646E-1,-5.028816E-2,3.9323613E-2,9.956695E-1,-4.7273353E-1,5.026982E-2,-1.076405E-2,3.2482293E-2,-4.3158412E-2],"categories":[],"categories_nodes":[],"categories_segments":[],"categories_sizes":[],"default_left":[0,0,0,0,0,0,0,0,0,0,0],"id":76,"left_children":[1,3,5,-1,-1,7,9,-1,-1,-1,-1],"loss_changes":[3.1132806E2,2.0279846E1,1.6820786E1,0E0,0E0,2.2301025E0,4.335326E0,0E0,0E0,0E0,0E0],"parents":[2147483647,0,0,1,1,2,2,5,5,6,6],"right_children":[2,4,6,-1,-1,8,10,-1,-1,-1,-1],"split_conditions":[3.94312E-1,4.8404935E-1,-3.4947824E-3,-5.028816E-2,3.9323613E-2,-2.7709484E-1,-2.4778644E-2,5.026982E-2,-1.076405E-2,3.2482293E-2,-4.3158412E-2],"split_indices":[25,53,100,0,0,11,2,0,0,0,0],"split_type":[0,0,0,0,0,0,0,0,0,0,0],"sum_hessian":[3.532344E2,1.7566164E2,1.7757275E2,1.698091E2,5.852537E0,1.6995924E2,7.6135006E0,1.6877335E2,1.1859082E0,1.793587E0,5.8199134E0],"tree_param":{"num_deleted":"0","num_feature":"102","num_nodes":"11","size_leaf_vector":"1"}},{"base_weights":[-1.2835251E-3,-9.4117737E-1,9.2644495E-1,-5.0245114E-2,3.852021E-2,9.9507385E-1,-4.9424508E-1,5.0227195E-2,-1.0193778E-2,3.1701602E-2,-4.3171126E-2],"categories":[],"categories_nodes":[],"categories_segments":[],"categories_sizes":[],"default_left":[0,0,0,0,0,0,0,0,0,0,0],"id":77,"left_children":[1,3,5,-1,-1,7,9,-1,-1,-1,-1],"loss_changes":[2.9565613E2,1.914479E1,1.7129196E1,0E0,0E0,2.0567322E0,4.101024E0,0E0,0E0,0E0,0E0],"parents":[2147483647,0,0,1,1,2,2,5,5,6,6],"right_children":[2,4,6,-1,-1,8,10,-1,-1,-1,-1],"split_conditions":[3.94312E-1,4.8404935E-1,-3.4947824E-3,-5.0245114E-2,3.852021E-2,-2.7709484E-1,-2.4778644E-2,5.0227195E-2,-1.0193778E-2,3.1701602E-2,-4.3171126E-2],"split_indices":[25,53,100,0,0,11,2,0,0,0,0],"split_type":[0,0,0,0,0,0,0,0,0,0,0],"sum_hessian":[3.3706833E2,1.6742915E2,1.6963916E2,1.6181732E2,5.6118355E0,1.6210785E2,7.531315E0,1.6099832E2,1.1095212E0,1.6798753E0,5.8514395E0],"tree_param":{"num_deleted":"0","num_feature":"102","num_nodes":"11","size_leaf_vector":"1"}},{"base_weights":[-3.945198E-3,-9.442247E-1,9.248579E-1,-5.0133657E-2,3.910264E-2,9.940453E-1,-4.901799E-1,5.013464E-2,-3.2770901E-3,3.1315155E-2,-4.292643E-2],"categories":[],"categories_nodes":[],"categories_segments":[],"categories_sizes":[],"default_left":[0,0,0,0,0,0,0,0,0,0,0],"id":78,"left_children":[1,3,5,-1,-1,7,9,-1,-1,-1,-1],"loss_changes":[2.8308218E2,1.7036087E1,1.645198E1,0E0,0E0,1.4932404E0,3.9392471E0,0E0,0E0,0E0,0E0],"parents":[2147483647,0,0,1,1,2,2,5,5,6,6],"right_children":[2,4,6,-1,-1,8,10,-1,-1,-1,-1],"split_conditions":[3.94312E-1,4.9261433E-1,-4.4680394E-2,-5.0133657E-2,3.910264E-2,3.6165897E-2,1.7631732E-1,5.013464E-2,-3.2770901E-3,3.1315155E-2,-4.292643E-2],"split_indices":[25,53,52,0,0,100,0,0,0,0,0],"split_type":[0,0,0,0,0,0,0,0,0,0,0],"sum_hessian":[3.2213956E2,1.6007254E2,1.6206702E2,1.5523572E2,4.8368163E0,1.5479588E2,7.271139E0,1.5359605E2,1.1998315E0,1.6300571E0,5.641082E0],"tree_param":{"num_deleted":"0","num_feature":"102","num_nodes":"11","size_leaf_vector":"1"}},{"base_weights":[1.5923814E-3,9.007631E-1,-9.7911024E-1,-6.2516737E-1,5.015251E-2,3.2204542E-2,-5.015048E-2,3.0664435E-2,-4.508291E-2],"categories":[],"categories_nodes":[],"categories_segments":[],"categories_sizes":[],"default_left":[0,0,0,0,0,0,0,0,0],"id":79,"left_children":[1,3,5,7,-1,-1,-1,-1,-1],"loss_changes":[2.710322E2,2.5653763E1,6.3491974E0,4.2131166E0,0E0,0E0,0E0,0E0,0E0],"parents":[2147483647,0,0,1,1,2,2,3,3],"right_children":[2,4,6,8,-1,-1,-1,-1,-1],"split_conditions":[-2.448936E-1,3.4534183E-1,-1.1257873E-1,-5.199516E-1,5.015251E-2,3.2204542E-2,-5.015048E-2,3.0664435E-2,-4.508291E-2],"split_indices":[97,1,80,11,0,0,0,0,0],"split_type":[0,0,0,0,0,0,0,0,0],"sum_hessian":[3.0535565E2,1.5934213E2,1.4601352E2,9.688979E0,1.4965315E2,1.7421159E0,1.4427141E2,1.5460056E0,8.142973E0],"tree_param":{"num_deleted":"0","num_feature":"102","num_nodes":"9","size_leaf_vector":"1"}},{"base_weights":[-1.7178823E-3,6.6439813E-1,-9.7422636E-1,9.8754376E-1,-8.3399826E-1,3.088741E-2,-5.003933E-2,-5.787574E-3,5.0094802E-2,3.4937035E-2,-4.879967E-2],"categories":[],"categories_nodes":[],"categories_segments":[],"categories_sizes":[],"default_left":[0,0,0,0,0,0,0,0,0,0,0],"id":80,"left_children":[1,3,5,7,9,-1,-1,-1,-1,-1,-1],"loss_changes":[1.9012614E2,8.5165115E1,5.6629333E0,2.3921204E0,7.525343E0,0E0,0E0,0E0,0E0,0E0,0E0],"parents":[2147483647,0,0,1,1,2,2,3,3,4,4],"right_children":[2,4,6,8,10,-1,-1,-1,-1,-1,-1],"split_conditions":[6.51899E-1,-5.427433E-2,-5.199516E-1,-2.1080996E-1,1.7631732E-1,3.088741E-2,-5.003933E-2,-5.787574E-3,5.0094802E-2,3.4937035E-2,-4.879967E-2],"split_indices":[0,52,11,46,0,0,0,0,0,0,0],"split_type":[0,0,0,0,0,0,0,0,0,0,0],"sum_hessian":[2.914944E2,1.7318726E2,1.1830714E2,1.427439E2,3.0443354E1,1.5761638E0,1.1673097E2,1.7423155E0,1.4100159E2,2.2487524E0,2.8194601E1],"tree_param":{"num_deleted":"0","num_feature":"102","num_nodes":"11","size_leaf_vector":"1"}},{"base_weights":[-9.0895296E-4,9.003786E-1,-9.7758055E-1,-7.1005905E-1,9.978583E-1,-4.9991008E-2,2.981222E-2,1.606605E-2,-4.4109218E-2,1.3021709E-2,5.0071705E-2],"categories":[],"categories_nodes":[],"categories_segments":[],"categories_sizes":[],"default_left":[0,0,0,0,0,0,0,0,0,0,0],"id":81,"left_children":[1,3,5,7,9,-1,-1,-1,-1,-1,-1],"loss_changes":[2.4603008E2,2.3527626E1,5.2911224E0,1.8600097E0,1.0169983E-1,0E0,0E0,0E0,0E0,0E0,0E0],"parents":[2147483647,0,0,1,1,2,2,3,3,4,4],"right_children":[2,4,6,8,10,-1,-1,-1,-1,-1,-1],"split_conditions":[-2.448936E-1,3.4911025E-1,3.6609718E-1,-2.2976945E-1,-9.757632E-2,-4.9991008E-2,2.981222E-2,1.606605E-2,-4.4109218E-2,1.3021709E-2,5.0071705E-2],"split_indices":[97,25,77,75,66,0,0,0,0,0,0],"split_type":[0,0,0,0,0,0,0,0,0,0,0],"sum_hessian":[2.774965E2,1.4435843E2,1.3313806E2,7.880612E0,1.3647781E2,1.3164256E2,1.4955096E0,1.0031171E0,6.877495E0,1.014881E0,1.3546294E2],"tree_param":{"num_deleted":"0","num_feature":"102","num_nodes":"11","size_leaf_vector":"1"}},{"base_weights":[1.5267777E-3,-9.3536013E-1,9.217724E-1,-5.0038885E-2,3.7525598E-2,9.908129E-1,-4.707546E-1,6.229143E-3,4.9844436E-2,2.9154373E-2,-4.1499734E-2],"categories":[],"categories_nodes":[],"categories_segments":[],"categories_sizes":[],"default_left":[0,0,0,0,0,0,0,0,0,0,0],"id":82,"left_children":[1,3,5,-1,-1,7,9,-1,-1,-1,-1],"loss_changes":[2.2909123E2,1.5272224E1,1.3353874E1,0E0,0E0,5.4966736E-1,3.1378055E0,0E0,0E0,0E0,0E0],"parents":[2147483647,0,0,1,1,2,2,5,5,6,6],"right_children":[2,4,6,-1,-1,8,10,-1,-1,-1,-1],"split_conditions":[3.94312E-1,4.8404935E-1,-4.4680394E-2,-5.0038885E-2,3.7525598E-2,1.5199785E-2,1.7631732E-1,6.229143E-3,4.9844436E-2,2.9154373E-2,-4.1499734E-2],"split_indices":[25,53,52,0,0,68,0,0,0,0,0],"split_type":[0,0,0,0,0,0,0,0,0,0,0],"sum_hessian":[2.6371588E2,1.3066826E2,1.3304762E2,1.2617847E2,4.4897814E0,1.2703766E2,6.0099573E0,1.0346307E0,1.2600303E2,1.3694677E0,4.6404896E0],"tree_param":{"num_deleted":"0","num_feature":"102","num_nodes":"11","size_leaf_vector":"1"}},{"base_weights":[-4.084372E-3,8.928386E-1,-9.744361E-1,-7.137623E-1,9.950255E-1,3.069493E-2,-4.9991418E-2,-4.3733742E-2,1.2138472E-2,4.9992163E-2,1.0250754E-2],"categories":[],"categories_nodes":[],"categories_segments":[],"categories_sizes":[],"default_left":[0,0,0,0,0,0,0,0,0,0,0],"id":83,"left_children":[1,3,5,7,9,-1,-1,-1,-1,-1,-1],"loss_changes":[2.2144226E2,2.2417633E1,5.5427856E0,1.519001E0,2.697525E-1,0E0,0E0,0E0,0E0,0E0,0E0],"parents":[2147483647,0,0,1,1,2,2,3,3,4,4],"right_children":[2,4,6,8,10,-1,-1,-1,-1,-1,-1],"split_conditions":[-2.448936E-1,3.4911025E-1,-1.3032737E-1,1.4204048E-1,-1.8172935E-1,3.069493E-2,-4.9991418E-2,-4.3733742E-2,1.2138472E-2,4.9992163E-2,1.0250754E-2],"split_indices":[97,25,80,89,78,0,0,0,0,0,0],"split_type":[0,0,0,0,0,0,0,0,0,0,0],"sum_hessian":[2.5243495E2,1.3122237E2,1.21212585E2,7.4893055E0,1.2373306E2,1.5426087E0,1.19669975E2,6.4840956E0,1.0052099E0,1.2271908E2,1.0139856E0],"tree_param":{"num_deleted":"0","num_feature":"102","num_nodes":"11","size_leaf_vector":"1"}},{"base_weights":[-5.1828666E-4,-9.346131E-1,9.1900575E-1,-4.99588E-2,3.5873383E-2,9.889605E-1,-4.561595E-1,4.9850516E-2,3.1349843E-3,-4.088497E-2,2.8563306E-2],"categories":[],"categories_nodes":[],"categories_segments":[],"categories_sizes":[],"default_left":[0,0,0,0,0,0,0,0,0,0,0],"id":84,"left_children":[1,3,5,-1,-1,7,9,-1,-1,-1,-1],"loss_changes":[2.0837866E2,1.3553635E1,1.2212082E1,0E0,0E0,8.072815E-1,2.919647E0,0E0,0E0,0E0,0E0],"parents":[2147483647,0,0,1,1,2,2,5,5,6,6],"right_children":[2,4,6,-1,-1,8,10,-1,-1,-1,-1],"split_conditions":[3.94312E-1,4.8686564E-1,-4.4680394E-2,-4.99588E-2,3.5873383E-2,2.3136627E-2,8.0718035E-1,4.9850516E-2,3.1349843E-3,-4.088497E-2,2.8563306E-2],"split_indices":[25,53,52,0,0,100,1,0,0,0,0],"split_type":[0,0,0,0,0,0,0,0,0,0,0],"sum_hessian":[2.4060469E2,1.1934855E2,1.2125615E2,1.1524019E2,4.108356E0,1.1565368E2,5.602469E0,1.1458151E2,1.0721684E0,4.295172E0,1.3072966E0],"tree_param":{"num_deleted":"0","num_feature":"102","num_nodes":"11","size_leaf_vector":"1"}},{"base_weights":[3.1862865E-4,8.906265E-1,-9.714718E-1,-6.9435537E-1,4.9776603E-2,-4.9818452E-2,2.841537E-2,-4.3273255E-2,1.2476294E-2],"categories":[],"categories_nodes":[],"categories_segments":[],"categories_sizes":[],"default_left":[0,0,0,0,0,0,0,0,0],"id":85,"left_children":[1,3,5,7,-1,-1,-1,-1,-1],"loss_changes":[1.9940753E2,2.0690819E1,4.790756E0,1.5170546E0,0E0,0E0,0E0,0E0,0E0],"parents":[2147483647,0,0,1,1,2,2,3,3],"right_children":[2,4,6,8,-1,-1,-1,-1,-1],"split_conditions":[-2.448936E-1,3.4911025E-1,3.6609718E-1,2.0177719E-1,4.9776603E-2,-4.9818452E-2,2.841537E-2,-4.3273255E-2,1.2476294E-2],"split_indices":[97,25,77,81,0,0,0,0,0],"split_type":[0,0,0,0,0,0,0,0,0],"sum_hessian":[2.2847755E2,1.1928128E2,1.0919628E2,7.0559797E0,1.12225296E2,1.0780604E2,1.3902433E0,6.043478E0,1.0125018E0],"tree_param":{"num_deleted":"0","num_feature":"102","num_nodes":"9","size_leaf_vector":"1"}},{"base_weights":[3.206585E-4,9.1895175E-1,-9.446204E-1,-4.000192E-2,9.8775274E-1,-4.978033E-2,2.9414898E-2,4.9871113E-2,-5.830174E-4],"categories":[],"categories_nodes":[],"categories_segments":[],"categories_sizes":[],"default_left":[0,0,0,0,0,0,0,0,0],"id":86,"left_children":[1,3,5,-1,7,-1,-1,-1,-1],"loss_changes":[1.9101576E2,1.3986443E1,9.063652E0,0E0,1.0527344E0,0E0,0E0,0E0,0E0],"parents":[2147483647,0,0,1,1,2,2,4,4],"right_children":[2,4,6,-1,8,-1,-1,-1,-1],"split_conditions":[-2.5509638E-1,3.0856103E-1,3.5227937E-1,-4.000192E-2,-2.8262743E-1,-4.978033E-2,2.9414898E-2,4.9871113E-2,-5.830174E-4],"split_indices":[97,25,77,0,11,0,0,0,0],"split_type":[0,0,0,0,0,0,0,0,0],"sum_hessian":[2.1805096E2,1.1057866E2,1.0747231E2,3.8464704E0,1.06732185E2,1.0435199E2,3.1203213E0,1.057114E2,1.0207813E0],"tree_param":{"num_deleted":"0","num_feature":"102","num_nodes":"9","size_leaf_vector":"1"}},{"base_weights":[-1.4135614E-3,8.8994116E-1,-9.687576E-1,-6.6894954E-1,9.9178296E-1,2.9468358E-2,-4.9830567E-2,1.1434316E-2,-4.2408213E-2,4.98359E-2,1.2199433E-2],"categories":[],"categories_nodes":[],"categories_segments":[],"categories_sizes":[],"default_left":[0,0,0,0,0,0,0,0,0,0,0],"id":87,"left_children":[1,3,5,7,9,-1,-1,-1,-1,-1,-1],"loss_changes":[1.813644E2,1.8042946E1,4.965065E0,1.3699646E0,1.3751984E-1,0E0,0E0,0E0,0E0,0E0,0E0],"parents":[2147483647,0,0,1,1,2,2,3,3,4,4],"right_children":[2,4,6,8,10,-1,-1,-1,-1,-1,-1],"split_conditions":[-2.448936E-1,3.4911025E-1,-1.1257873E-1,-6.7869686E-2,7.832579E-2,2.9468358E-2,-4.9830567E-2,1.1434316E-2,-4.2408213E-2,4.98359E-2,1.2199433E-2],"split_indices":[97,25,80,100,82,0,0,0,0,0,0],"split_type":[0,0,0,0,0,0,0,0,0,0,0],"sum_hessian":[2.0833946E2,1.0847015E2,9.986931E1,6.310279E0,1.02159874E2,1.3999048E0,9.84694E1,1.0042464E0,5.3060327E0,1.0115939E2,1.000477E0],"tree_param":{"num_deleted":"0","num_feature":"102","num_nodes":"11","size_leaf_vector":"1"}},{"base_weights":[3.8871502E-3,8.8562816E-1,-9.666177E-1,4.9798544E-2,-6.0417557E-1,-4.972365E-2,2.8328562E-2,2.6031112E-2,-4.2976167E-2],"categories":[],"categories_nodes":[],"categories_segments":[],"categories_sizes":[],"default_left":[0,0,0,0,0,0,0,0,0],"id":88,"left_children":[1,3,5,-1,7,-1,-1,-1,-1],"loss_changes":[1.7068266E2,1.7781342E1,4.618576E0,0E0,2.6960688E0,0E0,0E0,0E0,0E0],"parents":[2147483647,0,0,1,1,2,2,4,4],"right_children":[2,4,6,-1,8,-1,-1,-1,-1],"split_conditions":[-2.448936E-1,6.51899E-1,3.6609718E-1,4.9798544E-2,-5.199516E-1,-4.972365E-2,2.8328562E-2,2.6031112E-2,-4.2976167E-2],"split_indices":[97,0,77,0,11,0,0,0,0],"split_type":[0,0,0,0,0,0,0,0,0],"sum_hessian":[1.9745724E2,1.03505745E2,9.39515E1,9.667683E1,6.828925E0,9.2620125E1,1.331375E0,1.0712469E0,5.757678E0],"tree_param":{"num_deleted":"0","num_feature":"102","num_nodes":"9","size_leaf_vector":"1"}},{"base_weights":[-3.3208234E-3,9.598106E-1,-8.96783E-1,-3.0130789E-2,4.960843E-2,3.9311763E-2,-9.8981583E-1,-1.2048899E-2,-4.9762856E-2],"categories":[],"categories_nodes":[],"categories_segments":[],"categories_sizes":[],"default_left":[0,0,0,0,0,0,0,0,0],"id":89,"left_children":[1,3,5,-1,-1,-1,7,-1,-1],"loss_changes":[1.6461859E2,5.252304E0,1.6316483E1,0E0,0E0,0E0,1.4514923E-1,0E0,0E0],"parents":[2147483647,0,0,1,1,2,2,6,6],"right_children":[2,4,6,-1,-1,-1,8,-1,-1],"split_conditions":[-2.7530473E-1,2.963968E-1,-8.812755E-2,-3.0130789E-2,4.960843E-2,3.9311763E-2,-4.542107E-1,-1.2048899E-2,-4.9762856E-2],"split_indices":[97,25,80,0,0,0,11,0,0],"split_type":[0,0,0,0,0,0,0,0,0],"sum_hessian":[1.8930069E2,9.106282E1,9.823786E1,1.4900765E0,8.957275E1,4.755575E0,9.348229E1,1.001058E0,9.248123E1],"tree_param":{"num_deleted":"0","num_feature":"102","num_nodes":"9","size_leaf_vector":"1"}},{"base_weights":[1.0612067E-3,9.7024345E-1,-7.261781E-1,4.961321E-2,-1.6643833E-2,6.472562E-1,-9.56249E-1,4.5895867E-2,-3.448883E-2,1.8003853E-2,-9.780205E-1,-4.9534537E-2,6.1564025E-4],"categories":[],"categories_nodes":[],"categories_segments":[],"categories_sizes":[],"default_left":[0,0,0,0,0,0,0,0,0,0,0,0,0],"id":90,"left_children":[1,3,5,-1,-1,7,9,-1,-1,-1,11,-1,-1],"loss_changes":[1.28212E2,2.5680084E0,3.3457996E1,0E0,0E0,6.24507E0,2.9147186E0,0E0,0E0,0E0,1.1193161E0,0E0,0E0],"parents":[2147483647,0,0,1,1,2,2,5,5,6,6,10,10],"right_children":[2,4,6,-1,-1,8,10,-1,-1,-1,12,-1,-1],"split_conditions":[-2.062853E-1,-1.6959904E-1,-4.9796566E-2,4.961321E-2,-1.6643833E-2,-5.4375634E-2,-5.489904E-1,4.5895867E-2,-3.448883E-2,1.8003853E-2,1.2077425E-1,-4.9534537E-2,6.1564025E-4],"split_indices":[58,78,80,0,0,100,60,0,0,0,86,0,0],"split_type":[0,0,0,0,0,0,0,0,0,0,0,0,0],"sum_hessian":[1.7990588E2,7.6980644E1,1.0292524E2,7.593599E1,1.0446551E0,1.4507542E1,8.8417694E1,1.2325838E1,2.1817036E0,1.185772E0,8.7231926E1,8.612963E1,1.1022929E0],"tree_param":{"num_deleted":"0","num_feature":"102","num_nodes":"13",